(this["webpackJsonphandwritten-digits-neural-network"]=this["webpackJsonphandwritten-digits-neural-network"]||[]).push([[0],{11:function(t){t.exports=JSON.parse('{"numLayers":3,"sizes":[784,30,10],"biases":[{"rows":30,"cols":1,"data":[[-0.02552319141684755],[0.04331163077196571],[-0.04898868675050536],[-0.04409147871883433],[0.008600932578149846],[-0.07181771971203375],[-0.09477819931047768],[0.0838383037684337],[0.027448593533495918],[0.1034257850509204],[0.013400809903325789],[0.0855305947622172],[0.056166862115744114],[0.01961060353257468],[-0.09325939533102288],[0.057219671885537976],[0.021159441121419265],[0.06563882742576918],[-0.013547170672578997],[-0.038693356103105904],[0.01901919127546058],[-0.049970589006753635],[-0.07950134270372378],[-0.04262218752101694],[0.02026920712613641],[-0.057366263924080604],[-0.07739601169000963],[-0.063075719319162],[-0.07086699191521922],[0.027805878229305428]]},{"rows":10,"cols":1,"data":[[0.01223678833444693],[-0.019412603620686426],[-0.05469787537635341],[0.01999906482142418],[-0.09545240202456841],[0.05128464726410502],[-0.09365969576769653],[-0.11056786856937778],[0.26385779707124135],[0.02641214786746678]]}],"weights":[{"rows":30,"cols":784,"data":[[0.05229091487995741,-0.05345140722797395,-0.015695089254009167,0.047352908135241005,-0.03993510615040846,0.024532275231348433,-0.011456077469461303,-0.0023271559348118477,0.03443142275923296,-0.02439965039962265,-0.006603877336202695,0.024952231292856467,-0.007651753232638616,-0.04935226094399219,0.02120846939344591,-0.044282011813114454,0.006094226927019206,-0.05593277121838552,0.026110394781705328,-0.010528957984489034,0.06790759373298821,0.09108017325691997,-0.02327556339797831,-0.031310925698728405,0.0056121459115389925,0.08624673324564547,0.019824134993491668,0.011295382992310773,0.06217620244612808,-0.08582302853976435,-0.06345293698294259,-0.07007337680944078,-0.2304732013807805,-0.06814287007123161,0.012495593012897615,0.0200224362785709,-0.02729359783777979,-0.07063743140523725,-0.01824601031984202,0.00470574306340332,0.027263118379269403,0.05696474029849033,0.012487883331320039,-0.007367303998379068,0.019623086199122345,-0.10891341665531482,-0.03153574273103322,-0.05779640827945392,-0.06645404345733577,0.0728641290800949,-0.07794572889788026,-0.011501082891751535,-0.023469736530005208,0.027723242699435654,0.04457500940481494,0.03479710060993236,0.06388744200702715,-0.05525669241960106,-0.04019790694901446,0.2806638868487847,0.008715749415463058,-0.03685420354085172,-0.03215788331445785,-0.05030125350578983,0.1269363183477828,0.09664257981031371,-0.04267752320369842,-0.0010539875304540122,-0.029438001830815578,0.03352660720346996,-0.005644734523724983,-0.02941885552947431,0.06134064679091026,0.08780802495241768,0.05377916969569776,0.05781420066976482,0.0005322804045767523,-0.09210834521903667,0.0253351698740519,0.0897543902407563,0.045498898700566545,0.08260885897153057,-0.030492234330202157,0.057836454890268285,-0.13851672136018106,-0.13919663954919814,-0.018505149922388532,0.10826528045613035,0.17685341583399578,0.021033244919526725,-0.05018332697980382,0.0009413538970089218,-0.021462610699931047,-0.021104462680633825,-0.00530340702638147,-0.09502593305603117,0.04553133342579977,0.0899276853907046,0.0012021779838581677,0.06070708297838643,0.06487629674740214,-0.007588708427299686,-0.0654357438950549,0.014360831934163888,0.041966004176530625,0.07214394092207721,-0.04655030075424763,-0.0007499689034073283,0.10627942270435395,0.08014484624059126,-0.02965892327829941,0.07729656791408245,0.021940104556550457,-0.07347081540419417,-0.03324063693978148,0.12506996686698166,0.09378457126600873,-0.036603752880378475,-0.07982938602951445,-0.08228527455934259,0.031187839568441185,-0.028128380845023768,-0.06815742644601047,0.07458539908244956,-0.00773451725374134,-0.039877804822499405,-0.01831200035789204,0.00351598557128979,-0.1038987374057346,-0.0941120472372034,0.05050298182735859,0.05457467093507915,-0.0527666047452514,-0.07905104512830811,-0.06536669391447894,-0.014223972283750237,-0.07684181866808286,-0.07161688569278149,-0.06925039225794248,-0.05872065909238752,-0.0074784234756349564,-0.003397992839652294,0.047226973543052685,0.12032415945266935,0.030539895127406708,-0.0027758712946713577,-0.004537040648010102,0.03452325614865174,-0.017188255661177477,0.024596536904651245,0.014329461147158908,-0.06256333675908415,-0.014636353127174904,0.031170285401979872,-0.02684512865034368,0.0402196797080968,-0.025101066277745335,-0.05977481839459211,-0.09545666653242595,-0.12786077232044457,0.06005295702568955,-0.036965587227523196,-0.007676131300519383,-0.0037814599554210435,0.02424743861556887,-0.007760578242474096,0.0923071118965707,0.01111573761641338,-0.0025758846207959477,0.003643541347308568,0.0833858128995067,0.0009267483511986036,0.029677285709905965,0.0011823910840152903,-0.08683874444854381,0.00048106451728542637,-0.0691352056538622,-0.06715510505764367,-0.02637547052349939,-0.1104695767303893,-0.027993613082554606,-0.1196020816913484,-0.022637432823193672,-0.13423423466587078,-0.09916686212169722,-0.09714230451108666,0.0854604737563677,-0.04879565175322033,0.02774543161311513,-0.016450347440263607,-0.047662285516256994,0.007677611737755594,0.03922833481419536,-0.055689199995070396,0.04342654302750456,-0.14041716578069358,-0.05881490212499991,-0.03944272959696858,0.01807578615448895,-0.0717955185199402,0.007095885000841098,-0.03816635207765001,0.002676601698457486,0.011874323759347211,-0.014556648610566936,0.011594352021853766,-0.05268985201977185,-0.1364273755031972,-0.09795171726324628,-0.08208561675242453,-0.03251885301451076,0.04595799663939483,-0.0030321535146971604,0.10630276461512819,-0.0159595558498085,-0.0052268140214340505,-0.0016483278459350585,0.006516667438486687,-0.02470028524625228,-0.05154262466996553,-0.03860160532170516,-0.07505419435272621,0.02649449188510905,0.003683682262906778,0.08990984389245478,0.019220347169122975,-0.07430516097673519,-0.011792561432630527,-0.06435388195422143,-0.08050397016328792,0.04431440379673649,-0.13484620041034043,0.03518979262817051,-0.058363895533477636,-0.08991712200086305,0.00485658554382119,-0.02230549417758536,-0.011702975371958019,0.10928413146829552,0.21096884708063418,0.2143953172580003,0.09474031233065063,0.018548900836419677,0.0145789058860732,0.058338173546361345,-0.05207729260935916,-0.01024609126539842,-0.050462590424899735,-0.09566061507156746,0.014181296363462357,-0.044424100937030336,-0.0710067390850729,-0.07112138256734037,0.018928195465808435,0.0005343405252627828,-0.05830611900791984,-0.009270064639760035,-0.033259200766575306,-0.0625718394004003,-0.02651460017235723,-0.09950311327487374,-0.09320809319054264,0.07884878535590678,-0.01645421074423903,-0.0438751849746928,0.09957727869241885,0.051353212029222654,0.16377372833619241,0.06003101402234869,0.10205343875682397,0.08668083312778554,0.05179183412845649,0.07642433748929114,0.008722616554998073,0.003705187533939044,0.03734705983576385,0.016177604756102318,0.06068854790492261,-0.09057189217200735,-0.12603072001248855,0.00981675635771438,-0.04491738226901343,0.08182606405300319,0.006273272031709309,0.0012393183651574137,0.0007994118986887433,0.055209701218379974,-0.02665361477246884,0.0635074697657222,0.0886754747524148,-0.06748381705377927,0.001980679915832396,0.05241049291335605,0.15476607187693855,0.06505142617105654,0.10443702683066304,0.024172955229032053,0.08526949731497827,0.10016296040450742,0.05640978075223959,0.03034032569618722,0.03561641991594171,0.04966137007779561,0.03898857634176988,-0.10139675388201909,-0.007042113194102548,-0.05743579852012368,-0.08019280868801715,-0.06867918302671644,0.067138907075548,-0.029344059227503414,0.0015368219328735972,-0.06338293958317727,0.026391819927348747,-0.07850274163043947,-0.013462530989864092,0.06253016287970631,0.06341399729387281,0.059215761797047586,0.16394318135904873,0.04925705906826964,0.14602406988747238,-0.012771228623179197,-0.026185405304693044,0.05397235628263302,-0.02384954776473963,-0.008790429273337891,0.003221538804158581,0.04379399615146085,0.06449732608587493,0.009843167636746723,-0.06737751442686678,0.014025806488338911,-0.013997149997840219,-0.03632355833718534,-0.08163410236831596,0.0072296707652482394,-0.17814531695829,-0.20758529037332193,-0.006676364990058264,-0.015532107020857843,0.020581522388890702,0.09334504073559025,0.02465785805818591,0.033943290853922115,0.036927610980722586,0.10422677149949836,0.055352854537681975,0.0297180965602325,0.0036857111786479475,-0.03131638226549048,-0.055569147784546816,-0.11800409104305101,-0.0052814858820586195,-0.016851114995972832,0.11333418573372438,0.05926835583756377,0.045119579032177365,0.019376555882347147,-0.026794217536643183,0.025024513375939587,-0.07922760521122331,0.015578669757986425,-0.12841157833393668,-0.03193934361495935,-0.3729379845606157,-0.11908529711013985,-0.051087416962265146,0.08196775797703251,-0.013797015999548705,0.00018124618927854025,0.12444590958423583,0.0026039700963739793,0.1290147252511965,0.1618551182411258,0.05482374775031022,0.03685483485754611,-0.13289449726210825,-0.04853610224649046,-0.08210819769970663,-0.09320023346933493,-0.09212193353702693,-0.04197504718192593,-0.0336068902326732,-0.05708409086037804,0.05649990998072172,0.07058255836746447,0.009287396601966081,0.13856026855451228,-0.13126573989597998,-0.056838242979082236,-0.04086112225798857,-0.0477154622660054,-0.323969082309169,-0.014566507502977008,0.012394660504679819,0.07962822835203333,0.00567369333792675,-0.09505937564371207,0.0008745550243993568,0.055134414694239374,0.05213518472711197,0.018385719207357355,-0.0559536783981648,-0.04257275238439051,-0.05124535880385363,-0.12658575031884536,-0.08981391011347162,-0.1158903736550065,-0.10888616664146637,-0.08026060077464116,0.06105378892347028,0.12043775792407355,0.10163104200711863,0.030345212093764607,-0.1117977267817784,0.027135430813930925,-0.10202206303820924,-0.11337512420451272,-0.07793311249914482,0.041496216960021495,-0.0690019717120499,-0.07497429027763519,-0.03540812294035677,0.024321951659462025,0.0462726454575692,0.035848929870547185,0.0304869305744164,0.026869773079562263,0.03187464190694868,-0.006091763264271386,-0.035721543116799606,-0.04037370697000568,-0.16297122340030878,-0.08626734385338744,-0.12795210180263106,-0.05757289694476447,-0.04327778752198651,0.003061750569393337,-0.008922387522706637,0.009773540523415537,-0.044219750828351674,-0.019379686511798725,-0.0052760601840006185,-0.05706072760799684,0.029193662855702997,-0.049047109206468306,-0.008648773912480295,0.09373302598571065,-0.014808101501718742,0.0083757016707641,-0.06520201266497863,0.06768718466389788,0.0392195682467205,-0.046222673028630104,-0.0029730788322640247,0.0057255628115035154,0.07297784337822642,-0.0647803772902459,-0.03915092760380601,-0.06889929691212462,-0.1275485261414027,-0.17461712237013197,-0.16522359532966477,0.014060035543022776,-0.008606396075264094,0.037965985476862606,-0.0321919134408801,0.0948735796808547,-0.038479867910854094,0.08137122728516573,-0.009467431243960357,-0.008478105823632438,-0.08953817242547316,-0.0924593295984459,0.024887096938807012,-0.029791389115230254,-0.04229767856351212,-0.05645611319589657,0.015013641247403045,0.05385339921062229,0.07214006032817513,0.04760054198230021,0.013246072780032815,-0.03479618045169113,-0.030834235810315042,-0.022997819875812536,-0.12786952871410306,-0.1460394543178883,-0.16992203131522232,-0.18492603022951348,-0.08190012215282494,-0.038413713711076096,0.031325612171109234,0.10590596747454555,0.10835338352958275,0.019313696887293837,-0.06048527158898791,-0.009811753203966638,-0.1117647809298463,-0.10008624956685949,-0.05658185047472013,0.010740747658631184,-0.03067302890673271,0.13549621415351748,-0.09655034725914301,0.02439265345528648,0.061322648806395104,0.020379749551331917,0.04567663800331755,-0.012594863831972817,-0.008284100169668211,-0.005942816424573985,0.012715624905962787,-0.04162739534414147,-0.10606853609982615,-0.17123755397728044,-0.1824169307650181,-0.09646892723124093,-0.05327354785523761,0.05395657699080679,0.01634132466994387,-0.03164136033640643,0.008023655701043981,-0.03784926712245674,-0.04212846017660922,0.05106433097454825,-0.0650883121186214,-0.018683526080110036,-0.0014977497363472272,0.048536375595737244,0.025762092736104705,-0.041707265995737576,-0.044736921604840364,-0.05696349668567417,-0.05620609672151328,-0.022053029651070186,-0.09997178434809358,-0.036089035680019886,-0.024109313517397063,0.02399630507822544,0.08510962626108463,0.018487220202336143,0.008802566791025099,-0.04400642968163902,-0.028191935144302654,0.02900803925127492,0.01876283665093676,0.03647761607033389,0.0654658499031042,0.026484220660102382,-0.05902046578967739,-0.07652013851561865,-0.04505817494216604,0.010500780395813364,-0.1667470069181659,-0.061284143589301454,-0.013205230325779131,0.11056419873477022,-0.08359066334401762,-0.007880928147437977,-0.0809107408276821,-0.030198082569585585,-0.10083698621325797,-0.0429664913100233,-0.01616002673070022,0.05752288700392155,-0.05705871337195148,0.018996714085858457,0.027443300627947195,0.1066472898979896,0.03556239764107285,0.08387195705401508,0.05844318342012632,0.09747606491372468,-0.010175007953829722,-0.034759983543123235,0.07817645197920474,0.04090570981838388,0.017487498981690233,-0.025502583213979503,-0.036269288497160664,0.009328191686267086,-0.04880557604295219,-0.07234689357296505,-0.051401693774360456,0.06702181294128413,-0.016312808743327103,-0.08052141714088384,-0.026714478228643344,-0.021794347491877846,-0.021227233216492412,-0.023588364851695316,-0.008949497850562009,-0.01016752628788821,0.01751867815556319,-0.01950705003566444,-0.04130608676655423,0.07242669383115341,0.10721240817455685,0.14036128221968053,0.07578848404693261,0.008810887440932282,0.11104955205359285,0.048030549965316756,-0.02148058012085816,-0.04149631074612578,-0.0054579075051277804,-0.04886941026333664,-0.032801560501722726,-0.06268037654280162,-0.15149608999077147,-0.03237995384061777,-0.07157284531934142,0.12764844576198145,0.008517202395069824,0.02424619358715513,0.002037919019310588,-0.04909712437164585,-0.08081659284755138,-0.01346882605198367,0.000991168745868036,0.015575502032452096,0.005768633303122276,-0.018810683506664722,0.029229135396121056,0.11697498670541281,-0.024537936381112027,0.15890363066517874,0.009013112346176218,0.04354370053708357,0.07827638638690634,0.030608034557672217,-0.04184625056810819,0.015595260146368212,-0.0863581298972121,-0.11380830112289556,-0.0011654154051232352,-0.0019183669123285754,-0.04090368743182952,0.06418456381133102,-0.1447809320451127,0.07640396610348243,0.03979350045042352,0.027358067422426142,-0.0847257065224437,-0.07163260728714732,0.0007708439488046016,-0.03135895014703102,-0.05899769387940719,-0.015221848756399084,0.08521417731781729,0.044686733225388284,0.010705147841846889,-0.008079245314785093,0.005667857657600906,0.02326621371297022,0.06701709740600162,-0.005079858938518339,-0.023101086875135943,0.004609632693877008,-0.01364517306912159,-0.029440044450905423,-0.0007694782512627179,-0.12766322018881884,-0.004164791243403028,0.036797146967407456,-0.05608254892252812,0.03801077436474181,-0.09379688724632014,0.006312317286326445,0.07140410191853981,0.019509147006241224,-0.057772035469098086,-0.17193345580289698,-0.05333628022224828,-0.009447400376249642,-0.052083913472824254,-0.010856735918607464,-0.07172221684864558,0.02529559141600152,-0.033320671023208626,-0.016268882647133102,0.02811775180719975,0.040131515068467016,0.06833242435196196,0.014775807373328636,0.05809701501749858,-0.0386983203186438,0.000619139345619551,-0.06209268626065041,-0.0474502558595924,0.021604985876286297,0.014431575498396618,-0.07289247900555866,-0.036246565467077434,-0.02649344822914948,0.01275993657882161,0.010535107370988986,-0.006560940541122992,0.07222222865262976,0.007455652793872139,-0.0869892967479752,-0.042677361414677956,0.052488997274414216,0.10425357361707015,-0.014672031549275925,0.03750092764814987,0.0661545266131603,0.04517940051553138,-0.02758802996479488,0.025111459972260216,0.035299022155465355,-0.006318748310183087,0.10376494954142239,-0.0005941390137159294,0.014205871044918453,-0.00998622019681475,0.062152583948136386,0.09317549204410244,0.01107467640537113,-0.06922052093453293,-0.02426233028536171,0.04890320592962896,-0.013802440378982428,-0.034643347737045416,-0.018317484704353116,-0.0047916767600504236,-0.11197216045788652,0.050053279006254385,-0.04263251471561317,0.042448102128173,-0.025102327622152153,-0.02581513269900806,-0.002958102261119719,0.0754686993281952,-0.006435756355101415,0.03269062461156515,-0.029678150478849315,-0.01803144345918313,0.05671689101277945,0.09489062181703982,0.05981495216919602,0.15741566297595663,0.014864149846653128,0.10438409541641122,0.09052153653212197,0.09809270201232854,0.032859548811910624,-0.03099810798116885,-0.09737907767255319,0.0577354966729806,-0.06772410956980603,0.017924497721913974,0.014524979133629346,-0.10062971444284355,-0.026094473571162465,-0.01371873434509237,-0.11537432138607123,-0.07930824391582064,0.08291025440615934,-0.0219356163890215,0.036654715150489146,0.014183651399402857,0.055217999741018604,-0.06037002115430862,-0.015194140637332636,0.09238788844219259,0.06995229714909976,-0.05483716711096678,0.0093494977617231,-0.03151694834469636,-0.0032894498450564465,0.020312791855718538,0.0032503132389492665,-0.02853652291306661,-0.04786453889531951,-0.00813731592341449,-0.07195745682925056,0.023448997956760014,-0.012907080420493908,-0.0516728818075056,-0.05326854762412489,-0.0029081224350893374],[-0.022462372711064448,-0.05064664933608613,-0.056208485103578384,-0.06674232886826677,-0.053801992584809666,0.022642260088598033,0.013723741995253743,-0.008501573860697956,-0.0777445102138236,0.04441506106849534,0.08373292584087075,0.035465445424015606,-0.04775130919545336,0.01860237341587442,-0.01978917259614664,0.020786567056586453,0.009939046329868225,-0.043900751558163836,0.021476258665352667,-0.043971456684540076,-0.04458148080870186,-0.0273834465064352,-0.0022828297493614684,0.0568800965163334,-0.01228785942883846,-0.07612676871555779,-0.06386773403370369,-0.016407620364103686,0.023572826057118326,-0.06652620512137994,-0.033110892043423476,0.028805408924778588,0.03312587477767031,-0.032664688666853244,-0.1358070519229409,-0.08683970178931079,-0.07240651903380638,-0.022470017368942254,-0.013765442449040072,-0.07157771710944867,-0.09007176453254163,-0.02048502977039177,-0.09806356617129336,-0.0008031486669925103,0.006173435584208614,-0.023131579778130167,0.037080366921965015,-0.09648646141710891,-0.003883697783841293,0.02244286283885311,0.019546701286140018,0.003444939455721362,-0.04179793329907212,0.019427794685628202,0.03223161554764648,0.08444589031944902,0.008164240580105257,0.02679053358123895,0.008640377439228917,-0.04814761126744392,-0.05706736275578587,-0.04158646441820469,-0.07450899588475211,-0.07707949836711066,-0.019283147180698804,-0.08714887433633356,-0.08390204313287902,0.007182377093390903,-0.06932662743701733,-0.05192580675656772,0.07478012700180646,-0.194285862484273,-0.02164131263359307,-0.06242105580633082,0.0007953422850904921,-0.08426729742804931,-0.024461733273529643,0.0033205030344517533,-0.016904640109050982,0.02467478754834044,-0.03666548276491259,0.06532439694957094,0.06993587691664484,0.04177746163426812,-0.0662069294389003,0.06356420628156298,0.0033491045629159186,-0.10367425342194633,-0.03445501256717892,-0.10865453067041513,0.009239625689747965,-0.10330000678389202,-0.08215742254807851,-0.018685380872608452,-0.11732561390008983,0.01662664272458683,-0.04365465030730934,-0.10354118233413825,-0.08407690730019209,-0.01091030750168846,0.01383609776836423,-0.020054855302078543,0.03513606481145557,0.003857289751717473,-0.03240905057177673,-0.0003743857741754026,-0.0038887292626063443,-0.03590780017279466,-0.03621384326718135,-0.03341215689295766,-0.02351005427857505,-0.010530603738083833,0.013872866597350963,-0.0445793751520892,0.20688582977386402,-0.09390259066807059,-0.06977216873745984,-0.018012228958559185,0.01844980719486469,0.002501581071942441,-0.10616684154480895,-0.01767554116963133,-0.03926733754938539,0.036606703220446624,-0.0038093601528366777,0.023086585166722972,-0.0071531060270899425,-0.04921959411824882,-0.009561602847446707,-0.0620306185249225,0.04645163383056553,-0.09205300318192515,0.0865147534213356,-0.1569119198762499,-0.050485505656665534,-0.037278258163056834,0.0009100337324989629,-0.06806344018845198,0.000257568004886819,-0.004068126265388267,0.006552135576633048,-0.044765475075644455,-0.014468452984184664,0.06744420400141972,-0.11327336022102834,-0.0005486028043584911,0.014915039362307562,-0.03125088051823204,0.04604907730867098,0.053906503582121706,0.055983942000386276,-0.07710425933145107,0.09533212395613719,-0.04307329334758603,-0.022776896741412766,0.02863604929374469,-0.15469427890945373,0.0895949010696265,-0.0537951780787487,0.04231177483721165,-0.051693079723127484,-0.021295081115102824,-0.04093634279233271,-0.00243375489788649,-0.01284855812994627,0.06929119693792361,-0.12759174300374523,-0.050625964891497795,0.04189559902701098,0.03818859609545578,-0.06534749199576441,-0.0343458355007252,-0.06937780911113864,0.005880989631504443,-0.05071194763879015,0.0513285601026686,0.02459874174887537,-0.04874330045828234,-0.0026779081416100354,0.028732627877071062,-0.017979847211718504,0.005677652881569696,-0.02088272965784624,-0.0698152718058187,0.06065612147490566,0.07692053596923626,-0.0008789553841626538,0.028170202065587506,-0.028322978926586466,-0.008578307831205901,-0.0993853192228487,-0.07916149033656729,-0.026681891713995286,0.0073350631664721635,0.07606922995607919,-0.05822442860312497,0.06608946572551927,0.07754298780681987,0.0033962343459333923,-0.12291533077374012,-0.001978807594271342,0.016675007583064033,0.05115520303134438,-0.046825882541183375,0.05499585084130652,0.07798549637026614,0.029420292690122377,-0.02575347491426634,-0.02382713894969255,-0.0035625300827813082,-0.05561100334750083,-0.023416425258592916,-0.037596323497409316,0.034217968199560266,0.00440113280098353,0.07809810742090922,-0.00016826831553158096,0.01595766053260383,-0.1510426100845297,0.0011025816695358303,-0.10484048270717362,-0.13912245679496146,-0.07286323393883855,0.03405408487663582,0.000631056402354292,0.03677686898740453,0.07259666317600291,-0.05303805709106024,0.04835237906340114,0.025579091299389775,-0.012853285007071183,0.04593890845030615,0.03999909292854564,0.04962692329229572,-0.02927492653843305,-0.057302692652654974,-0.13013518343845729,-0.047664378455633094,-0.10770367758378643,-0.010620888278155346,0.03815301199024979,0.08440865121812036,0.04525863005735602,0.12731320164011636,0.02485523481811972,-0.10564189967428154,-0.14623279746062876,-0.1678198095002217,-0.1341152977542082,-0.06498801817328109,-0.00778030771387443,-0.06345923653614324,0.09216576452449145,-0.024615080457639202,0.05997003157925665,0.04946050794405775,0.02867120441116002,0.06630383950787148,0.07864106802902819,0.03214286200916115,-0.015989141586902154,0.053097742077095555,-0.03621345844895966,-0.10465242865930216,-0.15566016325150878,-0.14942228820662615,0.007145940642750724,0.07059750040065807,0.07972010618382713,0.16697214477193692,0.17137369460042243,0.027461235378559358,0.03433305994390597,-0.10045410391313815,-0.009811548077238691,-0.09257853288041197,-0.23477641912730193,-0.11069805231994582,-0.05098570043268199,-0.009715339311068757,-0.017313316431426806,-0.0026339145745899683,0.0643775619430487,0.015636485507052083,-0.031988227998789184,-0.08250827664407566,-0.006721467741355249,-0.13047886907430842,0.0023943631117275075,-0.12036126936705094,-0.10517071353084756,-0.13515934378208827,-0.06946292529542004,-0.02540242993645323,-0.08064024480705828,0.03928961667252649,0.12722834559594828,0.20633579577894154,0.18469821091704736,-0.013749384778572717,-0.05920198633303867,-0.01839956825385576,0.014311746223883521,-0.15495018467004865,-0.1534482301901284,-0.009154498225891892,-0.033083856578418745,0.007968448975009087,-0.01486582100159771,-0.02772270036322512,-0.005768706212223054,-0.06475421044902709,-0.0724318224104821,-0.012169222153097715,0.0399932464030596,-0.07764852478265104,-0.03568641702194005,-0.0848006211262436,-0.11404075616672657,-0.03704087747332254,0.03571011141949131,0.09910828132175743,-0.03041130176624907,0.08024318555516534,0.15534235964746862,0.12821823140938005,0.1383031717315789,0.06214416081101727,-0.0006406310932519294,-0.10607844606052182,-0.06711174430654489,-0.1258824058026302,-0.13139084456456648,-0.10564364581001172,-0.07293770143374782,-0.029858332408025243,-0.02336201160395629,-0.022614161429210352,0.06336701892170783,-0.05511392752189444,-0.0264430449192051,-0.05519704918552961,-0.0072506439482178464,0.006518531080156076,0.007090862041334077,0.006941788124815962,0.08263131485143597,0.24579226633343682,0.13196809059666878,0.07155016520766412,0.04944831779354243,0.07478662595449924,0.11644394873802705,0.12775099371741638,0.1610630040664696,0.055942295500026405,-0.008843414587770547,-0.08064560701149413,-0.027543210115151755,-0.03022633931621208,-0.02499958102018834,0.017674907158432653,0.0062689844832099825,0.06495999569097,-0.09307969548610155,-0.003740254343867502,-0.09634405112057719,0.04110264692285768,0.04909188059499841,-0.00942153479256783,0.037110720641500124,0.13111441649188577,-0.04545618540586734,0.024736719489879825,0.16434722785736153,0.22402552147019397,0.06727958420557552,0.028499310933515445,0.023473742124413954,0.0314308385681401,0.05815582234623729,0.02144354835197685,0.12123310734390638,0.05543435955823602,-0.08989244889659474,0.01839497875679126,-0.05024720992476042,0.04958171040030632,-0.03810542152732743,-0.08010843458697803,-0.14340279907596593,0.043005176203578535,-0.2916233160314692,-0.01576450225242167,-0.05496823538462006,-0.16757080278132402,0.00980671315010154,-0.03461210834018653,-0.014006852785800678,-0.02559544731242177,0.13708322922961844,-0.02480803345554791,0.011549060677439679,0.13288417154977278,0.05234954498523409,-0.0971459786974815,-0.06621721101251102,0.041045243175413325,-0.020656307661886315,0.14388580285450492,0.13781331389661852,-0.03589200285353984,-0.034059978058118064,-0.02667128246435028,0.018956532311214185,-0.10579036415524687,0.027386430735812643,-0.10443643322613365,-0.09509122485300217,-0.02699417785039666,-0.07068558992704832,0.12414888874144774,-0.019239501869749497,-0.09113258101404889,-0.13879336777722945,-0.07843660001183685,-0.08095745629558225,-0.0006549125467038438,-0.03880635252323414,-0.04921393081765282,0.053680193568138725,0.07337695493876106,0.02353070812375862,0.016317824886139424,-0.07082223437724412,0.07104394217432626,0.06955843600295274,0.1472340267238027,0.04057420981624587,0.07040447369130376,-0.020822033329860712,-0.05224897210497956,-0.029898488540946042,-0.022283477275254523,-0.17828114905182751,-0.07880296096272563,-0.06489474476538908,-0.2621146571425818,0.32842255416459015,0.02857012969682487,0.022148755979461084,-0.014891575545919229,-0.08159972559818687,-0.09304828968202819,-0.05887534058035803,-0.07419337083164483,-0.03908963766165105,0.03657612751564666,0.04546231701234265,-0.022377638629193466,-0.03606479820610901,-0.12536089595698346,0.043263704246671746,0.044664750007704555,0.0685804479285351,0.13150853614914407,0.044838063660487495,-0.030413951850482814,-0.004353010374436056,-0.08875553293235929,-0.0791289324954295,-0.03246327748624951,-0.10242111196321278,-0.04048381105627014,-0.07284270880605556,0.023138162733889595,-0.02355811607007475,-0.21187810381143887,-0.11893813388380917,-0.08607442845505565,-0.13345325234197206,-0.2542362962490586,-0.07459470153874365,-0.11792372234658982,-0.05550411309271305,-0.05797630215423684,-0.10314325376041053,-0.08595718562697312,-0.029164534141333475,-0.03332471825465348,-0.007722813199743991,0.056851459010210846,0.08675162406679261,0.08834922915068814,0.08872371747682618,-0.01082402430185377,0.04376376386789178,-0.02257983637380558,0.05542291712981819,0.0017217510936724145,-0.043094308974925916,-0.08064425922217297,-0.13392283694380758,-0.03181438946379895,-0.050000468361047816,-0.004451607019325712,0.12473462362214627,0.023506895534127735,-0.023013839737311227,-0.1033675601929278,0.000049565703584030735,-0.03567177371965011,-0.05413715498620881,-0.05403758644206637,0.0005610602898163671,-0.019207194856967705,-0.008790624698767568,-0.12878376142252543,-0.02166548643184843,0.07716894464269261,0.10101972356551253,0.009325967814357369,0.011211647644994745,-0.08610969617516039,-0.014487572443783852,0.005741911256232525,-0.015756020549746,-0.2036019901409095,-0.04568640182309841,-0.011692069325875293,-0.037015412281362355,-0.02312384320290003,0.06421646595620174,-0.06230149580593219,0.05802843654366878,0.0709369436636337,-0.06373387042912114,-0.018656866452641887,-0.07685868621883507,0.04398610612821503,-0.05892594808552597,-0.11358794939338403,-0.0837857800238101,-0.11721207792359173,-0.1062262541916386,-0.09432883756986393,0.0033061829655621744,-0.03195314506846273,0.03199893965548138,0.04302574539062213,-0.027687598055110983,-0.049939379337238375,-0.0710817109590542,-0.056002581931341444,-0.11896806929128854,-0.09928997005153913,-0.10743871707645769,-0.029445738644533658,-0.02399030564834508,0.0450270874040965,0.04818206924600084,-0.014021888229861211,-0.0615087982898613,0.040723163787525885,0.00846964395743818,0.007878374594649469,-0.04026863572604669,-0.0845429097536859,-0.1463729845905994,-0.07838714503096951,-0.050725873098707845,-0.12666617176621853,-0.16556968853278012,-0.045860289696881384,-0.0008692980004936365,-0.027425133502755515,0.06680162128188585,-0.018032485538671966,-0.08119836204546328,-0.052430891114138324,-0.09592837999522844,-0.0627796219346033,0.015388570269860683,-0.055247746184853265,-0.019297840726699003,-0.0034726011078785473,0.011968322152655517,-0.009291575980597646,0.01864672727124623,-0.05549838496712365,0.06646808083668317,-0.047875349366572395,0.050139439677806145,0.002758416049677518,-0.059741282556891075,-0.0026261469263778835,-0.05367957625493365,-0.05743187835929074,-0.1153638120881923,-0.017921530747526705,0.02930362557717047,-0.02552384917858081,-0.04880454719403626,0.039194652469110004,0.09991175795396066,-0.07483439436494016,-0.04465712334836812,-0.06516783702492673,-0.0784237954608371,-0.021459880754729124,-0.1407100990006321,-0.0118729202360291,-0.056971934507141525,0.06124038151195776,-0.062399348349678925,-0.035380900533815374,-0.010022758716394015,-0.11818051394528617,0.013886056933807534,-0.0028677035301432332,0.014917697560798535,-0.07138102558536953,0.03912114012257535,-0.10402486748551579,-0.014663370863985094,-0.04671943930363976,0.027227976496195235,-0.05786166298121916,-0.044232439050714015,-0.03547570326074948,-0.04186040091653399,-0.05046741650381211,-0.015738803057741224,0.019803608868644976,-0.033045959259634085,-0.11010196123463267,-0.14951432983525828,0.014564874380202427,0.0054454883669477405,-0.05628199953493659,-0.01911644916630509,-0.04403431097577135,-0.012124608251838188,-0.04640022143580278,-0.034985143309214393,-0.04383327673374236,0.12011555325773783,0.01950600015737512,0.020251223372272177,-0.09968493799342772,-0.046499613427156646,0.07296170310153412,0.003313891844944272,-0.03269385159152288,-0.02134589815121552,0.04795792034721833,-0.002307639721991774,0.12423522098987413,0.030478846185763613,0.05498334002599092,-0.11228328281745922,0.07205071593952622,0.0836351713283086,-0.043012190601623757,-0.1174657268679328,0.02024944391504945,-0.044373456706770786,-0.14166431995431455,-0.0007989241122100036,-0.14014557383890694,-0.13340721486882262,0.03359921523978436,0.033571697334558066,0.006694390997379219,0.33974120474443564,0.060046297623914814,-0.027216055109850566,0.03234955422954015,-0.01405347070918001,0.03389391475876828,0.059066086919308466,-0.014390657015004747,0.04300047490805383,0.07688646589588656,-0.06388535463950011,0.023507560185155086,0.06632620505997414,0.023750106703175393,-0.07497500883117902,-0.04655168009785799,0.015953102273965784,-0.04084840850702909,-0.07217195034070212,-0.05006974972854025,-0.18316172707821782,-0.02929017464585584,-0.05752813601409584,-0.16558084926331412,-0.34549923785747955,0.0398797705587249,-0.0023294249989227137,0.02012104764755599,0.2845727908565168,-0.20620819401724708,-0.12640993250201943,0.06338281212348337,-0.0036813464180578976,0.011058322650982451,0.01911567740987628,0.011481982105563582,0.05358241831256928,0.008195455638422177,-0.03235809783972233,0.038008619799828405,0.03809947076320841,-0.05850025647096416,0.07840903875484409,-0.0253362432505127,-0.0663403613967663,-0.05600813151672406,-0.030210689393964294,-0.21507888369291903,-0.11726138421590188,0.05576886206992706,-0.07388047525497632,-0.27394360776803073,-0.42120130047229715,-0.08706201942045602,0.015735005172137956,-0.02706137600068023,-0.12686101750161283,0.07760092166203889,0.028068123848182247,-0.027407590962883123,0.017761708490647458,-0.007796835693832102,0.06360364246013896,0.030789139670999395,-0.020862301577316278,0.061204343371631,0.051390585988994354,-0.07396537993809787,-0.02879987179509644,-0.024634991769893085,-0.04342064561925049,-0.05254012203692714,0.013863209217832078,0.029817175496567573,-0.021517435939273393,-0.028586616309538893,-0.06842125289028203,-0.10679066365360403,-0.061245140275061595,0.1255129825100015,-0.1397529698632011,0.016643896597799336,-0.013620291937934067,0.013560237096582188,-0.08096681149145292,-0.051983407278118454,-0.029805138287785953,-0.08559955094684189,-0.019063973202474927,0.018053260068213502,-0.0314925132579994,0.07081337241662736,-0.08631525958195721,0.04401108970350384,0.0903804155838139,-0.05105568236512063,0.03577158897250054,-0.09141232760897482,0.029105351692317004,0.014046928852475903,0.02831649806918752,0.04338108616974005,0.007057704300197254,-0.055982338837037515,0.06281840849179662,0.03939366863103327,-0.07091699254742388,0.024732866753314688,0.00045495816168799615,0.015784991146608432],[0.008854542273927105,0.06489423380822132,-0.04205208161759498,-0.04215580735475173,-0.0313127328541169,-0.024141797422051647,-0.03541763127722563,0.008416988636747854,0.04499537829474822,0.01458009465428714,-0.050628425917256636,0.05782931476371095,0.00014216693506201764,-0.005852662724134336,-0.07030171679288535,-0.04942597738077096,0.02366987164852989,0.020970418280701203,0.018416254450964422,-0.07148386775029947,0.002679996258914036,-0.03748619137246625,-0.016022848217131774,0.029638300783179267,0.0658186171766045,-0.00386492708543943,-0.1185225713258409,0.038776661858622594,-0.01643349859568596,-0.08523752894853708,0.04538158462247262,-0.0011396445691135098,-0.17033954305550852,-0.2813989371433338,0.0011901098950534506,0.05380087851982763,0.0733244719703882,0.054449207878854926,-0.05220019286663664,-0.02646589309444779,0.006692909656412721,-0.112547058523534,-0.035831289064809056,0.06582590250512822,-0.06442192178567537,-0.02228295346542481,0.06029775286508361,0.10011427030666825,-0.012324640800652641,0.014559779614706485,-0.012955646170996534,-0.058224499183698236,0.05753666444366991,-0.03483801089888294,-0.011688985812759529,0.04353534969359539,0.03871966358140503,0.004212347630081946,-0.049336806001037944,-0.004407523519811654,0.04956194625147732,-0.1611334956266218,-0.0379547300182333,-0.05271940595540132,0.041346098968294734,-0.06600902965467045,0.07570092725190078,0.0433584345739491,0.04424498675423105,0.03382710403353919,-0.02648941930429411,0.10883894297112563,0.07266330343468795,0.03466004897978551,-0.07108708959304422,0.03570667939611997,0.05473759608145753,0.03572316328031881,0.046172694400323996,0.013208243492600384,0.14547238541112253,0.028181897432171688,0.08081644021223368,0.06200107683546286,0.0059082761915113255,-0.005614489442614117,-0.04353209734042994,-0.06508586541814229,-0.1603888823839036,-0.03503168938402559,-0.06330044326920725,0.002972609331072193,0.00887899339476912,-0.03440941496237065,-0.092811087614853,0.06692710859643819,0.02173289619376331,-0.020295938709912004,-0.010775090776365131,0.02943262746771351,0.06025968642141772,0.022610314128777103,0.004202982274315934,0.03174788228221072,0.001629869049750186,0.012156721180990206,0.06568836209151346,-0.0810976862422215,-0.04215463288545323,-0.06479439662951185,-0.07401686819336373,0.07311553914646304,0.03823453186028839,-0.0528524152491778,-0.012892985110456993,0.041398959262063516,0.031074983893686646,-0.0473815246860126,-0.08090433028439539,-0.07125868295339852,-0.0006343183924325292,0.023030739121764628,0.03052579424993718,0.011464746087209796,-0.06276755586986303,-0.008222470075926674,0.05282428695830609,0.014285972545954338,0.054674592769186195,0.01880610359411286,0.006635947691624487,0.03984339342294263,0.09495372549691555,0.0430040848844549,0.040588594883342065,-0.025672799664389036,-0.09325260605253899,-0.09104247514993671,-0.09677287566928118,0.01148167870677695,0.06723450371746836,0.04353936113599431,0.08283242822863048,-0.003249080277186254,-0.08654634047665098,-0.02342553896129651,-0.008748253143161721,0.1188423525362347,-0.005489917445122442,-0.050494494601817985,-0.05948123940782951,-0.026454837252475626,-0.04998350562011387,-0.049377050977087424,-0.025869971978508922,-0.03622779920660165,-0.06954004612892106,0.03686316644205909,-0.000444465969807465,-0.030214386615849503,0.12883226509477946,-0.015563528363225386,-0.11886292453638567,-0.005691036471652546,0.010131015702804742,-0.025264718310589664,-0.09065969010624818,-0.10895477507630896,0.026070308264990984,0.0024396180434770125,-0.0404969455437555,0.03738067300816675,-0.013611748812129962,-0.038065269956973694,-0.037814116850208676,0.020542999998198908,0.0014799301822450914,-0.07335653834624166,-0.06931831536547069,-0.06041841543819882,-0.017537823805058594,-0.05026577844846297,-0.04174325381617403,0.010623186641832491,0.06957417045044188,-0.07609019945591619,0.058191883667308264,0.02578649316443742,-0.028686071811884355,-0.05819585904532959,-0.06456014801053539,0.01747857606701195,-0.06204533746553355,0.05580469078565602,0.047518114812703446,-0.014374728912007893,0.0179714128371357,-0.012304156151917224,0.03728646505250257,0.043326984036602005,0.07752221287472869,0.02100902155065592,0.007254028913818657,-0.010387110073800401,-0.10647130461608356,-0.12972888938665364,-0.14953075203021013,-0.14613453320806225,-0.07189102014802094,-0.07719052252306201,0.0032167829983760247,0.0711466985865248,0.04147557845877235,-0.013155268644286084,-0.13881987996562611,-0.05490986001051424,-0.04312867626790803,-0.0462182684109788,-0.06578300873893288,-0.0401782663067748,0.015031867913267142,-0.14250410031379357,-0.06210517917189441,-0.015102652421328579,0.007166346276222866,-0.041454625995106305,-0.06356156959392134,0.009405826601586856,-0.05445851978561051,-0.15958068531849162,0.04983287346319917,-0.09699858313923089,-0.03770118979725629,-0.0474763112057922,-0.10278219381471712,-0.08821226970479401,-0.037726628056112196,-0.02418067548980423,0.056433178623629905,-0.03375417849350601,-0.02237491402527218,-0.07266629985410858,-0.05048214499894631,0.01845153994017781,-0.11087506161600538,-0.07361982848041479,-0.1616777006365216,-0.11106643638593879,-0.035657821069989035,-0.06434637992698714,0.0045831019138660835,-0.007252974892550793,-0.004715964607879874,-0.003728678353266416,-0.027055391751101898,0.06622297431045311,-0.013788173458190493,-0.07929740813820796,-0.07449661201080424,-0.07712698719788018,-0.08243963632858635,-0.04759267041250772,-0.04103017058544231,-0.024718005323368965,0.023925840485937735,0.07437877913374387,0.018174364476948833,0.008530698020292566,-0.01983439232239968,-0.020166799469457323,-0.05904388585556566,-0.1190626759402802,-0.083262287379184,-0.04423213804987055,-0.12923725316930415,-0.06898755096612255,-0.0938216072262697,-0.0223053792018576,-0.08707385345544795,-0.013192840626453484,-0.11424692120273225,0.033031271344468226,0.027185899833104158,0.011375448885087711,-0.10444468244700233,-0.050361798578103,-0.0856641866967827,0.024197134039573635,-0.01351127924378592,-0.06331765393068073,-0.05802234504096654,0.04654919562504761,0.17481621478505366,0.03716499682177482,-0.004437749807380361,0.04961667774714371,-0.018869004919672364,-0.06021950986863741,-0.012986257981515861,0.0004402634664573894,-0.04476498114610057,-0.06752137628869335,-0.09649221347092878,-0.04829699710393776,-0.10339172534704635,-0.042756541395916836,-0.05282999378304247,-0.0863102952895117,0.010881551232676449,0.01614617728878065,-0.054579570147139024,-0.05749252894368971,0.029828581091608738,-0.015308813070430959,-0.019775476135435285,-0.00559288135352638,0.01860426067987729,-0.01697255476371931,0.07321090949001041,0.04641130487927166,0.039244803973384104,-0.02197789692146985,0.042510509334029056,0.12627404851704147,0.01614824469690832,0.05660816680552527,-0.016959883768027047,-0.01067816371391148,-0.04959405078681426,-0.06927233206242527,-0.11808021660125878,-0.11217605497988879,-0.08079522040423173,-0.0966191260763132,-0.031431453398905254,0.06465652018267516,-0.11119122315252675,-0.08923869372226313,-0.017210853432958806,-0.04221244927169198,-0.01396830619849954,-0.05084916139998538,-0.10629662310863389,0.034211668323481915,0.012275821092947689,0.002511721066401384,0.03735342724654823,0.04118624683747851,0.07285505750128801,0.1222207320697884,0.1280814764404488,0.10500016921802383,0.13674129363833118,0.07135799682695407,0.04055452641331453,-0.003179758159282796,-0.02112654425157676,-0.01500493711230165,-0.01411934155350439,0.011656438377959905,-0.006429475500555836,-0.05143515459866144,-0.1212549668113046,0.06704521172466628,0.0924779601242385,-0.05637126337792926,-0.00877087094284772,-0.034896331996270895,0.062190471274964146,-0.037209198850900106,-0.10462896495979683,-0.022985821200462005,0.013901189372065035,0.12186177969295603,0.031049871277011944,-0.09122374240136139,0.02461685639352498,0.027209580530242267,0.103914725203938,0.10711667291806885,0.14517206953297643,0.11863737437661112,-0.08411778076219845,0.003422806917427985,-0.11833399481249761,0.0012295703453604973,0.001034175941899482,0.10510520013467681,-0.0528311256498851,-0.0368902516526384,-0.08698572987668152,-0.06159104750329218,-0.12227966067628873,0.05078727265174235,-0.05782871058698475,0.011704758905690558,-0.02115897530107367,-0.015703057006319018,-0.09913818050183637,0.0560896540926439,-0.0031962929461094624,0.06228382974905938,-0.028432316989295058,-0.0793983746108045,0.09917451402556686,0.11017213038821647,0.10602404502783819,0.14365704180754668,0.11511985899410952,-0.06874516452378261,-0.15508162532041553,-0.17555411113250055,-0.08802194971384951,-0.01963190939960641,-0.012890783704046171,-0.010291779913059405,0.034167036779584166,-0.014955354816299475,-0.03812110373047318,-0.05949230861825647,-0.1672998376236448,0.027566499687033633,0.06139755851087618,0.03179192466103597,-0.01353225402489355,-0.06966328470821002,-0.07131728666360342,0.03311926485442893,0.05138720546736259,0.08610728648180123,-0.02811019873313046,0.011504560810543667,-0.0490088679338422,0.11152191844631024,0.1838737957765511,0.13140419730447409,0.10550877732208083,-0.04309007234566567,-0.18073516518818544,-0.14643414133150115,-0.03117013860259423,-0.08326868076667747,0.09358235363248536,-0.02493905146255016,-0.027859819682439026,-0.09772163254871552,-0.04388187174643736,0.018127230932612953,0.008620699220131768,0.018379149305990414,0.035145529983994624,0.07344207118036922,-0.004568421249161774,-0.004912850435913059,-0.034225952295465656,0.05196641662204579,-0.021829285498830644,0.02170116690757827,0.01355508502036563,0.02898334403742791,0.0707524302059597,0.097997899287729,0.07991832590508158,0.058563939652537304,-0.00670162033944483,-0.13508546856435097,-0.150325275903606,-0.02596423355726331,0.01519297204513122,-0.033284792158174994,0.08044043747783598,0.0135874562566765,0.11297613536083505,0.01271815049387457,-0.014152251372791334,0.033549942318744995,0.01024352156765535,-0.047931298599099295,-0.03080917123290747,-0.06231040082151301,-0.09351646011888906,-0.10689326969743687,-0.12934225108621564,-0.07042216909907412,-0.011815165167337311,-0.023630418540028345,0.11590059389118536,0.032354111292357435,0.0034358595339676304,-0.018487698517563884,0.10897272509414464,-0.007531031776557505,-0.09968359034443784,-0.0672874394836236,-0.05116730795012586,0.001398358376156265,-0.04107962077742015,-0.023065194366332257,-0.03997046995458424,0.03008776123787744,0.04504384190981751,0.022275684190220087,0.037842576527409764,-0.16842532122325332,0.11027529724400024,-0.3148287096463254,-0.06541865214852993,0.0012486676858954751,0.019589832454259656,-0.022936519554532544,-0.15635255913118057,-0.04548592110467744,-0.11441099800343078,0.05069691662343362,0.03548246926268695,0.048009199878371524,0.0550311636078268,0.10758924283436845,0.013926674913173731,-0.09769943659164669,-0.08868450816570014,-0.0373705099038804,-0.1341661581063298,0.04024125513221944,0.0004043509420377386,0.01887690078069284,0.022304354633253996,0.024224065548404367,-0.02913431948296471,0.03875127241022433,0.09786981446829555,-0.0768393069062754,0.0682665769152542,-0.2933687295508808,-0.13002903763761192,-0.01858626855085276,-0.05051416301132145,-0.09704616336561672,-0.10221746649531264,-0.017282416105052073,-0.12057829770777616,0.04448215868935492,0.05500771547765955,0.038810276181444454,0.011564914552188,-0.0271409593963428,0.02244819511531159,-0.011383238167367998,-0.06863395603678164,-0.004148965057078521,-0.010418396079223308,-0.022528996633571073,-0.03510237293782843,0.015956932778594585,-0.017565616422949903,0.022744950799443477,0.10784137862172587,-0.018261792391849815,-0.026062822824417808,-0.11599519515904452,0.049729239308873505,-0.019770981234845532,-0.06952216369330058,-0.00405829932728033,0.004373257724451142,-0.0760560557946789,-0.15735412601148605,-0.03627067125978866,0.004080184309172382,-0.11741762943987699,0.05958155528763475,0.041949178179911735,0.029778591926778453,-0.055712351950696376,-0.07618423924243588,0.044361042448763266,0.06685529301806842,0.04743074954289198,-0.005832621786271666,-0.013360395862375387,0.07559106337920404,0.004873282282514554,-0.032159919641221744,-0.08467428568527192,0.037704266948128465,-0.07451711769736728,-0.07032431843071538,-0.08769256153653406,0.3628836326024692,-0.08088170777597048,0.03456063370872899,-0.014163096059952985,-0.09578330182400391,-0.06125634462178437,-0.06149059591752036,0.005897146710687223,0.02343469816476292,0.0001549988178397616,0.06567619723873853,-0.09769015801218156,0.0031775600101496384,-0.04106206761564826,-0.0066598835539425595,0.008642433728736309,0.01587954616535227,0.06468729777328312,0.033415656556177155,-0.04874468634978322,0.010961264982312695,0.055747900738061386,-0.02769176729119246,-0.013303885398584538,0.0770281766169411,-0.014587717827563261,0.010812826164874794,0.023418753462603966,0.4301276603537511,0.10082690411619606,0.06181963378251883,-0.03309868930859097,-0.027658958458866907,0.1381807498204142,-0.05708025580632223,0.014558800442262996,-0.004644776341170121,-0.015850187457868307,-0.102930074012011,-0.07110651120826246,-0.06087088995428702,0.0138620934428303,-0.12266118107890045,-0.030805337258778084,-0.0859930367941138,0.0899035951392629,0.08658384449252017,-0.033914129070381285,-0.02698690739844991,0.02987289942423523,0.12323254161788284,0.02746395676154053,0.021263696410928706,-0.03032306924282162,0.07597274964019429,-0.022180957037475916,-0.014586974119016247,0.010616305393408024,-0.006848757032187382,0.015107762219798372,-0.06149988877823482,0.04514475223120623,0.04811364992257051,-0.07262993779924358,-0.08956059078952894,0.03195873724592642,-0.024575713995467867,-0.04732954250760211,0.03434380221302236,-0.12389538722565219,-0.007846393872233199,0.021190350434179172,0.02871190985517889,0.07590767885985983,-0.0035123933833743205,0.07609498245988841,0.028458562204253003,0.04195560450773589,-0.1374935667071661,0.09688154497728492,-0.01791573361154383,-0.12231124749695263,0.18792852033953608,-0.034347107440395444,0.022122911710238394,-0.009950769943413545,-0.21781002708198946,-0.0893106649089236,0.0156809963686699,0.04388114177480231,-0.02777577794073341,-0.05737982076763237,-0.02532149081724096,-0.018262844382951175,-0.0028592169363477068,-0.08616026587519868,-0.0935233676493866,-0.05992410810719448,-0.07437097318947924,-0.0907833412678132,-0.008958292240760097,0.027618660503500852,-0.048910310738867716,0.045465957156526515,-0.05996939413967313,-0.10790925720704223,-0.02003667173237609,-0.02907864285881072,-0.025468052736196328,0.01831745400464246,-0.06992977197398877,-0.059540274233833825,-0.10452727542655846,0.0030688403477142938,-0.19361932084487307,0.09388797896668423,0.05247894579596071,-0.02096833113634169,-0.032649229945912794,-0.08482753388136743,0.01451240252524336,0.001887601115010879,0.05098668989453422,-0.09100995693823424,0.013364075845063283,-0.08150526689761398,0.009432169763338143,-0.036480554464783724,0.041733524037766916,-0.10162642447529469,0.0225062803641544,-0.07241911966894234,-0.032071089234968854,0.03960948770561964,0.013556564074063793,0.05643962137100543,-0.15120824333051755,-0.14095904317947122,-0.0022227522058805658,0.08726073710096037,0.012208712988339412,0.06662393902861986,0.0076485173629437285,0.04694531620136171,-0.04054795354480634,-0.006985643360625503,-0.005040182569036164,0.031196233319244912,-0.013528887996731975,-0.014209130108727364,0.002926157959246897,0.0064997113306805646,0.016026658417785753,0.032389807867736486,0.02574713241663732,0.1152681646166299,-0.02394820637905058,0.011765882100192516,-0.05910195910096222,-0.0792820621188312,0.024835925712599724,-0.019486306662397417,-0.06603937764584017,-0.046284890871066596,-0.05840619695741636,-0.09309716090343091,0.07812977425935451,0.0623033475645008,-0.07281402525151355,0.03386574514744092,-0.06961595305873429,-0.027946224797005474,-0.0022800298843994927,-0.059801830019575335,0.004909067683330654,-0.10992625962770257,-0.03210711476885248,0.03933543614257957,-0.05609128089823266,-0.09352545312492856,0.037873637841693515,0.0023271613298718003,-0.0280796464841511,0.07876467229518994,0.002070238891354268,0.021904018456891133,-0.025162065489440107,-0.047866830215320406,-0.03699172120017648,0.024101120638913773,-0.09379919832378346,0.0677725799760381,0.0018283231567661669,0.020347419284681763,0.06636940324465072,-0.030509594408950794],[-0.051829230008562356,0.026481941442358943,-0.0003246195751724981,-0.03411955205999645,0.015334642906252548,-0.0756354090605351,0.05942013470887577,-0.059593056929258204,-0.07919923091897411,-0.010348785835115767,0.054325313913434974,0.01071473890016539,-0.0677666804257908,-0.1680792339463059,-0.19701192324169384,-0.27320427056025925,0.02394464839904569,0.05920326827096543,0.05205393192445819,-0.026395943412687396,-0.011891654290558452,-0.03161364565112704,0.005404471085072248,0.06681004176301819,0.005633541551108427,-0.05102898355527548,0.046100017732041774,0.060650447983143486,0.0687548697039886,-0.05855899319252664,0.02486961467112644,0.013329513812692453,-0.43802784617490753,-0.3258431991603719,-0.03967660492149076,-0.06683083959285005,-0.15268588231019115,0.023083188878325715,0.023180044807234693,-0.02510897221524998,0.05308944943096691,-0.15774328737816362,-0.18209607076875295,-0.011579202408368638,-0.06447713668562731,-0.014917040297206712,-0.012080216122014617,-0.17457248489684307,-0.0007272699788765644,0.0071695225267493475,0.04854534140076417,-0.020202211019867567,-0.03401949466242106,0.07712457627750216,0.07873665681450004,0.042535899425565474,0.0327017543276166,-0.018681108214220223,-0.40303963661898146,0.06901678910220226,-0.03914588283854291,-0.20522377764819988,-0.010919854240483513,-0.03398988619717803,-0.023155112964610487,-0.01603176217109562,-0.14832561645864337,-0.035351348908884056,-0.05229663875440501,0.06033575976506977,-0.14759530997155132,-0.011192840277606662,-0.09108101474007264,0.0024293337111649226,-0.02535939794653314,-0.05462838844071857,-0.07342697980565506,-0.015031351248023222,-0.029420532536873163,-0.013473307836858026,-0.052099706343181645,0.041477506323240064,0.04984752989732792,-0.038909412492253444,0.05489481856835982,0.02586157546674582,-0.4742756482603256,-0.21419820977686382,-0.08167945260007636,0.005737548187984917,-0.07747987851022668,-0.0884316808114248,-0.08762587371238408,-0.11214250468333968,-0.18468788751133752,-0.07607635879364533,-0.06939352086877204,-0.029254669538686537,-0.09068631379220615,-0.09160581425605079,-0.09567732155820877,-0.015517153820695536,-0.13056767688951806,-0.05670468953655873,0.009126747956698988,-0.05950716014010447,0.0490777408748423,-0.03192273909239426,-0.10046482198147005,-0.05234136114559538,0.00973546213072284,-0.055029446686679966,0.010220362518854038,-0.004435953684570951,-0.10580329271885322,-0.17181892016506817,-0.10258719404773581,-0.07518778595167637,-0.05843263840963846,-0.09404072180485085,-0.10686093301473658,-0.19045849936335177,-0.08271627040629367,-0.020257987550214285,-0.10341697140144232,-0.16279961091893486,-0.0816616005041258,-0.03931215694020361,-0.012211059881051596,0.025973033033009282,-0.09267732741864895,-0.019727687055650762,0.038161973189715745,0.026574407732062648,0.08146881331663283,-0.00010777617416751635,-0.00977575856771523,-0.14378312753329203,-0.05505942112176595,-0.36141683371531164,0.027527180858049678,0.050512718743676494,-0.1088238538803626,0.026280602176754018,0.03437927008368958,-0.02543329619744195,-0.021727448952865828,-0.08712135937094935,-0.07241676839305952,-0.06276826532304867,-0.060244141887055826,-0.1289059092845975,-0.08476951966674541,-0.08221834531148454,0.04033564790441178,-0.033041512279198104,-0.044282059773409634,-0.05341763973681793,-0.07328146617664646,-0.03424476154197181,-0.05888108116671696,-0.04982492701705079,0.013000064883583934,0.05022658874385889,-0.07738650079390925,-0.126124102083248,-0.14961770308314762,-0.35629737620951146,-0.0021334724387504713,0.015901193624817955,-0.05130479806920643,-0.02405712294982587,-0.04768849042840033,-0.0005746601094301012,-0.03808150964943607,-0.021329651029284726,-0.007327476235307298,-0.11358255234372669,-0.057277826977967634,-0.14473675960213783,-0.1679432044459317,-0.0163414128419013,-0.16157187747841625,-0.11743058392319888,-0.16494646741471408,-0.07927465133380547,-0.18166394082099618,-0.11469927029051566,-0.04251909726379512,-0.005795569342661408,0.12219071397833063,-0.06089671454461522,-0.005519224596504949,-0.025509392994502847,0.005995195940227591,-0.12924372181965868,0.1418729690125314,0.001979744085862561,-0.11341604228902898,0.031227583177632145,-0.06854289581188461,0.054749812778794316,0.06722774458997119,0.06124685816240452,-0.005885201551534017,-0.15030444045589766,-0.017620462413452224,-0.12082318381409982,-0.13827488154870732,-0.03951200495989406,-0.1061935003711059,-0.08671675205679846,-0.11345315531834248,-0.07062811578615334,-0.03445200343402485,-0.03212577252012183,0.07716056331256156,0.01723606076512466,0.046435720725884325,0.047313623100324394,-0.006252379938809359,-0.029645351222486523,-0.07096011035566087,-0.21387058149443358,-0.015645292483173853,-0.003579305869764553,-0.023620805501446098,-0.004503890420921293,-0.02045550627389045,-0.022988499010771383,0.011258028516312735,0.002480698954548642,0.05808821350834595,-0.0018092897032452246,-0.059468085350479094,-0.0004796519532641949,-0.048074340938234504,-0.07123712823698203,-0.04918455761933711,-0.06224289413190494,0.07440471587285127,-0.010537313972022667,0.10141279729000294,0.07270972174632402,0.06228568673427314,0.02356485634864326,0.11004922142601355,0.056717622822557004,0.07536677852726027,0.09529929467796,-0.007063012651820637,-0.08855532137539358,0.023847960580514804,0.009669351654310482,0.06166776272440559,0.061421331011810444,-0.009929255838347703,-0.015535277799836565,-0.038517503804545786,0.15368556050865778,0.00787141405559566,0.014178714781358043,0.10133862950862096,-0.0942425234264055,0.02843261304913912,0.004548780161139168,0.009710875736279738,0.10010928779721479,0.09226351576536972,-0.00216672976082685,0.1436100684478533,0.12851253836237692,-0.019514899446310765,0.15754814506891643,0.045443526584603065,0.053621572283810884,0.019061911855720013,-0.004662395167071879,-0.022626051693995272,0.1627185753263238,0.008119643517992528,0.05733563669175142,0.04677396040305642,-0.0026275436698155745,0.008509994256836578,0.046522808630369054,0.002596511048076034,0.0686224159113677,-0.03646979501461304,-0.0026415034964265703,0.024109367457032214,0.004463934679663113,-0.008350119587678263,0.04742836075550619,0.036680899271062946,0.08737963888497269,0.0575104051553039,0.1258917197540455,0.0988012554822476,0.13365252830947824,0.05489304798047644,0.04708619377184492,0.1013277871075285,0.06952277786881292,0.09997862928887566,0.1185208617392565,-0.05147525962228511,0.08132939745020099,0.12909005106531712,0.16211122279747836,-0.022704826770436594,0.04200443638886322,-0.0019014796057800491,0.025882277295318626,0.03435807111618981,0.08033237352658039,0.05594603109455352,0.05702187824146697,0.09009952064723645,0.04265722294338622,0.05583743172230158,-0.02442179285094705,-0.016388537685607597,0.04730346762719992,0.07579653420833661,0.08585375612386097,-0.014748540092242067,-0.033471592099226594,-0.06999440665087614,0.0358150725341381,0.0643499299289158,-0.04454742035307519,0.004616311453160627,-0.030089768840228168,-0.057472679943867316,-0.1862449827724784,0.2397180437729915,0.11479388385320882,0.02873385127520715,0.015256706566449311,0.03080866086267755,-0.10773271018893349,0.07506993227913447,0.14974554891879518,0.06827935934818279,0.07849193550536651,0.1215497443106875,0.039477143732376804,-0.014084839591649504,-0.08392044620721802,0.004330656796930779,0.051618131887295776,0.04392919897058796,-0.06201789993649803,-0.08645528328789293,0.03672522661122348,-0.014219097794397754,0.037686575845313236,-0.08109637256457118,-0.057476335075409266,-0.022482774394986575,-0.07415621819201829,-0.15229281674122785,-0.16000423321904111,0.02780603463874531,0.0009251307294700693,-0.04306879152306825,-0.03959897957355489,-0.02728430456371568,0.011428159854418746,-0.0011655169842286215,0.027208999887151437,0.09013726565733476,0.11543423124090083,0.13011887691189783,0.06218741563912266,-0.04948061538580277,-0.03583383504255348,-0.08264190083936562,-0.04679384770349365,-0.11377531349297704,-0.05818915100108887,-0.04116881519571243,-0.08850737350157262,-0.03576770940970656,0.02888595340843956,0.025206381185866045,0.012308788092206766,-0.018442904391556988,0.05982029407339159,-0.07782050867133514,-0.04477527798253629,-0.061370861620571766,-0.06555399988794705,-0.07475081525357746,-0.05766480796338227,0.015082006886764691,-0.02437479361593758,0.0243156175557812,0.08051062952398909,0.0918705383362171,0.1200771728046925,0.10652540600728334,-0.005478803311363497,-0.07423137908283149,-0.10223474110867077,-0.05198699891543185,-0.07982227190871038,-0.1368964818587153,-0.026727857329782737,-0.051493269178801065,-0.0049440539734158144,0.0388437575302588,0.08908885060906062,0.09873493099984398,0.03126540256579739,0.05780062033419867,-0.010692193017421582,-0.0829832953661221,-0.16892614006670922,-0.013890827066200663,-0.018679226193125634,0.055320673707291074,0.08445264902827412,0.003566661544184308,0.0004817363165653716,0.07868856889481496,-0.05067138977580453,0.008634647195845413,0.04934627830673383,-0.06404370568450134,-0.049794160114291025,-0.02821541167214674,0.12264170529660122,-0.0312659563381635,-0.05629845617772045,0.020915818107108446,-0.031518673080017656,0.005370815983613093,-0.06551776565281194,-0.03199153873037858,-0.0012687686879550603,0.08649527866471995,0.024798279013299073,0.027386773939034017,0.046777576292243266,0.07215545822704574,-0.14119878656217683,-0.042502366173607684,-0.04787417916174759,-0.009617048467206768,-0.06677260991236596,-0.01868922870420474,0.043916860688650854,0.024130615289981172,0.08823678544553869,-0.008863590834479016,0.029640531639846774,-0.025740133341153482,0.0031054694930781578,-0.03813334994907336,-0.0880310419081707,0.049763751054350755,-0.05224896671357099,0.022596068685877418,0.05246887642617398,-0.04008861450933022,0.15571765320854322,0.005282622712014153,-0.04591965927354082,0.07314645781953347,0.09214311631880813,-0.025438423808132042,-0.051262548078410304,0.19327209997494427,-0.0017989039478543407,-0.02183728083589452,-0.028721021508084796,0.04869007811103358,-0.10716835087202427,0.11011339205708072,-0.01730109494706705,0.01738065555588045,-0.09265969229840748,0.05454121264935367,0.04457399575749594,0.054502946764931434,-0.17507605983756627,-0.037517821423210265,-0.01353685341225892,0.13018771247377914,0.011701034534350261,-0.03403989029256172,0.021254549025586093,0.009231951105220978,-0.053615531847736236,-0.029568550166309188,-0.01370001319174589,-0.02704848562865166,-0.020170483501204723,0.07761388695840159,-0.05241258809510476,0.08241093164346548,-0.017310738421074306,0.051280084874374715,0.02000691542351457,0.016859292278330808,-0.04040468018916555,-0.011637913345336369,-0.00685340988098998,-0.006580547115140105,0.04294406177982727,-0.09897940977826601,-0.06780732200088821,-0.12171542449988788,0.04005676983676126,-0.04522263661481866,0.054525707320938324,-0.030500410879623026,-0.055542570056521176,-0.07780688073755897,-0.16344663760573055,-0.07731514444524219,-0.094295286480496,-0.1224878481272683,-0.09082895008067249,-0.11121990195105838,-0.09246804796731152,0.057514644965024925,0.08498527034290644,0.057378691000184036,-0.07056723369230186,-0.033725543640232156,-0.06013418329411963,-0.01119302643879295,-0.12755075811142372,-0.09811034843173255,-0.037050384341972074,-0.03257591697675971,0.01084070581241994,-0.08321039047953159,-0.12496478512325507,-0.060083168391587984,-0.07533261849759146,0.00018958459881135938,0.05940012563642985,0.06131561983132987,-0.04591628125682318,-0.01519813537484018,-0.050407919688190084,-0.1974754358990853,-0.12739539579579362,-0.10924320827540054,-0.06271110314950619,-0.13600516749079028,-0.10627220612058441,-0.015392554170063057,0.045029892283253034,-0.14786052328215554,-0.13025747555350947,0.006960483868193056,-0.022482783267414323,-0.010816426426865264,-0.05209300600863907,-0.058583517761488055,-0.08677823421197435,-0.07832852801615196,-0.032645281006985064,-0.10934539156267818,-0.08981865547511765,-0.06654008384819322,0.04987992400400629,-0.040378155505047836,0.0063680572763603034,-0.12172883241025775,0.04520183796491486,-0.014580492855459672,-0.02555831488127236,-0.06447941806762679,-0.012111600093783542,-0.13674580999897917,-0.029092509722430677,0.0038312279752668334,-0.02442103545879097,-0.011651922797656913,0.022739973590450532,0.05564408496691948,-0.10841745855859149,-0.05367947927647006,-0.06551920609681887,-0.15984113273452505,-0.13900245466037692,-0.08716010941293735,-0.0008710681521338687,-0.09504871429041774,0.011114053809817134,-0.06936845712771801,0.05178750349337334,-0.06679494575593652,-0.049821024807353335,0.04861380249601375,-0.11734883974277795,-0.05032192934344219,0.048517627830791395,-0.03249063792848358,-0.03643014385136636,-0.0476479853427606,0.005509594396154571,-0.09776011079617968,0.009276588913588055,-0.03460369636671594,0.0312275950624676,-0.01432288317468977,-0.017047782691355675,-0.18293742181843334,0.03617865230355392,0.07694284357438458,0.009992577424391984,-0.054497367346872466,0.001242788202685997,-0.042352273222644586,0.0207561854444346,-0.011644678697218266,-0.015379494305858154,-0.027356680770790676,0.03701072800896284,-0.1259900586667402,-0.0708379382793219,-0.05654935624511785,0.020460245400708975,-0.051104324744747395,0.05376540495424116,0.08209147795087662,-0.08763486075751689,0.009980952197935251,0.045669386461736565,0.0545140568780928,-0.017660015429447735,-0.017763293817270574,0.009497085849070228,0.05612602134395539,-0.01874727345604727,-0.054406181198294525,-0.014006786899536227,0.0012163491545245165,0.013656073871150195,-0.029812764427652565,0.010943293221893248,0.001477323683150816,-0.053665388551356996,-0.020168888577392675,0.013733766011156747,0.014090724158847386,0.044023312291376376,0.023048729780001605,-0.03734645767804287,-0.017906981425274377,0.06985532018347751,-0.036411544284646775,0.06513656308673182,-0.011067105630042609,0.0388908277453657,0.03844495591221553,0.03209337268478907,-0.105695955838969,0.021528894455422217,-0.015190808531346356,-0.003497359869039081,0.07612226816273811,0.002498794136909751,-0.047993591922557165,-0.02656782850967062,0.009192538035360317,-0.02660577425985071,-0.07821453472454497,0.024770756346090637,-0.11540399544673019,0.006436230843268149,-0.01704849499693312,0.010109907508732769,-0.019432173506697615,-0.044944531736060944,-0.06297072391064203,-0.019341590354926656,0.02188714074086904,-0.06118837406558291,-0.058616566756948284,-0.005963864025433836,0.09868238669517714,0.03659269420077475,0.058208010672647824,0.0870061423852795,-0.06908827724802576,-0.10924080043205846,0.008205844088262746,0.01274795624324445,-0.017177569231014753,0.06665564279757503,-0.08008257520635426,0.02112981123835679,0.015486385575826413,-0.03881097226311264,0.13344488025606419,0.3070322798530408,0.07550684214231494,-0.061513752780286056,-0.07605004598435963,-0.025636239817787596,-0.061207067698979406,-0.09873095778038804,-0.03396784236330592,-0.0988316268146312,-0.002352678502370709,0.001583156693163595,-0.007335481777482633,0.11415907564289648,0.053847294585424955,0.029984680941497577,0.020447577521581006,0.020766564399658096,-0.028536676416172486,0.04126264439045191,0.04858189572050805,-0.008149747293155818,0.03397205933666145,0.042227132674330675,-0.1313530223917174,0.02104942456488996,-0.003988736187825159,-0.058180458822153995,-0.035709466731188536,-0.024614004054433675,-0.09911350410174928,-0.08505488729820274,0.0038525336722711324,0.040114666485507225,0.05217458860680611,0.0216696854478121,-0.03238370752911182,-0.044122963820835956,-0.025013644070812937,-0.05437420561345971,-0.08446227145887712,0.04627136759259283,-0.06963648887468228,0.017501903979877047,0.057312708260491056,0.026369878351968502,-0.0007708199158289996,0.0020849693245340753,0.03585432493118456,-0.03238531517663679,0.26285293048390823,0.10180043199293244,-0.041266009757288176,-0.08573854766686759,0.0157309008636469,0.0220692232020216,-0.0747813637246766,-0.024815461295607938,-0.043505632875929116,-0.021794223671291007,-0.0024658560315352065,0.0017677182127835613,-0.025689224563427898,0.0674200424268887,0.03666984197146483,0.054733875938474105,0.05440737762219365,0.02247589858027629,0.030216449551652116,0.036757434913112,0.008484719425752655,0.02413805560444329,0.02587006876973363,-0.015318857120940093,0.07208512009328905,0.09021826413477264,-0.027448269813358357,0.12779301959084235,-0.038526556219584444,0.002561316506342498,-0.00766477658727522,0.015185402733659042],[-0.02348139357612403,0.05586181466237739,0.06912384150017727,0.020750414859708147,0.05177071909909688,0.006417275023401677,0.02821224483722712,-0.08216805538128885,-0.0037624641668784066,0.020856126502553987,0.004150783758161763,-0.08914345991860048,-0.1742331910161636,-0.09310196294575111,-0.08531345391640885,0.015395365124915732,-0.00797057115954751,-0.07894405660131784,0.007140460953728015,-0.05122298651489481,-0.04501671055254344,-0.06404456888391,0.05202718493755477,-0.09571484298316853,0.07825030155504546,-0.02760163837437974,0.031219712839090835,-0.06331910404227088,-0.03057233396010058,0.04118878177759461,-0.10848250719110365,-0.02377040874233705,-0.0169485492283328,-0.13811830733467015,0.04568675186293641,0.0863402532511994,0.03763808463655068,-0.008983042320591309,0.06347667616726826,-0.02188524141902395,-0.04872673242737291,-0.034790485502148236,0.047915973022453553,0.005688412186400326,-0.03206391936077705,0.06983037241358969,0.019770543527142914,0.008375551004109888,0.028793642580509704,0.03170323266151828,0.020302484623173533,-0.017132619495502568,0.08588016588257782,0.012852240421123016,-0.024879281761599405,-0.009459111246275194,-0.07373009247979802,0.06706048266208833,0.04104151506857548,-0.2791189667774677,0.032364151063045986,-0.037122989038865295,-0.05041321633138772,-0.08280093662905133,-0.039690314486249115,-0.027212927309252188,-0.05666470348005318,-0.008000280257285811,0.004245309026791477,-0.039420829705777635,-0.08722747592514966,0.020115878846996716,0.005943519129127335,0.03698224741214796,0.02680894141231526,0.002810065653520003,0.013599312671553674,-0.011959101849726511,-0.0960067358530423,-0.08578644153616855,0.009533080115349587,-0.04131744517389914,0.040246754529980305,0.05363654824644253,-0.06978129168903642,-0.013098555624019518,-0.08131881768586417,-0.11059212649928989,-0.033544789059389325,0.029598225204031707,0.10270643529444558,-0.08895501988613817,-0.015889485975802274,0.018072682671454874,-0.004081673399193451,-0.0357950435951081,0.07933882348791488,-0.079373791004782,-0.021672881207605466,-0.00009421901873332353,-0.030009521123296173,-0.012609831073951042,-0.000053833430579013644,0.046913721854164675,0.05551420227642883,0.00046214223281822495,0.08255054931393671,-0.0075708547709875664,-0.06698994592027722,-0.043352213980626796,-0.0616672543226219,0.020431807791946734,-0.028314404389586253,0.33653512910336214,0.04074763491237888,0.004861421152140581,0.07492086747164216,0.08557243966680168,-0.04208117406200684,-0.003268785219389049,0.07697232869392746,-0.0037046090774805903,-0.01792239408989326,-0.00019374634610322357,0.04887130953130848,-0.018219613893694718,0.05183441672598336,-0.10583329231751393,0.08285231879914283,-0.05774679859143674,0.09604122244502053,-0.03670270255925178,-0.010509626041103623,0.013745895733950146,-0.006148198531373783,-0.01604423516119664,0.08524614886787556,0.009182277618505296,-0.02553617146917131,-0.322524326709799,0.010965591325068252,-0.015084736990937955,-0.02462525965302934,-0.05082721513271785,-0.06185439205079278,-0.023706648605647845,0.035482329330582776,0.028774317229901078,-0.03583734399013106,-0.05295592417059069,0.044747219710296104,-0.01780821173315825,-0.024232508115964314,0.0930275061547899,-0.01597105540973734,0.022048117496378892,0.0392143986634919,0.02817159935373924,0.031666362971042826,-0.01701265255570097,-0.02004291048950487,-0.06879755606764301,-0.05677654749611535,0.0007197174756273872,-0.11839247397056091,0.029896532377756937,0.1042929735770113,-0.14343155898644736,0.058391529616567156,0.0383923086872379,-0.16725722322747963,0.00032580524894807524,0.02065051241046337,-0.043209324515048254,-0.03615395527728763,-0.06034366340206392,-0.0006875972068209871,-0.09703352799259435,-0.04754031039401032,-0.0021047751288967662,-0.027763645319739925,0.07902145804361727,0.05430130445986131,0.08291738747136847,0.03531817116394056,0.06749103285588223,0.04453760422657333,0.01923928345895764,0.12282202638829301,0.011569459302446081,-0.02163915051229859,-0.05711281192123723,0.004681030072845302,0.015804972789116502,0.007735872343202239,-0.08874867623084062,-0.028261863012795145,-0.0758709601679179,-0.03339854651386232,-0.03440432894117917,-0.002370727368910575,-0.028336981454966062,-0.08178616491637658,0.013766434352653019,-0.012845753111970339,-0.022082136768536854,-0.04572293375347123,0.03148251335522935,0.15815823976213805,0.05989518984433155,0.051616212261870256,0.0641612410779937,0.0574463306575085,0.12060796377060203,0.10909386472628294,0.006610128165676526,-0.089203530649782,-0.06729731927444492,-0.13281899133975242,-0.0470515109756559,-0.01444046559090101,-0.006229860283341509,-0.012416922421005065,-0.10063561063458602,-0.02339846669933446,0.017021906047831936,-0.15826200987722483,-0.036902363941321424,0.012779140585973452,-0.0484454495201374,0.026713242351347085,-0.008884746656908964,0.05478257770054821,0.011014157016773342,0.05612641178685669,-0.07521821281626595,-0.04305034598810967,0.041849838606359296,0.005587238307843418,-0.028008316194091616,0.0627536519781437,-0.00554179031572391,0.08165322505583587,0.03335141790116124,-0.02955728108386628,-0.003785352038682594,0.0012086716499022153,-0.04640452383242082,0.08297312781066446,-0.03280378250552763,-0.003793291506853106,-0.06512224351494021,-0.008630495477825795,0.071144019739275,-0.007652597336064534,0.07206215713355282,-0.04474116873373204,-0.019708889659298547,0.015181180277323899,0.04681857098969539,0.0835312929644287,0.09402810431830243,0.14240209478203297,-0.007179168368511669,0.037840375681417106,-0.026951331220387755,-0.14434326525176394,-0.24601812818201038,-0.01293907867177507,-0.1359780550850052,-0.016309596829023474,0.005684974125490271,0.027859723416925636,-0.06678812330972937,0.027631183031694474,-0.01858183130741107,0.06677024570771714,0.18434127085444907,0.14932610160745802,0.20699818028868042,0.011582631820369586,-0.0028148681104492924,0.013657052149117208,0.11098210227559752,-0.02347038437625314,-0.13261414108138292,-0.03329885862293379,-0.004547941654658631,0.15548210897011205,0.05153548313694116,0.07648237431609248,0.002896894729205389,-0.028820206933356123,-0.07165782101191943,-0.007966118904090208,-0.02070782938537324,-0.09108517086465356,-0.08709098208480116,-0.01648074546056387,-0.048326888642485626,-0.0707501984902747,-0.03789624674452436,-0.05408257151648393,-0.021288947321327467,-0.026688571567478763,0.0909731414761344,-0.053700202393133945,0.30174647970349017,-0.031887861392461185,0.035208017533789625,-0.009740824571910722,0.03715103810680043,0.009909816667238053,0.055946350530739715,-0.08517182763848766,-0.028297961379764147,0.059759840800711464,-0.05854646902934084,0.004452973844451197,-0.0749285237589089,0.10496986780877025,0.04080844848915788,0.049876839958878115,0.07444147517288885,0.12111873697407054,0.09109303839427393,-0.054628615111219934,0.03568134919696804,0.0017200206345366089,0.02393098238801217,-0.00303920445209531,0.010067064539155703,-0.0875269268923362,-0.07684317816963211,-0.03867399980082104,-0.042301990545143664,0.002922210027063794,-0.027368784816197676,0.07064743011585993,-0.06584945100042365,0.01098858371243769,-0.10324237393180313,-0.014717349269644166,-0.046087362771816937,-0.07527620906726651,0.04057232277895562,0.004528318390901456,0.07863433697397912,0.12596522647177053,0.2170801264767034,0.2516847733559197,0.10462175418418387,0.04737865890998455,0.06547422211383398,0.10185532943375594,-0.09743308664531039,-0.029612125032159927,-0.0707555392682468,-0.10596853539141779,0.01574285580101403,0.08178347027620432,0.0018060339614520092,-0.03203382756249319,-0.024264278456404414,-0.013457160444239924,0.02813047783605406,-0.05465858722682603,0.027739429663550825,-0.006865168520548498,-0.12973836062690586,-0.10817529516433982,-0.036706476750818895,-0.10960276024092781,0.04465572396634007,0.0592371940620057,0.15547021810083533,0.1388039442135165,0.2049933046872099,0.18824541240078538,0.04511595104609005,0.09516838342076042,0.0032287207386414198,-0.03699609843348164,-0.07693969519013745,-0.10472302470617044,-0.08124902834744052,-0.09465991143531348,-0.04267916344653657,0.017297994885199917,-0.04217001257338224,-0.03727552818383284,-0.07592874454927025,0.0025610635377728906,-0.05658069171260289,-0.034629228433283726,0.01785393254021155,-0.04099501001727173,-0.170771385183574,-0.11809822355547664,-0.13395760102164087,-0.040966008102205416,-0.04954565801320738,0.024901096652484637,0.11548513773696548,0.1578337098615099,0.2104866529566643,0.14817048318394593,0.05676916028316266,0.06709829542144499,-0.03922611439068143,-0.16753241150427267,-0.04855198229517485,-0.1289249231610934,-0.10339648824065022,-0.13052787112348696,-0.01680316100970855,-0.08328631180452081,-0.06875118827284663,-0.1405012354663899,-0.2722580454606812,-0.12725567108867714,0.01198284174630085,0.011407255588237665,-0.05860663274309862,-0.039719767713230124,-0.01625090068925266,-0.2226121588887879,-0.14272067626449997,-0.1812138451402713,-0.1264946851824152,-0.14971253226115755,-0.04890003239094393,0.19973896568142238,0.0944399820008152,0.003353556994266294,0.04598290158322185,-0.018386350663266493,0.021423298937312835,-0.04433105088630101,-0.05330336693021044,-0.02086489702332396,-0.021792008402047078,-0.04200084161868214,-0.06630648680284291,-0.006797951687422273,-0.041782032061849994,-0.05587352805533683,-0.03001805308258619,-0.2909843759528651,0.09581586619106996,0.1125487089878518,-0.06891722950690064,0.010208031849772262,-0.08521480371762873,-0.08176441174944733,-0.21388099743347233,-0.30771589751918693,-0.26190235300764664,-0.25493426900765903,-0.07312640159537155,0.0677284851824697,-0.027344433033548617,-0.018153157774590478,0.03853239583838713,0.07422731405534899,0.029442271115069654,-0.009679367816424837,-0.04770732310721622,0.016288564056377946,-0.02318139514386507,-0.08033020119668823,-0.022922355691256616,-0.04016610135786212,0.03703559339499,-0.02936113392555115,-0.03201851719371599,0.03064311018014051,-0.2404754362945535,0.027061254759537925,-0.0037435403500746343,-0.03804844465246437,-0.10904499510988237,-0.05227210060364501,-0.07904623720584544,-0.1340909933728304,-0.22054494621124868,-0.2854572139845176,-0.2603215916925015,-0.1275008048614483,-0.028630569187394646,-0.07270349220793658,-0.03356975151702988,0.05516843918447192,0.08035741225608553,0.10051663483416282,0.01814855316073206,0.004838994019315733,0.10413076516041982,-0.014595737590663658,-0.09331382662598793,-0.019611943026316164,-0.08829257057583807,0.022263461994551027,0.034914037355381164,0.5969804907850321,0.05419171698092953,0.009031861666097474,0.08816210614521845,0.0251584960856151,0.024332279963125543,-0.07821599664025404,-0.0953421688278966,-0.20909682781844888,-0.16462522767231214,-0.2975881793944833,-0.24369350553868893,-0.23870062589167448,-0.2393845765139983,-0.09924228303520535,-0.06401970414706651,-0.030610076747058214,0.07291078447715016,0.09192344839748547,0.16261757257506473,-0.01623673562632557,0.05196134750499511,0.040115578444425065,-0.02236101535186694,-0.06416576134295442,-0.107091074843876,-0.12069931883211513,-0.12705190403919286,-0.06501355181863579,-0.016426088967036657,0.030475865996217485,0.03113071002641334,0.04393330658362496,0.030009549557758707,0.05754020131600535,-0.08721774913931399,-0.036137724029543634,-0.12274133563069947,-0.12956833286051983,-0.18004534215098186,-0.20810354921469124,-0.16384375937469348,-0.09820944379349196,-0.08082978131794012,0.029417976527673136,0.07418748727878433,0.0014811070676340127,0.019233933377153983,0.09375488193637382,-0.1086994288403173,-0.039224349792236816,-0.04295478349530854,-0.08721421210274141,-0.08074983927418884,-0.04065230516383451,-0.2986805452132511,-0.057879437036331596,-0.014319050656051557,-0.0121673342034527,0.006916763727354294,0.06884865093651901,0.06747434277415036,0.036769116568760835,0.06693623473109275,0.03656423861893019,-0.09492336761092315,-0.13789201557793376,-0.014714119248744594,-0.05766039190857501,-0.09619364482372794,-0.07233033376899936,-0.0031172468584212657,0.04388600718137833,0.08022479223822587,-0.023643866135780567,-0.07556440160679337,-0.01731365267626864,0.04127596797039231,-0.023943282084592777,-0.05425824606050941,-0.01005642329879956,-0.05827231141168016,-0.056638116112286946,-0.036042121034618665,-0.10650067174691585,-0.2755430997063695,-0.15469681738424146,-0.053492132578407334,0.05887209368850569,0.03584361304052184,0.0885672783964146,0.06814090857983544,0.07096548285195159,0.13304386182420413,0.022119527495865047,0.06575104268072304,-0.1487111517370763,0.04959621585682595,0.028228178745549802,-0.026748447724677795,-0.13645177222335692,-0.04431680077816738,-0.017031593774134587,0.013044176221700662,-0.05963616901195345,-0.1218946773506086,0.007364000939366116,-0.08971820496063179,0.0069314615088007575,-0.11120763468006314,-0.014729315140389644,0.023825482884794757,-0.005270208830135333,-0.05354897647133854,-0.028636991914967512,-0.01781296933437632,0.032029744071413735,0.005720725838367804,0.02829491933010164,0.05319694308658563,0.05597977985471696,0.04803090517698249,0.08006295433890113,0.0919770587332551,-0.053656025070303856,-0.009442613384966042,0.02553045883609737,0.001962550884014606,0.09893637491524548,0.0709407397701297,-0.053532159350133765,-0.13928113405507672,-0.0520974522727827,-0.023378501949223758,-0.01831849274011264,0.06024576835287712,-0.03374316182666345,-0.07746787245562063,-0.016902069165278318,-0.019234716191167914,0.003313449509873046,-0.0099233330595296,0.03536627235930557,0.08035858953261844,0.11572897112803991,0.003861058073983492,0.016056014866964702,-0.018677256896562508,0.027161569396569284,-0.02964751050988998,0.018069955363969575,0.13934748073468545,0.063468912866418,0.09447851921439648,0.08428078579654263,0.02433865053141894,0.10275458742827316,-0.040540987757007534,0.03729476496699701,-0.09283796149918233,-0.09424716210510822,-0.014411249677975952,-0.08251405978873423,-0.005208885145745201,0.021864166583293376,-0.06178176578940548,0.05070844262941253,-0.04851267318388473,0.04017150873047789,-0.03564087627950746,0.08067711818345973,0.04196071250711419,-0.1447979117302092,-0.07457361671001855,-0.06734468793308285,0.0958371586120678,0.014199003247387147,0.14513369916970123,0.0815299572194866,0.0485010602369814,0.022026506645318078,0.020838490008192843,-0.00982358928354581,-0.007986060842480986,0.06265848290018011,-0.004724144950118745,-0.01597470736960591,-0.12054331109905347,-0.02867347144837658,0.055534013235491064,-0.039535733650697645,-0.003528437046718151,-0.09133131643058012,-0.07393050988555341,0.021535997053991802,0.05204425486439312,-0.10236502837712315,0.06664891725367385,0.0863794835864242,-0.06883571420417392,-0.039629507338973066,0.012239161416221852,0.07848027798560277,-0.011670281684742545,0.009880815775814617,0.05090236794415026,0.16846528952295375,0.004691163943029671,0.0655702824291222,0.05566123633830157,-0.13992679318281936,0.008874884788529592,0.06437903025628136,0.02650616607769137,-0.13833711252248526,0.0007875207697034184,-0.10026531939554706,-0.004373367949753403,-0.023145304191887834,0.0075456606348715234,-0.055373488673468536,-0.021241907986515162,-0.060834914254391734,0.13533844579534143,-0.06633980030086693,-0.08966495657817095,-0.012408194353654894,-0.01947453345086764,0.0035060631450602245,-0.012105604331149851,-0.034456387917345045,0.07417584659838822,-0.029278016582661832,0.044971188835357105,-0.009005681797250968,-0.03876047168742638,0.0395084968854371,0.0709828126845235,0.010084203842440988,0.01827872225609377,0.059005575588081755,0.07510274601225415,0.015862727396020425,0.03661109708922401,-0.040090722406696415,0.008960178090085558,-0.0719296328111439,0.07425421725366749,-0.19801440840963333,-0.03247838639969909,0.03459261936552614,0.000049438182186155325,-0.04562540826615314,0.015103938173098259,-0.013170468776996437,-0.002652456726234608,-0.09127050986658149,0.006515460244049161,-0.08521338521170412,-0.014491231772031772,-0.015084210193587053,-0.006267161723016603,0.13776315727580285,0.05051334780581246,-0.040836932073549895,0.030666035600380337,-0.04633945835893072,0.055739064346385085,-0.08364666428680242,0.06165240749016209,-0.08605897459525381,0.01065888582579779,0.03207880183071027,-0.02523602493638417,-0.007870487337897995,0.033195921469952025,0.06943280188246237,-0.11946962673189301,0.07677849294750054,-0.02769664209692126],[0.007780988754478241,0.01924352196364315,0.037644008993531,-0.009390046847278403,-0.09902480683013683,-0.0571687252858986,-0.09537146132457865,-0.05214740979894935,0.02517886141986972,-0.07384638627512904,-0.019081278770146193,0.08867163055304296,-0.26458422600539916,-0.2663723410046772,0.04212943706425021,0.05369916964680179,0.0568185368149664,0.06398638102182024,0.006698625018397905,-0.05271118149735915,0.059414077060633085,0.00424964204966429,-0.01764198035103828,0.09330101268792679,0.03556249447004606,-0.03698016120737938,-0.0633928759889969,0.0440296815469342,-0.06735493773716737,-0.052824079434289385,0.03782280089572928,0.012394777820311705,-0.016029161738010955,-0.02580486731600133,0.016320299408410156,-0.04133757942148464,-0.00964610987559529,-0.05191850090607242,-0.029638029704592637,-0.11049513135483194,-0.0864648529103224,-0.06169312597835475,-0.05554074207026544,0.10015891779344831,-0.14374211930488834,0.028410416727943692,0.057926868208964206,-0.03628395509975166,-0.06993085631039861,0.020554143670137318,-0.027057339643814984,0.0937362474940686,-0.07210498712336362,0.0264757048547457,0.029238929756077153,-0.00030116172084153375,0.016249457146357674,0.0171384744451297,0.03471529754270379,0.004427782356826404,-0.027371382377016445,-0.019630256308072944,0.04311255192829208,0.012917537571668176,-0.019784994433817517,0.01125556890266406,-0.062380210545399516,0.046859728428213135,0.058855913485534775,0.025112793278393455,0.05180803343638915,0.0330068968051076,0.051335266809347496,-0.07394665709983689,0.002500338695196644,0.0063379140810126185,0.032124813908625385,0.0055807617735095325,-0.060845873252240994,0.013596205521246088,-0.01932033375825419,-0.06657191197938224,0.007950629122032685,-0.12832582495985287,0.051238739390655576,0.0076583758441928235,-0.010369840994916609,0.011206678452722066,0.006375520801481167,0.04033010093671064,0.05432397596250671,0.11281208586189011,0.009841403688373536,0.014252924984500315,0.05557370498429054,0.020861725244067687,0.010115038129067276,-0.023646651102041148,0.0028854415706007393,0.04312532949531586,0.05983658368131513,-0.0017965729891938453,-0.07678003717943437,0.02097968893041346,-0.007460527137600837,-0.048681615303275694,-0.01411572800764067,0.047127563930003065,0.01366436138425235,-0.14647365970418535,-0.19238235539479207,0.020555504204781916,-0.046867811740176804,0.15461163479152001,0.1931295187419313,-0.0800174376469984,-0.014466125962742438,-0.0312977826882498,0.016927679749774098,0.000003395803960767294,0.035741357634261686,0.033552329530617146,-0.015456999500788418,-0.04725059675761427,-0.0027713735183926514,0.0353214105819642,0.04541177176467187,-0.008276989022766057,0.03329237488621635,-0.016771016175801477,0.03726955164614585,-0.04563163720176998,-0.06281713811224841,-0.03582992677341616,-0.03578804092010699,-0.10939943428734217,-0.10449322331561527,-0.07825337969046611,-0.15702566401688028,0.07435661275548157,0.04763777894977488,0.15682524543765797,0.18050312264350765,0.03374872863006435,0.0025496948413954723,0.0015570278308299215,-0.016484800796141057,0.040369101892903665,0.05275741450621866,0.08439469419094786,-0.002374580211757216,0.10053228547706865,0.02601417921563464,0.015031915373014291,-0.009108614067853566,-0.015818096632396632,0.030084775483638793,-0.07551692733359154,-0.028246350161035907,0.029997390103693105,-0.05168246387122498,-0.07886929161095065,-0.08147970645952678,-0.029503029379604393,-0.02637350518062637,0.0353314326205395,-0.05847282688262013,-0.09053374885138042,0.059474163402671754,0.04242721864901127,0.027914832907207063,-0.03731600079593455,-0.026522150030412972,-0.09560749560942497,-0.06038425627007932,-0.07661684621217013,-0.07958307545971832,0.016188166272283575,-0.008591644946228789,0.050244897584377474,0.009548160475753043,0.09199165741068385,-0.04977435299471834,-0.0812656784395893,0.06776737450124902,-0.04440682900020667,-0.0315979049083478,-0.07008460955700054,-0.056931238297377396,-0.13124722414880957,0.010386352944599822,0.03253573144732526,0.06975774846155353,-0.10514403973772168,-0.029271830654441507,-0.011956442181096162,0.019678207315687715,0.10631593358048641,0.0030171148451656918,-0.06631863733956475,0.09590641738097283,-0.009648516973822432,0.01014422281437625,-0.019047767036270574,-0.07282866765177967,-0.0334033460435804,0.0029118114715699396,-0.023856585085367466,0.026326192713414187,-0.02318342479119961,-0.02896690557969627,0.078666086189401,-0.04023189148442843,-0.06756020640595928,0.02113883776702778,0.007823157706456724,-0.01916394033454168,-0.15338392518912194,-0.10798539016099722,-0.036934391916714174,-0.04637922042510799,0.024626396725059774,-0.048939529347923144,-0.014402377078216521,0.01456377170840426,-0.0606081799770266,-0.08301924319722115,-0.08923310288912008,0.0856608555197686,0.003737882004263786,-0.06415283814121225,0.00878956460122343,-0.1026149357547263,-0.02588685367243268,-0.08099260145922452,-0.10746623284720296,-0.03535480703994458,-0.007374796516111038,0.10037897886523736,0.05021878016911922,-0.012534303821534788,0.07602306373276842,0.02324352821861956,-0.10863833948265342,-0.0013901615567206843,-0.13792934092690304,-0.01340397247356259,-0.07029623280521412,-0.053911784093652916,-0.0007075197090131824,-0.057346891175236565,0.03698162231586496,0.009990360533781134,-0.05923229697957579,0.022480334170149517,-0.03594125893622091,0.041031699224232186,-0.04383027839837272,0.04393950979509145,-0.01463859916229013,-0.13349844668253388,0.00508272254263726,-0.05164861760644029,-0.05852925336729626,0.11315984161738878,-0.026565520439075185,0.11568301601474539,0.08632386334743161,0.0339812712202351,-0.055172195879902915,-0.040155442794946,-0.09068258116468524,-0.10344468536567272,-0.09715411359444563,-0.014920818822169847,-0.003135241253544785,0.025068605771631846,-0.09508833317083829,-0.02872442414129849,0.06007976107370767,0.006228420442245957,-0.08079488682367296,-0.03269284330648196,-0.013801108289614086,-0.0327941480864561,-0.08889559935590124,0.028149526593973306,-0.006458626378562003,-0.029500433799909725,-0.061892533640779034,-0.01150810145533588,0.03759445508495804,0.04975601344971652,0.06050382686722911,0.13325642556287687,0.19962241400146372,0.08459287096477959,-0.000913657234502187,-0.09676948050368385,-0.12973808125951536,-0.13409817203726557,-0.10711799129935835,-0.06206020104960783,0.00833266840550673,-0.05256990142939527,-0.06109027201819925,-0.018393996087293567,-0.019453296010265433,-0.0690953129913704,0.05124119923887528,0.03500353989436838,0.00010377029326116874,-0.041374795368075944,0.04405376610084869,-0.07164557114707826,0.042012732723427614,-0.08173041898806124,-0.002741866458058535,0.02243698353325957,0.027144837460868418,-0.029566680940371293,-0.015145557887111217,0.09507048085384429,0.14445500166901204,0.004993175355093554,-0.07492065812532057,-0.05132445735202205,-0.15440380259632724,0.04585557749626675,-0.04547346059133554,0.03724538983878286,-0.02667024429820418,0.016796608391507022,0.020649691220556106,0.09987032227798548,0.15258952832447106,-0.00028727424522377565,0.02013053700799094,-0.06879669408955279,-0.0003537680393234094,-0.015070491879520725,0.06578349452521691,-0.016807479551027103,0.009785426306018283,0.03906318867668486,-0.05405407919168451,0.045031711392225816,0.06850444295959583,-0.06672643979411753,0.03842137043702683,0.11303757533374495,0.1028527521940536,-0.13355017251734008,-0.06499517408946236,-0.061919901377544856,-0.05636678272893332,-0.02527858870462307,0.01956515351771217,-0.111192597731988,-0.06269677752333619,0.08686635643218876,0.03302197400778718,-0.08065719014143023,0.08016474287582757,-0.0746145905616844,0.036618276395832684,0.052068923056353356,-0.01004940257555279,0.11296037846028069,0.022802644971272705,0.01708592268780073,0.0016483556413071328,0.010147505311664296,0.02346969487804475,-0.06676185115179835,-0.024673855061642457,-0.07169327604013759,0.008931595192397054,0.06315299737121995,0.009776130388443794,0.03292578686310716,-0.016176493111008845,-0.01402261902510112,-0.06876500363948969,-0.10565108516659967,-0.05595616641761796,-0.029182719410427146,-0.06840190802163768,-0.03240667496886051,0.05809015037872658,-0.031721903970908016,0.06593954370441629,-0.09638005684779659,-0.10974782676384551,-0.04004834746437852,-0.022266389850433065,0.06855231064877701,-0.03563775838249727,0.04113655816803414,-0.0733984937742456,0.0729841858000823,-0.07571917698505992,0.12508918588252163,-0.10923429396527153,-0.028325977289503056,0.011267591863552725,-0.08618362584928296,0.04166068313261822,-0.03110614984043713,-0.018561423194171752,-0.07785145274593977,-0.0000022968560789378206,-0.0033141225247379094,0.01820186985410645,-0.04139353200129492,0.029083300326214468,-0.03185247004081951,-0.058525150105240044,-0.030579037549019108,0.0970559602864755,-0.07482817956034923,0.010909513655019526,-0.019300553042684843,0.03196406595989197,-0.027704540449131777,-0.013123702439445911,-0.007838910868307333,-0.09301887555196087,-0.09488867543792111,-0.05370281626166086,-0.0717615045201121,0.010255885362516046,-0.009696497273769493,0.003030203561957185,-0.001835598931334863,0.01536024181015228,-0.053145470083344415,-0.05341381081321296,-0.07721027437529701,-0.07877639677224668,-0.07233521783944591,-0.058758286274275796,0.048062928170473196,-0.016530155361804202,-0.020481735047553545,-0.02204312723051593,-0.002465448857017832,-0.04952053637843687,0.1147092554853914,0.13664444281222768,0.009540005868609565,-0.03692220401217512,-0.12014624761687119,-0.0444086929689851,-0.03476898710231873,0.023484409937891505,-0.08394899555983287,-0.11909818056121521,-0.03645047415626123,-0.010570524450819942,-0.08299416020183986,-0.04269245812358491,0.08508645271043787,0.07540257584131786,-0.019677458413366402,-0.06859446801330174,-0.0740092937101895,-0.02931416194727588,0.018419478226773024,-0.010786438397490437,0.023680406655875945,-0.04239690261494268,-0.022075788273593532,-0.07032317038815292,-0.02694676110489827,0.015335567460858875,0.07682219424259601,0.028007596446602966,-0.03505386606130377,0.042873806207007856,-0.00756910064263601,-0.10463893719219441,0.017354630070386075,-0.10947918560458894,-0.0028082143203131626,-0.04030035142973526,-0.128138476849112,-0.048509646206975926,-0.10556313827976704,-0.06215040083515233,0.16569432320560928,0.02389837289855823,-0.010935934284028156,-0.007179923838116058,-0.047769573175172685,-0.06069647804892983,0.004872658343219781,0.020970844982388798,0.12866561011925548,-0.00962051444015274,-0.10832823518403417,0.07255242463189084,0.05601018863036793,-0.06628013403119766,0.033334046307856864,-0.2471902079599748,-0.03357245932190707,-0.0017903013637396385,-0.023002910591426166,0.016566379070439168,-0.0831788438449961,-0.001988460291392518,-0.06219897604320947,-0.10881629708636303,-0.09693149024982403,-0.1814445302536308,0.023376232530421766,0.012709924840825653,0.005340231033557015,0.03806896943518516,0.0404274113589396,-0.03881330969754567,0.008165676661883415,0.020903163456201915,0.038985056015380125,0.008238006140814514,0.04087084643472725,-0.01716021792056175,0.06308727353439413,-0.06897895778805008,-0.015808230214422705,0.0897592295359107,-0.014532234239217127,-0.14699856956609866,-0.009156347024114456,-0.017620064179225937,0.03871949021812465,-0.01627975038865432,-0.011924396544504315,-0.006010810696843738,-0.02673513089058002,-0.1365734202060599,-0.15189370962052667,-0.04929320318136001,-0.0893738523984195,0.025956410523995176,0.0295768671457621,-0.0546857782442014,0.0549465690647838,0.020650868260561426,-0.021461620956920075,0.04105915413867629,0.011292020509893754,-0.016283757480693675,-0.01389216276692551,-0.020134064252190463,0.09927724362362167,-0.09165536578997009,0.0066161810230870935,-0.042874860985351315,-0.00020568789455823936,-0.029953612214108513,-0.04559790816513928,-0.032197062660061476,-0.008324071206422258,-0.08144491041099947,-0.021247301178465818,0.012718363946982404,-0.06550763913246445,-0.015500362283126458,-0.05048200559183521,-0.01711158892188717,-0.005518178970622735,0.0230658656118453,0.08228339665668363,-0.0188235201370384,0.008078956480632638,0.058846292201089015,0.0137429183911872,0.028107657382226967,0.06707299661617501,-0.01562752828872939,-0.031298983670988656,-0.007595872552366448,0.010005544677366312,0.044239067609751145,0.062302499673993185,0.00436279966371577,-0.08237043959446311,-0.09490085940363861,0.018779788705621553,-0.09877625576638902,0.013360598887855154,-0.050035730598702775,-0.02774759514909159,-0.058691819866821496,0.012193170506591682,-0.02670596036802372,0.07868199422606968,0.029400848109139427,-0.012787314470677342,-0.08492967623499761,-0.004116191246193105,-0.015161582902202564,0.07116742500311032,-0.029255080123013186,0.008566256270933782,0.020204879609930993,0.06175927073968857,0.07807474279481866,0.0333137082126403,0.001947972507018688,0.02805125474318628,0.08115867079423435,-0.013709291298500884,0.04070677448461401,-0.02727247433266968,0.0691547937921694,0.007340966320928181,-0.013975464886821842,0.08326226013906603,-0.04529890648305193,-0.05938532318966947,-0.004812191492036372,-0.08911460430397421,0.016589787782263568,0.04126421722672669,-0.0017409606504922657,-0.06880726638361633,-0.03665752340081898,-0.01614203125098652,0.05644262538562695,0.038150415487350535,0.04464166787905017,0.06587806224487364,-0.01863102317664568,-0.02063428333843047,0.008483437631183643,0.049620569218019515,-0.02332158177029542,0.03778215724854957,0.020306920365968664,-0.03352008489595029,-0.008485124894720955,-0.019880671222672855,-0.049510538326764685,-0.10916421517753512,0.004076311573438993,-0.07877773059184667,-0.02819967574538696,-0.06919399374034378,-0.0076757086379848575,0.11363464054008665,0.04766640719330302,0.10175079704483632,0.07236832696770824,0.07953281238267963,-0.051253530172650955,-0.008078529137733456,-0.04034820933363161,-0.054688821592891984,-0.026890611941537267,-0.027655356397145104,0.10351811602195209,0.018688128330284902,-0.025719379959445884,0.024480664214577817,-0.029063680260889308,0.09780632924915651,-0.005699355194703786,0.1832121640609277,0.00365213802084255,0.03419608677831134,-0.005160957301791681,-0.034994176748190525,-0.017193728681689596,-0.007923496626011823,-0.07836840143428331,-0.0013400329411653248,0.005215956897412711,-0.07923378104461126,0.019065137133928826,0.013155852084694946,-0.0025474212927450086,0.086346710862155,-0.03751608969344266,0.02686909551908083,-0.00001777245203399974,-0.07804768001798672,-0.08690682637510196,-0.047029449578742485,-0.04821857531604763,-0.06450765108877579,-0.04334444951382986,-0.016860796247008387,-0.04126162230445183,-0.08905140797032741,0.10675181665693212,0.19323575722080755,0.00842395727774999,0.0016960569351785121,-0.022415483115642957,-0.17154026477815046,-0.11787992622304817,0.06671142781975527,-0.08157368368812895,0.04392172247625703,0.012709428320665515,0.0649702605414193,0.08797240667224551,0.07977288619468384,-0.04915634867051348,-0.010973593024692595,0.013311533618521654,-0.03780232532449149,-0.014198023445910183,0.008185256080431724,-0.04662209121195244,-0.01027771021055779,-0.10675598228454795,-0.09032972658543657,0.054926648154115285,0.021603363716256905,-0.09240083502825064,0.0007035848869388164,0.11996986969601392,0.10106905309318719,-0.04543951637778272,-0.03230337269828061,0.0021263450446544012,0.06769732274218727,-0.03682627702866922,0.010374807376530855,-0.09496889661480852,-0.06808658892286469,0.02744824550336746,0.06330143743110046,0.030194622297202357,0.04141660065999861,0.09009463188518771,-0.021982756507584238,0.0524036131368234,-0.05251188332259181,0.03062887548393611,-0.025599399111493837,0.038945249573269995,-0.08521336817703543,0.0140634498628012,0.10524550070913281,0.025264550941487794,0.017050541912917848,0.006139834330855555,0.10195367941246108,0.016457994317446205,-0.023989409754274053,0.03084536028548794,0.008465347045324378,0.02998684181472,-0.02274553347005956,0.09227537683895852,-0.03206945950100825,0.005499476685432285,-0.035938780816612545,-0.06873098143846121,-0.0574215863627534,-0.01875953868556737,-0.03503361320155555,0.00012792441480857797,-0.049231345671441516,0.03226992577857993,0.10542314124129282,0.0155597924400617,0.07914487493921303,0.01743588599383879,-0.0058636584674296765,0.0044063874231178735,0.10725179312294725,-0.037893597854140836,0.01974558302724291,0.011507418882951141,0.028251271387647173,-0.05303527179464334,-0.06989108183383362,-0.10185005178262017],[-0.06470667876219041,0.08311403288334479,0.08541216847307477,-0.05620408203146781,0.06125480810832531,-0.022945216131769502,0.09687412772881263,-0.024172831169017566,-0.007958940405868779,-0.033865542477630184,-0.04283454546354833,0.032915300905596016,-0.03429105191938686,0.09461725788023596,0.17416462394412996,0.23758206375970983,0.034746003974430346,0.0022376714239154064,-0.013930649832948588,-0.010544737447060226,0.050814140774729614,-0.02378008767178242,0.049137215274860785,