(this["webpackJsonpdigit-recognizer"]=this["webpackJsonpdigit-recognizer"]||[]).push([[0],{12:function(t){t.exports=JSON.parse('{"numLayers":3,"sizes":[784,30,10],"biases":[{"rows":30,"cols":1,"data":[[0.17144654155511602],[0.1079714123425583],[-0.014502865636580202],[0.10659150523231946],[0.0415261961462856],[-0.03566972133879993],[-0.01785195727466959],[-0.0638489917906124],[0.04613565364656503],[0.13878538885853492],[-0.44533180154232366],[0.018644423350950564],[0.20175347527255078],[0.041078015637265514],[0.3247873820584843],[0.08145640297622439],[-0.02090596367278531],[0.3399094470240997],[0.1814367543972941],[0.1343405392688783],[0.14345771625489626],[0.09955052034079635],[0.01044878249135832],[-0.025611540208730833],[-0.03123669684094045],[0.05828411882636952],[-0.07347004131770529],[0.20910741062215696],[0.10040170286745537],[-0.06806164223620806]]},{"rows":10,"cols":1,"data":[[-0.0951981528674851],[0.0867213956475079],[-0.054026564070112235],[-0.12556255236754651],[-0.02832566169510063],[0.18460874443353703],[-0.1078892899667196],[0.2474860720340796],[-0.23952760461408182],[0.13171361346592153]]}],"weights":[{"rows":30,"cols":784,"data":[[-0.08604662117612585,0.012640394195716905,-0.019128551888364313,-0.07485773495781106,0.08237685832386259,-0.04884869290155282,0.13409096945224866,0.06223095183379738,0.04713815825199451,0.10704483799193656,0.05708004411621181,-0.012105438730047826,0.006886507660901598,-0.09296408857869519,0.06105611418692815,-0.05221073281402147,-0.07741126811851659,0.053125035735145106,-0.018422671966802456,0.12047282279528664,0.010274294873210495,-0.028711794747904845,-0.004435345723159189,0.043850991793927756,-0.008824750562265386,0.09313074945527426,-0.01961595411151817,0.06123830510446159,-0.03748460429472226,-0.12216792976681025,-0.09493334356734828,0.03179452298335912,0.014449935333798791,-0.04781573586101722,-0.044076635349190665,-0.04473785673746755,0.109711577181242,0.08941231938708893,-0.006174212939555213,0.06686811824664804,0.008856217842665375,0.013561711474212375,-0.015504768125584047,-0.036015468174840366,-0.04007501766980361,-0.03375821382246834,0.03606982706978714,-0.06249972880910737,0.011250639595619808,0.028095163493995608,-0.055580458966323534,0.01395687388528093,0.024560708755721746,-0.1366232032650865,-0.005949889584976677,-0.10901178494055122,-0.019523940428645463,-0.005092378231277744,0.007176823978031142,0.09420184200772928,0.01997435478742147,0.008919483488700579,-0.023014630743964457,0.08630394828538474,-0.06644268694699415,0.03254495814079866,0.13910744639223585,-0.028795332955932246,-0.07447080730127811,-0.14981099720874477,-0.04464791924711152,0.011224248460443845,-0.04280123306735704,-0.004905070775905789,-0.012160667647535102,0.05283832476337961,0.0699785230713302,0.006081538773593119,-0.05298415964555999,0.06058119273635565,-0.08699271348135373,0.011954740800467026,-0.07386739130544544,0.045615114380737995,-0.02740416669916543,0.043782841293833086,0.020033179293273074,0.058725121013663596,0.054462046840395135,0.05508116380963313,0.0027551022189403534,0.05548450091044191,-0.030978805389714224,0.0049082244285786865,0.032706910561377325,0.00729394666587423,0.16435165327008192,0.13896020147727658,0.015561463247112533,0.10854870106968145,0.07730400908671219,-0.025614078982893397,0.02797133874941737,-0.06506060800206952,0.08785551251149276,0.10531436158346967,-0.06537197600257684,0.04614100740780492,-0.05832849512343498,0.03751048594602052,0.009793385843020743,-0.02259548012447853,0.026351386990820472,0.0656325404297036,0.031829383189448085,-0.09056930720891385,0.028359159665231764,0.03262480856500805,0.022922484310838452,0.07718801617280979,0.02844016286809633,0.0890237534560753,0.13789270806129575,0.18555746234770482,0.07220059742870964,0.10360113267365037,0.11452141326459396,0.10376232635038414,-0.006306279990544887,-0.009687669748282182,0.012999263648707963,0.05974853239780366,-0.02065132644241932,0.004808053249020739,-0.016614513711658466,0.02146251191650998,-0.07666715339926686,0.08311303973155719,-0.019607825417071387,0.02219511962312707,0.03049065214387597,0.0678196287946275,0.031750463053610574,-0.08726458346217064,0.03288524419918874,0.08657514479870256,0.08220842425832998,0.12006737702891149,0.1462871112301235,0.1047243219114843,0.11024020907053385,-0.0028288060531836295,-0.01979513854407074,0.04743938920602047,-0.03220138569843316,0.0359169645152223,0.09945983103539244,-0.006331333512125244,0.02418807029422325,-0.08967840500568557,-0.09637430662001463,0.03993603624714513,-0.018979055163647465,0.04050634751555895,-0.05160532008700033,0.07488662262158002,-0.07915303449783884,0.0578631212691977,-0.022422315128236676,-0.05118897616791509,-0.05468581502488449,-0.004135607710267318,-0.057947070117414866,-0.0184535092685002,0.02492032947111903,0.1302305631863079,0.127531959876516,0.1371269325748288,0.2117792389744307,0.17205172846268188,0.0571650994885756,0.10100143880134538,0.08332715497033058,-0.03615326600388352,-0.002655124152961299,-0.029986145758482977,-0.032785804498985126,0.03626697902275828,0.014564722844624104,0.07458443566332487,-0.022814716001558266,-0.010103529776594412,0.05935899908690765,-0.06814662496866343,0.021144332398274887,-0.05654301783166927,0.006085218397781921,-0.03040477925842349,-0.011247460252201486,-0.01446068304705142,0.05989007994551723,0.13633437570260065,0.14105110070110113,0.06846863887167855,0.2138059216113965,0.24507734532789274,0.22158897969271107,0.13895320990118903,0.26101228455335895,0.16179050784985718,0.19253084841378687,0.030096827469472072,0.09579407584717717,0.1653784055192454,0.17577720340081257,0.10670066747064275,0.1559715630591652,0.08546660576481509,0.030603489113707912,0.09294833365767077,0.1067587773905739,-0.03762348601956032,0.05395253452157142,-0.029944896300785343,-0.022424297060012217,0.06216218639753915,0.05476778628827963,0.07552438527859943,0.006697553252457456,0.1257807389734395,0.03882998629132717,0.1595962044772828,0.1091634914236662,0.14950047957167675,0.17223647419073965,0.15827815268480808,0.23531192328830822,0.19084785345107072,0.33383990554456233,0.18439295685056256,0.13190459363818444,0.2198873509324077,0.14871281684158782,0.19424269739641858,0.15101095245840146,0.15817102579702924,0.08466956906772806,-0.0032849971364862134,0.011715496266060315,0.015935538649525793,0.018559856160542443,-0.10925016138690904,-0.022323464903880576,0.09885635222122811,-0.017736834751977855,0.06892231495867739,0.11578340903152165,0.13183598478759861,0.04707771878887008,0.0007064146611717127,-0.006082418223475679,0.027169692686864914,0.04136153474485557,0.051569194776233125,0.1657188456630862,0.22799971528438576,0.21633445710997853,0.11017871550348321,0.22887754716087438,0.16964123540569342,0.14939924430056314,0.06215933625967454,0.16493796712392184,0.07605385764697455,0.14370240391068584,0.038024823108862515,-0.021230789407915465,0.028663804320954108,0.12426955690673729,-0.03724900624981316,-0.020474801800236492,-0.04424174560103684,-0.051040783574768704,0.01320111599609104,0.061391312999931155,0.012638402417658021,-0.054284420128941,-0.025852695107559887,-0.09132108411323571,-0.09178276303929556,-0.08213325913306477,-0.008446509589287436,-0.04819918098058869,0.042019591607579475,0.10178760252374121,0.04560985991931508,0.08760794235928604,0.1265208649972231,0.0021754767288682656,0.07941580716440666,0.1068281842486597,0.030763156149448207,0.06247481785645672,-0.04865363545596438,0.08628795732964861,0.03212930737379649,0.03179458496959134,-0.034274182722097916,-0.05385268826624243,-0.028583787414271727,-0.009426198247583648,0.03193734775449944,-0.0032714534259158917,-0.1716486402558724,-0.1681907726387882,-0.13661608105793605,-0.15041652555266136,-0.11891230363091553,-0.1361966777289634,-0.08019091899263617,-0.11531520200779465,-0.13753926216578516,-0.18622813512369618,-0.11710816131597987,-0.06187573911334387,-0.0788217563509221,0.06799256164266061,-0.03006907022298449,-0.013334428062448401,-0.015130683703061603,-0.06859295931201598,-0.10687852814408809,-0.0015181615306582115,0.016891631907019297,-0.03953432887663817,0.025400271537202534,0.002205490440186256,-0.039269522274288475,0.035307183372749025,0.06293410469970748,-0.05273548891987447,-0.13631585922577796,-0.17502211666625908,-0.13702391006938916,-0.1568588273345759,-0.1605910162833371,-0.11676165897676077,-0.1701116743419861,-0.1524067909263049,-0.21139014686411117,-0.22025455059359306,-0.21872744396083588,-0.14036123613818077,-0.028577160444422576,-0.08840760938699567,-0.10994639385523033,-0.2843055251886322,-0.1918089260383835,-0.03959317011069939,-0.15175392480306146,-0.028884554216537715,0.03241259080443393,-0.07700620835727508,-0.07574020107525545,-0.008836251408125642,-0.06777178596672338,-0.02103063492766436,-0.09749003215644533,-0.12156844104637016,-0.1390614334267395,-0.17326589157842878,-0.1966999570706938,-0.23486919252357222,-0.11662851898885292,-0.09894059498592953,-0.1540506252141876,-0.14208849890166947,-0.16055215668785197,-0.12451722926624417,-0.2173481427353876,-0.09477587855297194,-0.14726439706275418,0.00455676713142557,-0.12917127082809465,-0.1390697284292783,-0.23535253555199892,-0.1938072327826102,-0.030933132641085825,0.06571300734523267,0.025926230799615625,0.027094405682864458,-0.03599519131044592,-0.03272571659141975,0.04720598809614561,0.024609766006029158,-0.06911892322995523,-0.09708484914500103,-0.12797401323776386,-0.1993624577852058,-0.16874078380933616,-0.14534215466232328,-0.16741904622338055,-0.15598162998927895,-0.12383804770222889,-0.1679690469573567,-0.1293424060564759,-0.13231344138461942,-0.1704902400421452,-0.05052875358566034,0.02081883062158773,0.09287969487012557,-0.062376703594753266,-0.09370704830883965,-0.03998667018818405,-0.0663000281944591,-0.1259472123650795,0.0951119092685447,-0.0004991281662597371,0.04148917285425049,-0.04635811700187813,-0.07415082828939921,0.035279587023174436,-0.010692865017508971,0.09240042459455025,-0.07556341510328568,-0.13373961128305686,-0.13202801562586677,-0.13322227610957835,-0.1360326738478312,-0.1688203910473531,0.04270257231188747,-0.05462757485388898,-0.12973334366986572,-0.15092377308192495,-0.10911020102880606,-0.013495110518829774,-0.034679448075144496,0.012673220456360499,0.012598618484419576,0.015514910318053198,-0.06614506694616677,0.029559753095559443,-0.05934991379459446,0.03887816733573458,0.0857521958470277,0.009506247620493758,-0.024009496689559512,0.03521109772544257,0.054475715928060366,-0.035178632515779136,0.11785632068579342,0.029677611460850923,0.028631945632066794,-0.139617103219742,-0.06670521851635207,-0.16754616490669202,-0.008293163165858965,0.015135970913365495,-0.1465494390026603,-0.1274333066931522,-0.044960602160697076,0.012508618339562325,-0.09096853094389688,-0.028202282131481956,-0.13138727214938975,-0.011332755904471336,-0.045307381492744846,0.08945061458660702,-0.06161341427004593,0.057833478982662175,0.06716322989039986,0.0034288944351183797,0.047786053429356226,-0.02761151617250187,0.026491708490128874,-0.07764518977393338,-0.014336870351650205,0.013157928010190412,0.08296258462224887,0.06807943651498413,-0.038605693071070014,0.015284246062757245,-0.17733652226991606,-0.14764769229175845,-0.1344195230226647,-0.012365871382152045,-0.09953651016212903,-0.07026059895520055,-0.07482129789996397,-0.06301888962770942,-0.09759375691796557,-0.033685639314639644,0.002641389554985648,0.04958540348729396,0.0014328778468193956,-0.024736429589473235,-0.07560701800177419,-0.013886583080583216,0.055743215116083204,0.034922665839031884,0.07385243944320614,-0.013228475157175687,-0.030742970789117537,0.033344426449158866,-0.024991939297550902,0.06090656558983588,0.08106977248158433,0.16790843648600298,0.01910325051888747,-0.015694212041485744,-0.11281807866390833,-0.12125220997389348,-0.1121458489354774,-0.135000522470357,-0.17486080756320102,-0.11405982840600974,-0.09570984047941297,-0.07448113862946208,-0.14305288183486092,-0.031256934233991555,0.04864094435333065,0.05864454207977211,0.011119971203188823,-0.051271200014163104,-0.15118239421278304,0.018786356342651953,0.08235511608470406,-0.034473132221566186,0.06120690373808705,-0.0055207199252924576,0.023292741302601172,-0.0166564042102824,-0.011314101048843042,-0.017514275399050087,-0.07915654202790946,0.027897246507220266,0.13440595408419956,0.13284290251903513,-0.037022749598636405,-0.09129124990342252,0.0370719669746158,-0.03627949644608435,-0.0899002339923917,-0.036863272533344066,0.03510134840872473,-0.003472701353857097,0.09284948345365318,0.04167610054265272,0.04454369949320499,0.13976240354202824,0.045360489028750096,-0.09649125756003422,-0.03777966829320653,0.013316347883295233,-0.0479267597249357,0.0054848950574846135,0.0021008016557584066,0.011275032799283696,-0.00805634658031456,0.02914878440934569,-0.007644415960872698,-0.09814259017977156,0.01607622438923497,-0.01960421074671903,0.08774742676407085,0.11723328460908378,0.0011566925688874094,0.030328267487870885,0.10790232784632646,0.060027054620864495,0.09193739827625325,0.03265816267924525,0.13353888081104673,0.14578452321638338,0.14021171347591874,0.18824571134244408,-0.016059860982618874,0.04962225639552346,-0.04955107119055664,-0.09516744356999167,0.010686420100554822,0.002749181967931936,-0.13140286727702086,-0.028533514661647677,-0.03822726020354764,-0.039895577434648034,0.06317913931361868,-0.0067013487890090605,-0.011216914494705849,-0.091464461870836,0.07213600569491174,0.13488923278059312,0.10151331773218278,0.014109171681661748,0.12425845444469204,0.0066895149056353485,0.1573337256340652,0.043367826315520726,0.11866964617512822,0.1089504130108295,0.16263194043878623,0.05453611525186849,0.2115031636749727,0.13778841632093503,0.1423778827323278,0.06462379363403047,-0.0021494739461525225,-0.03872795982894598,-0.03975632431083668,-0.09312409159514783,0.017028368261336902,0.014729499664846374,-0.04524036981847245,0.06605351952576156,0.04173402615570373,-0.11971699380596847,-0.03839790675359319,-0.00309530662470304,-0.010797596516863716,0.00023149956166808541,0.05733645939629796,0.1480551719723257,0.10722450522329799,0.13805281137996905,0.06390344537957827,0.1473005877669593,0.10315483567210133,0.0843427341631271,0.09827542042080484,0.10739441590201775,0.0608639591055052,0.03381230473022307,0.03340647240672325,0.10472613780168082,0.024470433029910428,-0.006485983763249318,0.0018043811187615074,-0.05667622265075967,-0.01793417113889515,-0.128778079582747,-0.05776282671775691,0.02208858740021446,-0.015715770241367798,0.01308869901369621,-0.01861896241418411,0.0358014973318855,-0.04388163977705824,0.040042631035453996,0.02143200714465813,0.1549319103166871,0.1336514197038939,0.14810286012603982,0.09379593086846266,0.16083041496540587,0.16838038590486581,0.185023022417307,-0.008505800071093965,0.01777604696091731,0.03733935190163446,-0.05152136303258632,-0.016117224452445258,-0.06986484155972146,0.04156092982303373,-0.042488031661157964,-0.12033445901575336,-0.12631719734424496,-0.008702089615133513,0.02572309325950777,0.006320482055662287,0.011695232037480565,-0.06672598688464233,-0.04538810500552795,-0.010320056236243502,-0.060020989700518244,0.05083169826690158,0.04382927395614185,0.03341801684483251,0.11259429154800057,0.10754510575210117,0.1718663541431078,0.15260272283984194,0.11972839568438566,-0.018601234552469925,0.10397111242191101,0.11771088220469005,0.11088083254276689,0.14797937958075302,0.03099501448117937,0.019626678592839578,0.02178820027247537,-0.004328713514850366,-0.12164759993064032,-0.05709963504976822,-0.06783651576366836,0.003778493078286964,-0.14484678295601,0.04986588584726019,0.018294587384013565,-0.07536659802861956,0.07811300265333579,0.033452811367902985,0.028605926885890556,0.07809920898989285,0.03999221498421242,0.049377621460419824,0.11283566815880985,0.10829829900136322,0.0574019664693145,0.12181145224449534,0.19217793440286893,0.1535880247161566,0.15506626982152938,0.20989330099864087,0.1528596668363733,0.0584629765891462,0.09848730335689876,0.1558906499376264,0.09688900058393932,0.06770256476447926,-0.02552359992910225,-0.01594855376489911,-0.03885351549689319,0.008699489420438399,-0.07052320964336073,-0.013953166021342634,0.032799320036138564,-0.057953382692828855,-0.002122909288451169,0.07664241941148472,-0.06642643753885094,-0.034879101418350385,0.006369632943420609,-0.03148708309511795,0.00273620672041946,0.0014716350628560565,-0.10081571234512517,0.058804140864878875,-0.020447122354282365,0.06374539910256423,0.11989318547876979,-0.001100711265905252,0.12596613168895768,0.020961758188731545,0.04413300370740955,0.09108455776123486,0.07103584995463888,0.10686592669890878,0.11137682838449105,0.0018638559617017005,0.03703716691194594,0.022634980634220793,0.003625557372583456,-0.027397748647761826,0.04201618590173922,-0.017314403245771173,0.0007822462618184107,-0.008817162555746003,-0.024647458011559733,-0.01638237234966163,-0.035153070847480705,0.090996722424903,-0.091118721107712,-0.01789239479160303,0.09347629716706818,0.11113531889480942,-0.005316374923214011,0.013329158390760421,-0.0334945456242339,0.04330208254480477,-0.02298889255005697,0.07908104278194349,-0.00029728814052002605,0.02341765910569179,0.08111585630378351,0.003106339924017097,-0.02467627944534706,-0.043088950779625934,-0.006697915303268805,0.02624229279088178,-0.000160917301327184,-0.00025210083823864804,-0.027166804148971862,-0.0039280163176306886,-0.0037627597917484793],[-0.07215090920417062,-0.033556318465207284,-0.02819854042982362,0.04669962008788243,0.12244132661927908,-0.0032960675352269424,-0.029343315800235373,0.01051506781131727,-0.03063172270113415,0.037346112200847416,0.015996492873467133,-0.02963372140749286,0.08786851677196408,-0.030170309411077945,0.0025188077488051456,-0.007721055226461255,0.01324689469158758,-0.05664602951696347,-0.06694651572475153,0.021186690799234107,-0.004146507680645491,0.04430942803537104,0.00023600174914834482,-0.06860431202586167,0.036611964868790106,-0.02713843752182607,0.0345088267676799,0.005062168677835228,-0.009609988015571032,-0.008604331093590666,0.0400081740051264,0.057778388493791875,0.009223145409126783,0.0018840509241895554,0.08150330574540525,-0.02172013632389479,0.023167539625128776,-0.12691484704809802,0.025371749011082294,-0.07614092007332225,0.046129643616998575,0.010496299287883279,0.0191864126478143,-0.05880107266161418,-0.04487581226388568,0.024809602045345963,0.041519768713107696,0.03176187077847507,-0.02850624051285361,-0.023933000560181848,0.02240969403600937,0.04079099522661187,-0.014422333302911747,0.027402819372384295,-0.00978169603004222,-0.08213201198640634,-0.0017108071989576994,-0.05486860755619124,-0.04301616575574723,0.0004607643681712527,0.0014575844005180062,-0.023114493719662725,0.011757695655565562,-0.016787866987988186,0.04014655397215876,0.042773872381428046,0.03238633738001612,0.027986269207259485,0.007715910146542392,0.03592068324585776,0.03045297297819673,-0.11656829523734148,-0.03894218172308063,0.13525037189703665,0.040178413096016684,0.024654366908941263,0.03595073340998034,-0.010460063392179293,0.020537005570628836,-0.014500643338064367,-0.0342138825877469,-0.09999945474297488,-0.05679641683611634,0.03456819898649408,-0.08243023788055201,0.01208597978739676,0.03116415501423177,-0.06422969096127165,-0.008088023090958298,0.0060391758850540786,0.040502093690364935,0.10521412272793884,0.04926279000147754,0.10670662889167765,0.05267380791907316,0.0425879202716271,0.02374045528252359,0.1158016296247973,0.01656645298926942,-0.05009749977268541,0.07354029011005093,0.04029409985627144,0.0900195003059603,0.027090377543985075,0.07436426366725597,-0.0416968046282679,-0.03806924097892497,0.019405565637724886,-0.04836721985139684,-0.032557837264287584,-0.06826679085154132,0.015652963509356965,0.05331740007105121,0.0669972408068419,-0.0050550167032204,0.000038589478635896114,0.03747027482866743,-0.002269063044411939,-0.08918635802173579,-0.05812451409815473,-0.021210019335812527,0.025842278036391,0.021451651064077874,0.047955451843610886,-0.14216235055763415,-0.05262112344302846,-0.14347006114302116,-0.049364021661934814,-0.15200289552324658,-0.16468286780688948,-0.074668297553619,-0.0010173862390465815,-0.0034174212220648152,-0.021981456699358783,-0.06951069916039909,0.02959900578960702,0.03290589606134633,-0.011966150027580466,0.016123147727684813,0.026165694308347486,0.044397583709795144,-0.013496468104015292,-0.09070140703524375,0.04746619342593881,0.018796207040762205,-0.07196568407807784,-0.00014196693690051067,-0.04071907338049122,0.07543744801938873,-0.10548891980612309,-0.03613839614753441,-0.149685279101995,-0.060637374594375626,-0.043629785293805484,-0.024706717432735878,-0.00896127979762607,-0.039605414321125056,-0.019476633065174512,-0.1399300187374404,-0.07275427545955969,0.0029364404045833944,0.006411050363265427,0.01836028404087441,-0.0531454482567111,-0.052790480989030525,-0.017723850091489524,-0.04629384537840886,-0.017665124879225332,-0.01676756302011346,-0.04272060413929991,0.01168811837407439,-0.07032846449554157,0.019760476917058133,0.0034364979252706884,0.006187558820724259,0.026069655215080888,-0.1180842970688933,0.03306077527236828,-0.07765527844972343,-0.13038722596279442,-0.04954709615855625,-0.02205752164929461,0.02206039770565595,-0.0010667422448887313,-0.015270780847129736,-0.030416191594796027,-0.0832329478244665,-0.0996413112076982,-0.1794278647606987,-0.1385391942998407,-0.06749945821674679,0.0006543013823584291,0.04839818988933585,0.05496540060234779,-0.010418406720686888,0.02042279924620483,-0.03871759551999977,-0.0021893923181372727,0.0180800675191751,-0.02783340145050038,0.05316769617045549,0.010186063693629338,-0.03808014241204961,-0.03976225473217828,0.030315709418441066,-0.0561206070990011,-0.1366649286335142,-0.09423459654922392,-0.16987008547956933,-0.1109854333598253,-0.054830693164287916,-0.005957420805616771,-0.053617916384584144,-0.11074643174818259,-0.18262750299700103,-0.2461814714623826,-0.1348693918189141,-0.10798751049123298,-0.13223353850550162,0.027644957462492393,0.014616900971683344,0.07465889834015302,0.07933797749112519,-0.052089264835282194,-0.02748174614328572,0.012020227460773933,0.021967076680284255,0.048490579591122615,0.06153102977846139,0.0018890945828019697,-0.16208089556266594,-0.08283336136281383,-0.11197132497792707,-0.01027485116143689,-0.1803341731997244,-0.1815915873642621,-0.13576633262541607,-0.08545727904533147,-0.1722180655050858,-0.062487276708326635,-0.14687174844504342,-0.07317979120013585,-0.11434720917296551,-0.14835892255691013,-0.045192993224955444,-0.13343651819775687,0.0009640841749206828,-0.015257254618785717,0.10100794639224339,0.05455712219581707,-0.001341387158937281,0.015785584667264242,0.03864528573911897,0.00894797349866546,-0.08892062112293203,-0.03382039278244863,-0.06989277568195033,-0.0065701126068745475,-0.052138957138410484,0.012146157728921086,0.004565843751377585,0.0050996511402004304,-0.04841409508510905,-0.1289809822353966,-0.13080535349524558,0.016970007377813033,0.053065490263785355,0.08078588960353149,0.03909802027155592,0.031473744789417356,-0.12445868451810785,0.035886100954629414,-0.08077637558914906,0.002232446196572226,0.14567021411873624,0.03186711764157885,0.02386715228196931,-0.0061347058480915985,0.00931408953254717,-0.01773399946961415,0.03102739880921131,0.046830690011039046,-0.0191587947558797,0.02561228557932002,-0.10010632611561661,-0.021315948647324223,-0.0697778130628448,0.036137099523705335,-0.06226593818501469,-0.07410319117336032,-0.1403357080614845,-0.09631959466801203,-0.04357279047083325,0.07782730439296984,0.10119018063888284,0.1396546806658477,0.0872874627272165,0.09739385606083162,-0.07305373647954329,0.014354948403883246,0.16541881269425626,-0.002829494439463655,-0.03623172769915655,0.11691480192735128,0.07354140121200985,0.11007739018007676,0.025413218237990642,-0.042616003134399484,0.014975774990188262,-0.019095234795022793,0.05152274341749422,-0.004070101682262064,-0.04952115470031845,-0.0608426565286297,0.02750259842358269,0.0009944046013498772,0.018376840180221263,-0.04564783276661239,-0.060078975630896425,-0.07021499222841852,0.02514963056132567,0.1635232404760055,0.1904097390653023,0.04384755731568629,0.0686792427274976,0.02108462225597974,0.026346453372349334,0.029398597713122167,0.033009775995555435,0.0713252311804427,-0.011516360590410847,-0.059948757086592454,0.0011318946618772143,0.07170864196964756,-0.025660229588661623,-0.03108740849096596,-0.07206099439593683,0.03336165942092383,0.038931979611647204,-0.02864790724649558,-0.09060940889589753,-0.09052032677303934,-0.05172316335436452,-0.07308534888701715,-0.07832948748839691,-0.05828895468102372,0.009068575791565428,0.011898241796448179,0.205161152028551,0.1795150261831195,0.09689087017806262,-0.02310696671518678,-0.051988889841378894,-0.14787613252294438,-0.18549567278396295,-0.054618065332807775,-0.06103934724715897,-0.04215339172381508,-0.13942852829840313,-0.17879432390872496,0.04909401695066164,-0.04863557073521885,0.03783260245113449,0.06592106103544709,0.01556974240189002,-0.1023057356612099,-0.010539865338429355,0.02496570039156419,0.026439286915274182,0.018208769720442403,-0.03992129657876105,0.01056630479694956,0.03985477651189408,-0.06434920454471396,0.1313203321217888,0.12588094562374572,0.24200358821911616,0.19595619402024284,-0.025439744274700953,-0.08903208138410856,-0.10603915119254707,-0.030552224985049024,-0.019685893816859437,-0.07812020378652208,-0.08612406263055349,-0.1023503014878366,-0.057932126094645486,0.03956451167585604,0.013696570330261493,0.052481233019665785,0.009974357453605052,0.022502002810896198,0.046924977824320646,-0.005418048752733157,-0.10241432642884714,-0.06168770295084403,-0.03928427610164444,0.13818579359761715,0.07620909296685446,0.0791155262788757,0.015246523118321807,0.15709490416028174,0.15717780549424606,0.1353761036865733,0.20550643802146312,0.08339581696527243,-0.058937169340347755,-0.03304459523525333,0.025760175847780478,0.03153103747371852,-0.026902336601085756,-0.022905876502928278,-0.0346290225906881,-0.06486401005224832,-0.04940264062094019,0.09425018335704538,0.08094210112165615,0.02310283226628613,0.09725471270235961,-0.035230341921670495,-0.11426184764115677,0.025311837448555086,-0.034321045479453915,0.033988511681002365,0.057147227390338146,-0.05399387078110641,0.13310163000244232,0.040310726771914725,0.10368599906260585,0.058484952233593214,0.15491562173312176,0.12455200681933219,0.19846923176570055,0.06017828308401265,-0.05618310929170472,0.008860450215700592,0.09694898404207827,0.12110484603727996,0.14313431584923716,-0.012748080185082937,0.042756060766819974,0.01788174812900047,0.053164275749715266,0.07990815612662529,0.12321157446708954,-0.04922199337685578,0.032127036011248916,-0.017102204640990222,0.01931581701786554,0.11040747163461084,0.0488129078879027,-0.015373166164866855,-0.04782450582342754,0.10552910917401573,0.04798417423162074,-0.04947655280102291,0.0206645688875187,-0.12293410483123776,0.0011847406415658667,0.032948788286325886,0.015960417893052643,-0.008065749849737734,0.010453539816113326,0.047464474348579234,0.11612073034668187,0.22564120302107793,0.1992110432732664,0.11006783413070331,0.04308560405021467,0.07330773509216149,0.07160134855276941,-0.007516093588498087,0.07862749419563456,-0.022857769677943042,-0.057955547122181525,-0.03240657895561111,0.0627516429976358,0.00970178156938944,0.04639706353697449,0.06292259163977511,0.09775965765929223,0.04361354439620658,0.15962584135225052,0.11521812319952073,-0.04553930897936576,-0.012869396083100894,-0.043195965946490035,-0.044449767372413365,-0.055406305341971177,0.11811835972262524,-0.0325270265856861,0.11410666817978685,0.20134025226298305,0.20571026514777502,0.16455243308115358,0.032171728630628095,0.1144559985377188,0.00914017908475614,0.021731968026608133,-0.09683625329979544,0.019466391754693564,0.1321698457655252,0.023403161250742162,-0.055388456453069335,-0.01457599354967477,-0.009916768064340458,0.06724878689800196,0.002119672613378597,0.07345412885202308,0.1613108219582417,0.19682105963271496,0.08747759287111795,0.07216978287360186,0.007594743214235101,0.018927231461896107,0.00029583516015978224,0.12353313094731892,0.09789405394292351,0.12026605297228345,0.14758589080522386,0.20247140856932722,0.185066455538974,0.07151034986994172,-0.0029752321216697645,-0.0412231785372842,0.0037856887690280246,0.09024346866759862,0.05413434082584468,0.032615525290591134,0.048092602788830194,0.012537926066722833,0.04609911798885222,0.002037533602943007,-0.01653022304406183,-0.06854565848959016,0.019951408353170077,0.02484016064202322,-0.02283172887291589,0.010713742595340709,0.09425199869552515,0.1481951893170158,0.05740116605607566,0.0831134258672636,0.12886211248777116,0.07379238086842024,0.09312472933111937,0.16266421278694723,0.133089485233452,0.13788623176140713,0.11972256387615215,0.02806999575963368,0.05371655025029716,-0.017013530711224804,0.03912614800966985,-0.007155634404421031,0.00017859572827749423,-0.05223336274889317,-0.06709177310859711,-0.030757771873377127,-0.04921888838485546,0.015314016255941615,-0.06775031756946172,0.06227925323421865,0.04120715122607431,0.048267539984175836,0.06615929261745589,-0.08694670810201534,0.030684269206168596,0.026913489050018984,0.06174684229793996,0.12158484915640577,0.060118308699183956,0.04289414827333692,0.034928351251118005,0.1170640136293701,0.02263529254242137,0.02173729141937902,-0.04881679440995656,0.04083011592975368,-0.039944010873070424,-0.09412414812281372,-0.04810832208137428,-0.016701485042656745,0.0001590262062159096,-0.1261269795303455,-0.03850229795650107,0.07400389872723809,-0.04547820758770664,0.013602952728604853,0.03766065270662659,-0.04153781215807799,-0.050268134783151945,-0.011103179444284168,0.03906163116307518,0.011530006703283151,0.03340376703793035,0.08126934188754312,0.02285967119315393,0.10917043205658129,0.07000264966753518,0.04226358189177652,-0.048361510390786344,-0.027168138633161597,-0.03961932148685002,-0.02432821788344737,-0.04978577550825018,-0.08737017241171349,-0.13689040114868609,-0.20404508974673952,-0.06395954891098604,-0.026084950597227752,-0.1005199826287208,-0.07477165393406823,-0.10637263268623286,0.023996264164517857,0.04858131581043036,-0.0032430284276954878,-0.03432100991135972,0.02016328086613042,0.0007592534578104606,-0.06413104645177353,-0.0789422104133428,-0.05860623643418044,-0.02109612502462489,-0.0031048769301061643,-0.04648515169206795,-0.05450688873973163,-0.03782731256419839,0.05825130278710267,-0.07681079730558985,-0.05199406155030351,-0.012126358958882661,-0.1742867794208517,-0.19911811903661863,-0.13479073613956935,-0.13098130431435753,-0.06032556502087349,-0.12838558644622053,0.0202504146394041,0.05914690538374562,0.013773988871858026,-0.027057280456892433,0.06245631999599888,0.0031376076031482407,0.049510799804852505,0.04871865389565949,0.00810696580107343,-0.05066898084107141,0.056880217324937865,0.05356624925814343,-0.015099336405427587,-0.04903757148571024,-0.035252060214834395,0.09559741869210191,0.01845318727531626,0.035402451499816766,-0.0786240967847735,-0.14205763251070136,-0.10179207540966076,-0.15713934311429412,-0.18112111821868748,-0.15447623849248956,-0.13604490332716784,-0.02525667922919239,-0.0986834215971138,0.00821440964376588,0.031942880712990326,0.04056650320504868,0.05909369984504703,0.022049188741046614,-0.08007737581630298,-0.00019051359910143405,0.022468459398405378,-0.08500141645741072,-0.013879663426546418,-0.00011421751172801585,-0.012884877946727184,-0.03660844431383922,-0.03700997792529637,-0.056025958439202946,0.025384257533312752,-0.011778980150986816,-0.004337457464247956,-0.07995945728682777,-0.11945157724625668,-0.14865857450995454,-0.045058022950067424,-0.11777342689946634,-0.13036626562038467,-0.040925068957341715,-0.04778461149506432,-0.1136150115803439,-0.024204382232582644,0.026647134505865547,-0.014824878183117705,0.04133560499159515,-0.06506700070129257,-0.007727929997754623,-0.022996427672784227,-0.002651743442257095,0.011974856357673758,-0.020117045337310947,0.03836466129691209,-0.026708256748652324,-0.05811063780344352,-0.03150574610364314,0.0008812657517827587,-0.020148672439361744,-0.1023666829990194,-0.08499105881133452,-0.12509210007585408,0.04686368759038671,-0.06479169997616631,-0.04452767450645826,-0.1189350751929819,-0.03318993812846133,-0.0033973784659016666,0.00985524789764593,-0.0729113602091548,-0.09226631984925468,-0.07199525419258397,-0.034123438915110736,0.07900950471542412,0.051385976045605616,-0.0024689153323009206,-0.004286608710756726,0.022604520230339677,-0.0021941589490086966,0.0018422512897171583,0.06849998512680801,0.010260617024785907,0.1423197082862261,0.03352412718576427,-0.009753648729679609,0.004864517635815363,-0.056444477040180956,-0.08163239079719467,0.04666976061454569,-0.024092124321841647,-0.03202875304119791,0.009924171217306604,-0.07339252014966142,-0.06895188890437906,-0.04419098213582179,-0.04478963133733154,-0.0035867120521058784,-0.024391804408570774,-0.04192317233535883,-0.005663934059199704,0.035304337582374654,-0.08593759011872489,-0.0036713904945350935,-0.04456757266927876,-0.030310154754682263,0.008217065573457924,0.004281987349335105,0.03647880805294726,-0.03611183070705535,-0.017226956354805124,0.01489848933779089,0.023169350732799184,0.04760161358106346,0.022652647430836153,0.04566130152459167,0.06302922838447989,0.017922137469332047,0.000051356646121074024,-0.046132038238416065,-0.041031624363672144,0.03948764052932028,-0.022783390860945465,-0.08797806324009194,-0.02640037617104388,0.035404890419480466,-0.06818738957479255,-0.07622933110203836,0.10244792511153009,-0.0265080417801417,0.08505593504600809,0.08416328170582503,0.014359443062414216,-0.03390736559259737,0.07196348355034084,-0.08190597650923975],[0.005455404713995443,0.02872014299578156,-0.03155336505607175,0.015380559819738763,-0.05356794707851496,-0.0026682680776448173,0.035417189910797425,-0.03932180520449907,-0.027738093863550764,0.039228860427445465,-0.0522419271200509,0.01186539616819631,0.03482327758554293,-0.021608276810529566,-0.08999627837417476,0.004961008936832406,0.07282100852598178,0.05487867851975227,0.015463251790893195,-0.015980151447563005,-0.03681455331422143,0.020007894781806392,-0.04489609273131656,-0.08814277907480042,-0.006590204349777265,0.016929911162546985,-0.014920724802793595,-0.0011992136256614625,-0.07538345532557576,0.046244748734519184,0.07444261550578206,-0.028200370879468677,-0.058837911505692,0.09634211558267557,0.017746131391549128,-0.1034370772341362,-0.027682761500096728,-0.05207080839190588,-0.04065086471758655,-0.022754539344674207,-0.048650065525194124,-0.06794903257237782,-0.019195116076127488,-0.009710190953077655,0.012975746236287574,-0.012179866963778969,-0.0027164039197512847,0.02239088781667357,0.06312572728133427,-0.054395301756138846,0.03666387235903699,0.03228243995711508,0.04824887773015726,-0.022897626381417933,-0.027361893228609373,0.09054696299121141,-0.050866348889439084,0.04707801668094561,0.03134042692629004,-0.07306228459510604,0.048704508590221136,0.0987299363827796,-0.027859623095962197,0.05186747659137942,0.018486452778054312,0.042403792561317134,0.040014068669751955,0.022722769895302416,0.04532192177985084,-0.00891764190774987,0.03737232375891006,0.04329067757281511,0.03175687703815992,0.03099155093441325,-0.03875565927767967,-0.025021478452137907,-0.0062147241653454175,0.009273344963720597,0.061565208987135196,-0.05361472478501279,0.10209395905695677,-0.054326361667667335,0.046989481957238566,-0.017187873467112293,-0.00491322410561803,0.005686483125937311,0.11938892479738317,-0.05888569822669657,-0.011575274982469772,-0.04986339734942519,0.009164023351026448,0.04128559925260384,0.12451321275618162,0.017333940438774988,0.0627807491600801,0.10959040729659912,0.004895242254678155,0.07238433912036402,0.09648665899979898,0.035831540637878107,-0.0013520933584296674,-0.10073905196107455,0.049473879498759366,0.013276022283265972,-0.053954888627112056,-0.04031485424815738,-0.07095418261445748,-0.028357649212666064,0.04796146995689741,0.08296044473901922,0.009857376789220289,0.06691970404436694,0.040737370482239674,-0.015663258041025543,-0.016096098484156864,-0.0004770451497848526,-0.04922138142335747,0.03322436343405675,-0.00878742921894993,-0.011170631046331907,0.04625934032252413,0.11312165310273635,0.07503878846764585,0.10226633472938851,0.24966471352371236,-0.006222612798046314,0.12012213285155698,0.004983804501778339,-0.02450724049678932,0.015827739713010245,0.05020284177464459,0.07039698973325477,0.0008141005124768194,0.00936619390207856,0.0077155318302889395,-0.09900543852854998,-0.00556768794614091,-0.023645489827031633,-0.010627368627735344,-0.014974067634182712,0.024982803635923225,0.031215998670264294,-0.02839604872374907,0.07453621922399141,0.027963040567849765,0.002868164104119946,0.017030362413545767,-0.009210374202870613,0.05779240232835871,0.013862869319129834,0.02124708819075519,0.04086405176266938,0.01737758674816603,-0.003894461150260807,-0.10704479272499773,-0.009155340859050244,-0.007692442261409613,-0.025766522939154442,-0.03644694011314959,0.004800040779610191,-0.08142790676635772,-0.017088567010501397,0.03703848863013024,-0.03067088958698082,-0.06296458913579396,0.10757026050944768,-0.025603745460162877,0.11462751997214306,-0.056914593371281894,0.10996700060741929,-0.035640651810496665,0.06112364660749447,0.012261926401265132,-0.008438736112782777,0.11876469233626749,-0.03495384412746767,0.04720422107596261,-0.006458992071389087,0.08595431576773366,-0.03941695232116761,0.0008334905117881506,0.07462829338360667,-0.023850664040305197,0.06852342624693199,0.0041430465300296235,0.026173665666208087,-0.012691622557383398,0.09726106892755797,0.05293604650785584,0.02299187133256033,0.07156277586035523,-0.016573061941888498,0.19628337761132483,0.07728155490067905,0.006137979765461219,0.01162620889323993,-0.028005431328771282,0.05723498420765102,-0.02575039546097829,-0.017725384050508147,0.035670568774931216,0.01666882271763468,0.03488893682125987,-0.07765829943032873,-0.002765182968911149,-0.046884424388463984,0.0587721296373039,0.033260299877333865,0.05103245223193081,0.04743042909036311,0.1073215327992714,0.09936643843116273,0.047914832153410185,-0.02830156138143686,0.022857145815251983,-0.015275434174898895,0.011068361206152833,0.0728354142766053,0.0752065409355968,0.03293629050535308,0.08830850883866039,0.020798997934528843,0.05625532450164806,0.028024182348621886,0.059610133644898984,-0.014243823417536312,0.025183740290130922,-0.026132702490044266,0.04576769841521597,-0.03132621542943149,-0.0037900099080408235,0.006816105159284701,0.06544813893802581,0.02063408213122323,0.07746083353639517,0.1278735394451175,0.06959410623422217,0.11005531591034909,0.05356887994223146,0.08243881850340565,0.06033795808543664,0.1521577865175643,0.08686637816396577,0.09263811156175558,0.0024497904982485343,-0.001189907165025951,0.004311632249287202,-0.017210475315794393,0.02176958432256621,-0.076075209718623,-0.0655784118605686,-0.043282302189220544,-0.054896233793218036,0.01030108702625318,-0.047876357840879555,0.012605734361507926,-0.05066350329177402,0.09317969486711872,-0.01564666262980641,0.08946988397101628,-0.0012141153162498798,0.018439776411217232,0.037531480229261546,0.054575447255206494,0.12584084456597888,0.05421130191211294,0.04402858743025983,-0.006356577538251078,0.052785569392973894,-0.11086414434569444,-0.0813541099043377,-0.01030597820868046,-0.04689884619001049,-0.0018965409488497288,0.0015322093061659319,-0.022834555166648354,-0.03169099722726765,0.04457265145133164,-0.1084680234919286,0.03433124630022829,-0.029178686256535726,-0.01595828120253613,0.07192646847958414,-0.018859653494718215,0.11363537388340586,0.02643447347341663,0.027347348052759624,0.00410929652357484,0.032499724898388455,-0.021214282988272187,-0.07555407176126101,-0.1697616283037761,-0.11897733560113768,-0.08904551053248001,-0.09178749562826806,-0.05829329423405132,-0.03018560170993126,-0.1132702866772529,-0.0913892011774044,-0.18330578447267926,-0.09108435758721944,-0.13017732810507981,-0.06742562423954718,-0.03240712056179203,-0.05511293618469023,-0.00918625076305691,-0.025877337650722632,0.0037906641295464764,-0.07775265291216601,-0.014092084470003615,-0.08376139489059982,0.03826146703685136,-0.030039153210062765,-0.08437302936226916,-0.09768298459198152,-0.14920823193892865,-0.1907654745597799,-0.18241834175924312,-0.15837494750307016,-0.08413087250047638,-0.0864400008201639,-0.11310309829582035,-0.18772694033537796,-0.09818586502743568,-0.22519546806719365,-0.0826230734609126,-0.04574056268382509,-0.08752868023201965,-0.09345857964664116,-0.14031302823737854,-0.20070327313952513,-0.07434839443950704,-0.18938219044260177,0.04533645676405244,0.017917598059896348,0.039902294256991364,-0.022322484034890424,0.01481145003878604,0.03158295267272328,-0.006289399183092138,-0.04660864278231796,-0.0893294968547348,-0.09407594992314108,-0.12147253630900069,-0.011890364378954594,-0.0627630620442234,-0.07389944974982483,-0.1684946150204807,-0.05932149666492052,0.03274387450344615,-0.13397093356144854,-0.1478240191792143,-0.010722275829324116,-0.0678930927916465,-0.031602290312950386,-0.03884304921521991,-0.049324924344763335,-0.12202610945183714,-0.1647363682231227,-0.05027784091256467,-0.04961112358119347,0.026039726908286428,-0.025342512265411545,-0.02543552590901804,0.07785086477554079,0.03380770257678017,-0.1014849952176787,0.0004868137361067511,-0.03430930415728326,-0.11750988646508591,-0.08369990828836635,-0.03902091824296231,-0.07979617984906812,0.012616653845015815,0.11131984849334448,-0.03865955536345894,0.09302758241137753,0.08902848311839359,0.08807024074399288,-0.049061913017243046,-0.08925130602495755,0.001827777968006084,-0.07036134195692977,-0.09733054364366073,-0.1445461248297627,-0.0725294685030725,-0.05458884649472626,-0.11528850350135895,-0.1429194903272342,0.0038187811097179854,-0.0424699927964069,-0.0949869282959202,0.03967619515442277,0.010144738185334802,-0.017742534462504633,-0.0023282638816678747,-0.055805896095934976,-0.2052121762998604,-0.0591092111980123,-0.10352326211531807,0.011399946769650985,0.09037729325899722,0.12178588253156611,-0.052153801397300845,0.09468120039305204,0.04048783273151903,0.15402449952575997,0.026177181929508686,-0.010854576875706365,-0.1010361552402062,-0.11444438292892309,-0.061352911568506516,-0.050172078452190814,-0.11045518331854304,-0.1270636673411491,-0.02757104877153833,-0.09456764150801228,-0.01789144769161858,0.032835101887427234,0.016319184396438608,-0.007290230277598359,-0.02839539818093379,0.07343008198110615,-0.0011386926404781934,-0.09741838249569477,-0.06065566607411522,-0.08917575193415032,-0.04162128650186079,-0.014495678169931747,-0.045953060151392014,0.013347833871537686,-0.014702509155334845,0.07635600901065377,0.10961822151373517,0.20509312720444509,-0.07017772684961714,-0.005642530933484247,-0.061760953100890977,-0.0029998637913742905,-0.18444726852975066,-0.08301688237858033,-0.14575588416519758,-0.04899837840868268,-0.03970969781544607,0.03937696789031666,-0.025416205252224235,-0.08285403351963978,0.006467019738283914,-0.014219977883692683,-0.006792813302380082,-0.12325158874456037,-0.03228905944985164,-0.04073933838736118,-0.08704589563467324,-0.012583244555033714,-0.026901139896572838,-0.008413737884598128,0.004341847380864075,-0.0033326937287066092,0.08675087488641085,-0.03466209919459283,0.11843668248589545,0.002477130474843661,-0.013853077917646922,-0.017517983050161223,-0.12450868772293708,0.01606593364283513,0.03452345046814711,0.051603034835740344,-0.04039073786750953,-0.07604297647336544,0.011124010058701443,0.08510164040604166,0.03938311819411832,-0.005223462836104637,-0.06373186823643517,0.025849485462969876,-0.0438396870688581,-0.02050656092785137,-0.021557930801372256,0.1207253843168352,0.009708426857212819,-0.10568150185632558,-0.08727841307714569,-0.12132824106588769,-0.04867131696148009,-0.06395649394877459,-0.083501152087838,0.06507328199074106,0.10650305155813937,0.0475040738909884,-0.015489056354683766,-0.08478066671958336,-0.005279092110869952,0.018797540503829598,0.11691240635093829,0.05715984749351771,0.13775507227287187,0.06840432083311813,0.138314149571306,-0.026627878830537764,0.0996014128990386,0.010097397524431924,0.05072477702378826,0.06704256128205092,0.046261075607780394,-0.020988877455880302,0.014953982779077488,-0.007398322530055954,-0.017227465242298956,-0.10649525264364768,-0.0932349820866097,-0.02833168648454756,-0.15139656571467633,-0.1654888962832205,-0.09506920641998863,-0.007141773824916405,-0.0340623437073757,-0.07453191358013243,0.010802405385640566,-0.04880367808246959,-0.011222965876734811,0.09128583882325833,0.12863811075544765,0.01950539914848807,0.08479333428457796,0.03796506563880782,0.02192226792873106,0.04773713039174708,-0.06917764474068412,0.063207944134219,0.06904243259983103,-0.045651981471426795,-0.046401768966799026,0.07213848034197805,-0.011935834642038406,-0.025880693731451732,0.05604798500860068,-0.07015831095925631,-0.03362033736188451,-0.035500023689887895,-0.11306891266950529,-0.08419889419864185,-0.006256136204489427,-0.09233952257967834,-0.012539081272246505,0.03766295235726064,0.06731529152865609,0.06439057048440322,0.13338162463206987,0.11778567450623667,0.0781447386438192,0.1484315522358209,0.06630069604303057,0.10738494308377147,0.04260444749253006,0.08146087954646865,0.05929386176894604,-0.057802136919622896,-0.07166063354336635,-0.01998450838161389,-0.02058603692425225,0.03507254905979485,0.017743348212204618,0.008201998769241834,0.004504476252514791,-0.023013124070575375,-0.011686628381675607,0.02612676488715289,0.08358890694485077,-0.08494254287491877,-0.0017471872135052286,0.024628909799572326,-0.030350874047811085,-0.022521917377019307,0.11489674862144561,0.08227458963623614,0.05131080797240005,0.15666034634986525,0.1039623889707622,0.1478585335216912,0.09542557785602146,0.04713622242187361,0.04155201199512912,0.0662989545733002,-0.03349881870145466,-0.007450026877844042,-0.132101028767737,0.015216163664923971,0.04762601339825719,-0.011827008722681186,0.04268349982383049,0.009514259783202307,0.1419403766004126,0.05561326661055547,-0.01744956587805352,0.04446530409033157,-0.017921667509695042,0.05765818398467721,0.05338226219926316,0.025285463101283056,0.08179040345405007,-0.044122127879077225,0.11377962349545964,0.020100614805275654,0.01501687700223209,0.04517344812896898,0.03076762770064337,-0.05861629402930542,0.09470277374732039,0.12359269169441309,0.04668966355454128,-0.03411116547477502,-0.0021022283221374355,0.09333401964981113,-0.03651127490074798,-0.007331499976823156,-0.04196761737358201,0.038873481940539835,0.04496867515882208,-0.06259910726798028,0.05445825983489096,0.09456195094244602,0.05312457120307418,0.0332314289643689,0.021723075693175775,0.007467456300499186,-0.016689661893425613,0.009574007589029359,0.01054973651784969,-0.0003918761495347644,-0.0026310117482576728,0.019129215785182986,0.09598745228211346,0.11381446444582057,0.1806166359267466,0.028103990050141754,0.06548920204954532,0.04429851679444571,0.028836341816125714,0.046750280997376055,-0.018094679538769497,-0.019001891732566212,0.019887854828546707,-0.09847413765760715,-0.028686384856791834,0.04044458475055572,0.011409070160917826,0.0691870995115275,0.07341925721200859,0.00957121880221955,0.1082822871638298,-0.02934089589418401,0.07392957592862799,0.059639966556071615,0.1075705326986242,0.05896838141748175,0.06887900545202907,0.041271857395350726,0.02927926051611776,0.012056169854451928,0.007166907894212523,0.091361904458873,0.0020988924767681673,0.0019827487525153997,0.136507958973149,0.06065296947765571,0.058626148654814525,-0.03709166847684108,0.043581651678268316,0.12949722431345687,0.04409534122412516,-0.08955347017956639,0.0595046271915681,-0.05864510934186905,0.11677520721245704,-0.01415150732525338,0.06211610566620727,0.06509758395333051,0.03427870466894512,0.07393378920286031,0.06766492314963204,0.04180414481012136,0.09275400282049463,0.08860252256912254,0.06034007370283184,0.16487111544044766,0.03895737496128912,0.11417893188851437,0.017840691466749128,0.02487665285778191,-0.039574344901132,0.058710550974841735,-0.046981449467881554,0.05953107460399611,-0.02897953336885343,-0.08234090251290647,0.037408134883800466,0.01817502942236871,-0.023483900780468504,-0.05899074262200747,0.03625544177943687,-0.05652579461584962,0.013678848387505174,-0.009259265749666627,-0.0173157411658715,0.011565781422365614,0.0696126866195165,0.08071339652647291,0.013111213115452366,0.08948447294629183,0.013290522091823947,0.019421924337467304,0.08926027859526472,0.03854025676330045,-0.016063892331000983,0.14730752607014957,0.05427546462659176,0.11917949087514434,-0.006011788616611789,-0.0016481612925480639,-0.12412012066945068,0.035141286078678606,0.019743228589265367,-0.05969215803802282,-0.03115254818342026,0.014995741482371197,0.05996998166048809,0.01457447481759918,0.00005528860195913106,0.027417080671763325,0.002657823610925957,0.026735716721475976,-0.013609056606464212,-0.01603874325225262,0.014150395647388446,0.044826722457454886,0.07232455592911964,0.005652976716787901,-0.0431904558312995,-0.09709372614975152,-0.05956989116401797,-0.04207183997315875,-0.056667130884521126,-0.058738348176357216,0.010940284185198256,0.02562120963548287,0.025554876953394184,0.1654806896082431,0.010995523263938637,-0.028918729293328227,0.0120225620137809,-0.0026791055564958934,-0.06199166882423335,-0.0442254643501132,0.018884704765647103,0.006330420164274666,-0.00840213675049068,-0.008572273561213298,-0.024057392594455322,-0.06877794966294665,-0.008689107257974832,0.014132450468451185,-0.0019085575814918145,-0.03764414301432381,-0.022006373285977363,0.0035916210160749835,0.04892272945955127,-0.023894808416641874,-0.010908041794014839,0.1315033639520312,0.14062379034166192,0.06014925005590804,0.030288037396982024,0.06493919847656458,-0.03780960792732933,0.13437664288020154,0.09508939596288536,0.005660525465812315,0.009463827209439809,-0.07617461391323636,0.027437768881921402,-0.07551810020556973,0.026781522424511827],[-0.03139541132059175,-0.028622439681806756,0.006447610581985688,-0.05225869596792475,0.010186648331280029,-0.05323351422152797,-0.04411670745536,-0.014947093267524705,0.03170158467595827,0.022212174466744623,0.008128955288527272,-0.05017798064009462,0.05487985825513526,0.03541848126831285,0.015126329746291937,-0.03528097624755931,-0.08585015442819342,-0.05293498998510295,-0.03010738624033423,-0.07299574955601192,0.0992070045114695,0.017322839238045007,-0.07791111004868334,0.07234615655722694,-0.06791790766242783,0.0376924702298688,0.09584681243886867,-0.045133110647901584,0.047590860176633776,-0.032754397552388084,0.03685697385757809,0.02831582892336378,-0.10179301368300836,-0.030718714127289794,0.000995300292274657,0.09984750627072055,0.05701823576616139,-0.04596967342210444,-0.0685441493163714,-0.1196135284137595,-0.04254848873441083,-0.014125799468941961,-0.028684931461100068,0.016225832858728362,-0.062267237761143054,0.06187898693159989,-0.013065904595252033,0.009774991850739616,-0.02449089328402177,0.051944545798757916,-0.07064488283409115,0.015587983545180177,-0.00660718906614382,-0.04193869536678509,0.014602087842169265,-0.00760556896436182,-0.034437191597348,-0.05394208354439279,0.00925466156730418,-0.023555732661856447,0.023275471409154043,-0.0334031724570124,-0.03377132361057973,-0.01616628665353661,-0.04820757830255537,0.005508293978634872,-0.018953132171057804,0.07351827610847028,-0.04864693182453884,-0.10171224596514718,-0.02777061153068243,-0.014052446929876637,-0.06296295945443013,-0.004162176812247068,-0.01371033225265182,0.034187970366126086,0.051644590025645816,0.044936747567729356,-0.030615203349592748,0.056544752981712944,0.08766801494886366,0.07069090742323167,0.13389678845272163,0.04355840179492456,-0.0009095276871248286,-0.003624684644833081,-0.07130276628545315,-0.016645198509824086,-0.08186956954811192,0.07106893979473711,-0.01571543129606031,-0.0632082117579557,0.04517180123707161,0.050955053413112475,-0.05884781817342312,-0.10263735325264593,-0.027067802895648613,-0.1003484745588776,-0.09853455502199068,-0.028200918616669415,-0.1108079351922238,0.03515101883105412,0.115314039328669,0.10959786570943218,0.08916984669219602,0.13026858038962713,0.14182626116029673,0.04532015352621454,-0.08326023454230372,0.01747264801389183,-0.04678627754906268,0.008696796398182521,0.08374235375905341,0.010786628012112772,-0.00978114697858327,-0.02701437702133053,0.05233023906877707,-0.010552694125205738,-0.01478897652647455,-0.019180091588301456,-0.0013122706887370445,-0.12483947805621456,-0.07401281185320219,-0.0861605233865429,0.055177015310415044,-0.01448157842535006,-0.02119927155578211,-0.10271145091022459,-0.02858917827000078,-0.02463594400713221,-0.04866434410347832,0.035823538127724965,0.09157527295814104,0.17564586549446956,0.06848203396001756,-0.07688429233435505,0.08617861936517072,0.019428631341862262,0.04918762504195111,0.02683359605918268,-0.08559357015838912,-0.03793352207456173,-0.025195236921042374,-0.005104136014417786,0.00839987240369491,0.03376578328582152,0.013437630382935278,0.0027515660614114337,-0.13579295561502835,-0.07090477715952878,0.05964358554836035,0.02888391624078981,0.03989896196689452,0.01873221232647174,-0.013570438255055908,-0.01059954745601513,-0.034740248580655976,-0.05155280978707163,-0.013232067755470424,-0.043356270455746505,0.006759739138853896,-0.0014945950014443575,0.03702459359927829,0.06805997508987925,-0.005661825416632909,0.04312149041074421,-0.007990907483593952,-0.015319032524896399,-0.00924110441129563,-0.0064485193998892,0.021099632769277128,-0.030567102896264877,-0.013010556860470167,0.08159419307187017,-0.1318087576466237,0.003966134661705705,0.11213083884334131,-0.08110180500979826,-0.03192828869006493,0.12210552662214778,0.009698932795752924,0.10697118661979498,0.004985766125263779,0.02002435109448126,-0.04584646322836066,-0.03655700927023082,0.015126089072037633,0.02750779819035306,-0.02292128024875169,0.01467579438410498,0.028839433660479766,0.025154676153698458,0.10176086221526955,-0.01593510349762331,0.0017190326040919534,-0.06705870759275033,-0.01655203488511871,0.001552502407908781,0.048238177009855436,-0.038958266036250536,-0.008996448722319719,-0.04628806753010346,-0.06452053501016376,-0.08781633490969687,-0.04626616292668182,0.07482930157118332,0.08517942749333254,0.07868539223693395,0.04287430762698709,0.046627082211435224,0.06470699583954333,0.11493967461405004,-0.0040855076541965905,0.027348507439360983,-0.002828618448411496,-0.01540146008430504,0.04262873514659221,0.015458313586795652,-0.008429473028103414,0.15248809904485108,0.16800588528945803,0.08331209589160285,0.0014273725932679284,0.08034591342757587,-0.005639781989235609,-0.0018174685898660822,-0.0748641975275102,-0.01064018933224893,-0.07727609369435594,-0.09774700411445521,-0.07963539824987778,-0.035104434551369516,-0.023180649663182937,0.08752177491892604,-0.05395678804317382,-0.0006300413608999221,-0.005061794929367036,-0.07849710353957208,-0.10662457129369465,-0.04215406944321282,0.08157861007156454,-0.11495929037435429,0.00352038665660709,0.018324623035427142,-0.004425445471962545,-0.026267664726982973,-0.019886769466736735,0.058897027116872724,0.23205308137022782,0.06992458538232749,0.00034151203285201606,0.054039652702243327,-0.04227888921119796,-0.004759989115176754,0.030651811517597823,-0.07444478135036281,-0.060400975577157304,-0.021435661096783378,-0.08364856124396179,-0.05448735778476316,0.02869180588573396,0.14657738878284035,-0.029183636732185932,0.04806730329911972,-0.0012519257332916215,-0.009972417179156154,-0.20867358624704743,-0.17175361328407496,-0.07094759815845134,-0.09519247798442611,-0.1344993893501723,-0.08975365702536864,-0.08646919882570293,-0.12869729973150815,-0.07718139295243599,0.008200789184632198,0.12750670125629618,0.09263193625368432,0.02371262834867433,-0.034429030567264554,-0.0016588453273484564,-0.02007300066052324,-0.048291243361492826,-0.012934021132873721,-0.04790889754587754,-0.0446870460138381,-0.039357789134153,-0.019967492265579923,0.10549079522610467,0.08074266222162392,0.12198985327266881,0.11903904367864454,0.08347839849761077,-0.0606263647778621,-0.2845735622995993,-0.14312876842252747,-0.048845907333830714,-0.08321977500934606,-0.14313106801386846,-0.023465320450413815,-0.11993310275344342,-0.024713698627234056,-0.11398684272811072,0.04998949570966977,0.07156400230840908,0.09063416005305766,0.01540448388030667,0.07014324916580514,0.03637659842300223,-0.07056193230872428,-0.06261500139446179,-0.004810729687195693,-0.04425465476380859,-0.10539918371113705,-0.002926182999238115,0.07779194427073755,0.13060274345647635,0.11275661556233935,0.18799551691632035,0.1823727657040071,0.13156242529926668,0.04036759799016821,-0.058791241767792136,0.018660740648838915,0.1551952675768285,0.1887122641762104,0.006810376187011759,-0.08838235333700209,-0.09966638189403644,-0.1460718919471252,-0.06608777085205793,-0.05918343568642903,0.07160681939665003,-0.04600184056076315,-0.012928432488004418,-0.02218515264626712,-0.0487152566262704,0.07252263644480135,-0.1249332606622644,-0.042842126239743795,0.08237004281977765,0.02265605464523673,-0.020388484750712667,0.08716951390751607,0.09420643935120546,0.12111061284004544,0.18088070671629863,0.2033417265318929,0.10754254931440722,0.06926512471661778,0.014679193130998316,0.14274184374967722,0.06839394560651978,0.12990887058707762,0.05053511779426828,0.061237598373671875,0.009722816206191405,-0.08375552321160994,-0.08233073000372526,-0.044056399650383084,-0.040459055051353804,-0.05393357670898842,0.011030874891450448,0.04681943067634075,0.06314450037751435,0.0412235279323377,-0.033025329029662154,-0.10364251535972348,0.05385167998881637,0.04384392437772844,0.15051472169239025,0.16244878878916294,0.11152909954675908,0.16017310371752974,0.24224465789429175,0.21738777686939673,0.09722117401159634,-0.09928006285865418,-0.01766405978070905,0.18271247052506875,0.08123055809315437,0.025096588924208862,0.15515791954800284,0.05525543519494029,0.08308200325942199,0.10696869318892997,0.03244838082181184,-0.06605880942541079,-0.1454225459875551,-0.12408344831473256,-0.005474790161154559,0.06179408280810283,-0.05481833815448464,-0.030703489311173705,-0.12120679001712588,0.047728797933326184,0.02059103236232508,0.07576174806334078,0.13036583148221806,0.12435058629757886,0.11538824784929914,0.19221203972331372,0.1810820396909691,0.1356892073238455,0.00043121023447801644,-0.08933694742976009,-0.01920722085404175,-0.023535653456411072,-0.07729205572503609,0.15403600338649076,0.1579539740389993,0.03584045526217521,0.05842096527558427,-0.030702989595876303,0.1048455166191115,-0.11077758763924543,-0.17363365933197922,-0.04349142366329162,-0.07569599474822446,0.027722425721271836,-0.08212692041837608,-0.04227907880399897,-0.03572309558558317,0.038559662632384764,-0.04505477447437205,-0.09184980123286848,0.02461412112146267,-0.030649848286291664,0.15106899783282995,0.11176091856350283,0.1193986164243302,0.18392697719115642,0.07113532423635445,-0.0938427838140053,-0.10133977811366317,-0.029059463485468937,-0.03807106339537218,0.13499766887592865,0.13153701472375032,0.06208396368460353,0.09653731593994,-0.023827545513291318,-0.04554655622962778,-0.037272365295418136,-0.2079940677525127,-0.09490039615508684,0.009899667226254245,0.015869602749311974,-0.041004124211647106,-0.04281844485961609,-0.04461174739929985,0.025199214233570848,-0.07768067635744567,0.14514004061240304,-0.03802482432917031,-0.013764401181195715,0.14385532775632562,0.02416016701294019,0.117717305681081,0.08887582485034792,0.16043332040076858,0.0672256443374598,-0.14322919657106295,-0.058803544168285406,-0.12852968289525718,0.09605555442548551,0.1162733210602129,0.09266283881778993,0.046342442476027354,-0.08270215289509342,-0.04674835133504986,-0.034547279184176806,-0.15927379553435744,-0.1981817786757777,-0.034139240463502286,-0.08719590162327655,0.044717989483332145,-0.022806832719206842,-0.047167153852206135,-0.053366808804215356,-0.09629710556806048,-0.040870576107005396,-0.006943769346558375,0.132871279910875,0.053366833549917406,0.01250664313859198,0.03312669147460804,0.10147068644613107,0.14504287230540197,0.0652854377476822,-0.07645792606205291,-0.16230753065820253,-0.09866713133738399,0.12564228386307696,0.12507149879689475,0.14033335215687945,0.15420157625066588,-0.006906814637059068,-0.09863526362273785,-0.12257039035034974,-0.0022851162144436987,-0.16331567105633749,-0.0519797088271247,-0.0664874113839266,0.007537080644629341,0.058428207530216096,-0.08723775675330994,-0.009305268122233852,-0.13359454874648946,0.009619414581044945,-0.018535525588036953,-0.011401100328447935,-0.08950103179045148,0.06835379452576039,-0.017151418307101558,0.12163260612022767,0.06344432407221721,0.043080231537468545,-0.037128676882419734,0.013717329240456036,0.08628154800748389,0.08155904729414691,0.10774236167942457,0.055775912709291706,-0.001256593620278265,0.07515022315771538,-0.05748141004875518,-0.10091128099152276,-0.1776626239559789,-0.1630543872723456,-0.07719524852608899,-0.04422741302538832,0.016372778920442154,0.08530936870915799,-0.03723531657879682,0.0036236011004810056,-0.07314126488153669,0.013834947664318595,-0.011323258854388571,-0.026600007068689795,-0.01974321245786708,-0.07206263437122613,-0.012256390762645055,0.14423616480806217,0.028897768675580485,-0.06743005203467203,-0.044173012463074715,-0.060201655779120934,-0.029596875966172897,0.05620333016589503,0.012769432585561789,0.07212108311001177,0.03082354517254503,0.015102563635938237,-0.03135184229049219,-0.11604772008297796,-0.12510306514891456,-0.10773986951148688,-0.1393942988000151,-0.028924035955873055,0.031039033973961887,0.018505730996541944,0.053939510189529506,0.03017380044195514,-0.1768829850121169,-0.0875307824852316,-0.00034797039507971836,-0.12553609806891983,-0.04780689801577617,-0.032836123733976166,-0.04778342300740449,-0.0718138056843537,-0.022454657057720533,-0.1094922623206302,0.018274509033630926,0.01291538010755822,0.09241733383417633,0.048344557505467595,0.06140257510493421,0.07028797595406011,0.06974366821954275,-0.04128015337739542,-0.06263268778425864,0.012396477850869949,-0.06659614827507176,0.08959368878604287,-0.006247057136926881,0.07181511110624626,-0.007728117787216552,0.12198477627871888,-0.017520554246782404,-0.013389723864357333,-0.08233244286340893,-0.052581032919070216,-0.21572801347572101,-0.11370920222235129,-0.12353549975980874,-0.061524577426720226,-0.08571483113140976,0.0085939496799898,0.0129204925851438,0.05767633047599351,-0.03748629875992032,0.05113263506228534,0.11386627685600971,0.034576882977216776,0.04630637847092017,0.005886864179646817,0.03699804186980007,0.042127399776390455,0.003904382778274503,-0.11633822425037156,-0.04988726386897363,-0.03764718727988128,-0.044314352758275395,-0.06126574899670059,-0.07250624470149515,0.020932076844512575,-0.06296891315648359,0.08180700909441914,-0.057780972866766055,-0.07569293615829104,-0.17270473666723468,-0.22623379777133162,-0.20629821243266722,-0.13074184075739628,-0.059891901462517445,0.003534385883886461,0.02281063847021257,0.07155484994856659,0.14430103167929895,0.05009910025632523,0.1147407158716976,0.08844644005728834,-0.02352301899044728,-0.09005985771645836,-0.04553982573946121,-0.09982682240943667,-0.05350874600099813,-0.03156127470610214,-0.04883391029515094,0.05571283584141878,-0.05016254420355413,0.009322849384270727,0.03047637629256846,-0.0015175744334958664,-0.08008949810783991,0.045483591923634326,0.01589402217854107,-0.054808698507766145,-0.09136224971404712,-0.15770345562221333,-0.08956933137833545,-0.09165483760049731,-0.06644538165191588,-0.016112541906512134,0.019542135650638698,0.030020219933569486,0.15347791980810652,0.1212415182797847,-0.006575188419598371,-0.03874413231011816,0.011255934451943582,0.024439400401265132,0.03279178783608656,-0.019984143484712488,0.04701188651018264,-0.012045703082513586,-0.05925264038990926,0.03869020760763216,-0.027571420009909774,-0.05978200984020277,-0.05578847191648551,-0.04930254940336497,0.034009148710523275,0.03208861354227249,0.018954250937313993,0.06421490085356323,0.007384467202210435,0.07920484243488925,0.04089807799329416,0.0500559793551124,0.13709099029324648,0.1569757644743425,0.10659919916659422,0.1115729043759409,0.04726296989195618,0.06695406635516384,0.09146626322298351,-0.04652776851237126,0.012131249941910885,-0.012699841031891958,0.0746637934861124,0.019093371615705696,0.10790824052495637,0.00018245132587321614,-0.04160840381301701,-0.07573924762037736,-0.05430441391459982,-0.013312190691612678,0.03710192685559738,-0.0327528192219366,0.03129758787656709,0.030071286809039796,0.029148589112117852,0.01549863792687799,0.02638857683722549,-0.07643343659988958,-0.06834016526174583,0.12451895181710479,0.0078000419484306055,0.1377667326292111,0.02371032647642001,0.09580007962029578,0.08146838560096199,-0.016383930808212085,0.029419475556613995,0.09862948963484307,-0.03065451208392753,0.045886339378231285,0.0941699563085589,-0.03767511783940414,0.040069477723637115,-0.014327192693574452,0.0775541276928489,0.03400390046172907,0.06437781094076128,-0.05867752412769503,-0.07010526763688756,-0.01396315671807655,0.08289195387444333,0.023298434938984383,0.03556998865145188,-0.04067757521945435,-0.022005891220020925,-0.015224305924510361,0.07104836126674424,-0.07813483166670988,0.014896910812807838,0.07314416984314435,0.05252232635616792,0.07691201016245777,-0.009581623117996948,-0.06258539361804318,0.06312243580962378,0.047676181445749234,0.0635720277245855,0.03705453054127271,0.027107251719106266,0.042343478622557766,-0.02357871758844433,-0.016458513430735434,-0.044756321921134094,-0.028836010845816034,0.03782403215585796,-0.008144918538427486,-0.03743429518699486,0.011096062396049327,0.002337175262875474,-0.0763462796957626,0.021276592520937113,0.005793828541046943,0.05274501611814594,0.01001090919864199,0.013173103034908668,-0.10024594125009989,-0.024167701021960215,0.007047836011233508,0.07776440219324521,-0.037495020047746415,-0.05802416496876228,0.0339730702926795,-0.06805344484696378,-0.00896031068771467,-0.034927888614992623,0.09448452562784332,-0.013657212350042887,-0.020025044289208715,0.039826396587546345,0.05111478320877085,0.08265766527411691,0.016723396282253535,-0.050862223287991386,-0.04107507924436872],[0.01590328941914773,0.03589450169203861,0.054161517837723425,-0.0033008678356532344,-0.06544491478751206,0.058175797778519146,-0.018076109575970115,-0.03771606385055229,-0.033308474060645264,0.02076988102777422,0.009956623417609485,-0.019850290421043085,0.02163138087156424,0.10539712839212798,0.08131720659067496,-0.0480746060470996,0.06683948039490717,0.06333644891077089,0.056422855493526644,-0.0028607733117137265,-0.022855832556146066,-0.035346025804662236,0.04937492751834706,-0.02832151178996511,-0.11251779421642973,-0.04077837898821066,-0.024343123917311665,0.009223394222171161,0.00020828762829887287,-0.061445840714628844,-0.026756105053891595,0.08228280845157616,-0.08852893589406036,0.10892855063344133,0.07502109056086981,0.048305917607860495,0.044235027868617736,-0.01773522090808001,-0.04132833711764076,0.08386441154737811,0.006371804777480614,0.0019211254120512734,0.04450188576804028,0.034899217957730475,-0.045547318977441686,-0.00024034588696151288,0.05228553457503977,0.024678287873779788,0.031651213714717776,-0.009528196465209759,-0.0985461390630369,-0.02949451075311186,-0.021510634155760735,0.03209515730600986,0.03236839880336693,-0.018183684192974215,0.012351606680624586,-0.0022773993877951257,-0.045787217788675214,-0.007370117347481297,-0.038149618132469275,-0.0015434618806485243,-0.012416808410301041,0.04453602293266641,-0.04803542310509865,0.007016382369562234,-0.06043949049729972,-0.09054028532212594,-0.06471482676507904,0.01640059296949292,-0.12150141586400155,-0.0707629278613213,0.003031405429456067,0.03905266759353876,0.02498277077563814,0.02224167172098878,-0.05344337818834092,-0.054128354463840844,-0.00022793095206954402,0.04345646502431052,-0.031021663799032304,0.06878082702651278,-0.016588549795798845,0.00836031127307273,0.021360810890097153,0.0012622741446443684,-0.06975516721246566,-0.09148031597823518,0.06433973794135633,0.012394253903021825,-0.018426805919112027,-0.045413046197102624,-0.0010788876612295053,-0.04939882193678144,-0.06179018491314218,-0.04164660446796142,-0.03045529011157324,-0.023791234699620255,0.0498686232467863,-0.007145834095181202,-0.056715131431028604,-0.05968586809234084,0.024616185837613016,0.07274833408504469,0.06619355611331977,0.12457612393342368,0.08566597080579476,-0.010542369679353594,-0.07275455519589798,0.01891975803155861,0.024149487239113716,-0.009480642310778319,-0.05044211441386341,-0.10536785219726817,-0.1275737833387345,-0.08451022122982323,0.07176370834108224,0.008369956289422465,0.012197734279481147,-0.08437579784417062,-0.020355595524483926,-0.11178435489563981,-0.06081621827663464,-0.07138318063549842,-0.0703732850059692,0.029535278046225126,0.0315003487199463,0.051671804761504465,0.05120286101661928,0.10452642980761125,0.08373429735510733,0.022702754238621316,-0.012946000628587731,-0.0392798112368773,0.09178443119072036,0.07675858062703982,0.10515562006179988,-0.07118550932309999,-0.049294583544867245,0.0001234387477426859,-0.06308071974553324,-0.030230626932391303,0.001598207005628543,-0.020616922014838078,0.05340589104020405,0.04558608822167185,-0.049984241054880876,-0.09154527679035972,0.013074558528558563,-0.07883622112897637,-0.010196338046462996,-0.08799824740607577,0.05015211312320787,-0.010084755158288073,0.08710856145932254,0.02955956200240507,0.10217780969523366,0.08692604177634887,0.03615352513198525,0.017726936094460733,0.03027815855823262,-0.05338195919504965,0.08989981402069747,0.06165016511991973,0.10860386260826448,-0.04730832730862335,0.03596257789945558,-0.01468340188021441,0.03200260904157747,-0.0019829258709343424,0.038668417807363194,-0.029920703783250135,-0.019000001084072782,-0.08330869641580793,-0.09680957844922744,-0.15313606970597132,-0.13232481878807792,-0.1497577319832767,-0.028330639663469798,0.072441503667713,-0.041256477726419834,0.0090533449026452,-0.11341513344053755,-0.005125612405777877,-0.06448011219362175,-0.008852124995364575,0.029521653413636557,0.047555039209568016,0.04731335095624914,-0.00990179876137937,0.030668301777590973,0.08688122723012662,0.06385676661896159,0.04457938802053019,0.09836173219643014,0.012112327168852922,0.002681919534919665,0.007592662634486026,-0.04467886095521028,-0.03394071595993977,-0.055688467132861984,-0.05342202135034699,-0.07783112318034718,-0.06889146777335213,-0.044617250603979544,-0.0838952692890845,-0.0540429454688567,0.03881709560953188,-0.047931659933837995,-0.027580127724931697,0.0007524909500765496,-0.08636752321484158,0.07598983249561934,0.03826734648020686,-0.07791983506851059,0.028511137127802812,0.03961880839455343,0.0456058548032794,-0.083047471088012,0.054284805913931235,0.1179787561220917,0.000059015870237489224,0.019179759822433817,0.09238327514266977,-0.041377016926808535,0.02831028430063791,0.04879913198086555,-0.010314614023748796,-0.006755819887290895,-0.11493775122699756,-0.16692255008497345,-0.12036121391602367,-0.09387044064646435,0.027651698120276583,0.06295245787056718,0.10502774520242017,-0.03727303729490083,0.02143085987326889,-0.069020233199786,-0.03759930388522562,-0.023171462429848407,-0.028134330536856555,-0.035805131550427645,-0.013734336289871274,-0.00023390022778162743,0.026507435812038616,0.017119847507156116,0.09807090015419175,0.16247217367370326,0.14024347812829396,0.029837959243000384,0.005384008472597951,0.016659868565736112,-0.01435781954392309,-0.011149490772677415,-0.06384741751902123,-0.0546965484739243,-0.0014905677158553884,-0.15848081218044838,-0.039591765650091953,0.04071686930211631,0.11838482939886338,0.11222389396706718,0.13870284439890204,-0.008846858247506565,0.020511384143779246,-0.06233492575608102,-0.02047703381455683,-0.04691646145156564,-0.022598385249389966,-0.0011253914492256945,0.024959786580693158,-0.0316097506853343,0.021589001441345963,0.03219128330419643,0.09813819812188687,0.17288930447892062,0.11388486666773495,0.11132865224865487,-0.009892226519261228,-0.10572982753371171,-0.06708719520614748,0.07669427113270907,0.008918638126813058,-0.11046130881266858,-0.1723685068351494,-0.02648541365810443,-0.021907646605972112,-0.05285402996061929,0.021259464716535448,-0.03216419598626828,0.13694034425368773,0.10038511893903838,0.04849839043575343,0.017321157736824327,-0.03617840509661725,0.08410133944151406,-0.03356223870772373,-0.05582629855638967,-0.1072695010236861,0.05741245662585272,-0.0666980283576331,-0.0009221643820706253,-0.051080182174603465,0.0020002739913563667,0.1609156293603358,0.005705269067368315,-0.05981601147903493,-0.027622742284315063,-0.010853269376437573,-0.06973243700958279,-0.056703218187725085,0.0247134645797759,-0.12415706135539341,-0.1661261351889505,-0.003759632779996437,-0.14771217023362032,-0.11028715723573002,0.03909349953707867,0.03723186915766967,0.03330308892079867,0.09245334908578036,0.105584292366522,0.16142433822945135,0.11756339617666003,0.016296860849775014,-0.08572138504933638,-0.06288215079491423,-0.06836420870988051,-0.15548723483595045,-0.09472649806610335,-0.10249819614844244,-0.0066227374139111944,0.08755622790582439,-0.04343519518375102,-0.04163342064897361,-0.03595415057417391,-0.016193353513865562,-0.010746007645768567,-0.04841039380380579,-0.11494248229061349,-0.04029721867224932,-0.13741914141926664,-0.07124817592499628,-0.12658043832767918,-0.0874399721462202,-0.011169033848577854,0.03861382328557295,0.08213472776717612,0.13861400179128192,0.16180966538914893,0.16963061152104383,0.013127077394406921,0.019726484135421843,0.030595232761504585,0.00930912977041104,-0.055179031148813076,-0.0983958541299303,-0.2507495548693519,-0.07594767316699093,-0.09856375474017663,-0.008917592958237257,-0.02469564921889989,-0.05696945068568526,0.04467719112777555,-0.02971730607940297,-0.07502468671546307,0.03226594701106649,0.02550700667201763,-0.12424244344430362,-0.1229050666870676,-0.1302107706795484,-0.060730822129609036,-0.08677758187354113,-0.05076662544982193,0.09406967792386228,0.10495306336607732,0.3012379622734401,0.23005303149452358,0.18369822802003802,0.021811274825193593,-0.05694027850843094,-0.07130927794289894,-0.04555762985346824,-0.030708128408702774,-0.13848363073141512,-0.1929404060966873,-0.14175922829911916,-0.006810200076469968,0.03432303039496707,-0.015918397785134847,-0.05803945038419045,0.10720026385474862,-0.03838216123856764,-0.10074123631901649,-0.03513606747142882,-0.041389836072898915,-0.06831852593212616,-0.1618004296146905,-0.193845108812387,-0.10245544153016375,-0.17404428623574003,-0.024496394393741752,-0.03701622778525922,0.19715064811275754,0.19251001137776738,0.11441435773294403,0.08304322636077535,0.014603791776583032,0.09439147663519337,-0.10627919780045945,-0.02725289702203341,-0.12347073537590339,-0.11207866957148228,-0.1495086313494012,-0.09752127725929235,0.02246035972736087,-0.005643325505442842,-0.16158261412872255,0.0710277882848053,-0.036549350912144035,0.08150808531907888,0.013217142584863808,0.05737711356551378,-0.03218031924212052,-0.23011216679453791,-0.19174769410430567,-0.2970674653779262,-0.31849410316606486,-0.23637864149739346,-0.18306970319421847,0.009143676635074116,0.10488894876803452,0.152454291609012,0.10630628117148613,-0.008718797785522564,0.07443512068998095,-0.15882704957671978,0.03430515524112956,-0.002409854744080001,-0.07735673859529099,-0.09086623319659758,-0.06430507796652618,-0.03600295639228778,-0.02837973765455771,-0.014996664356643595,-0.031503986562773964,-0.03434426468225679,-0.00667300285879745,0.038186173869189925,0.03533736842231302,-0.03175923121436705,-0.0062118968558707854,-0.03897613934887346,-0.03207191124829242,-0.1839337412689588,-0.2806297619302415,-0.3850967283105002,-0.39661767089427274,-0.3406075057974006,-0.08070842789987052,-0.07989562868676148,0.0140568337283795,-0.06198862617778391,-0.08006057477571206,0.018309981629009937,0.037190314397002405,0.03841970703850919,-0.031107173474531426,-0.06270051588269673,-0.06662481280636096,-0.0449112701007079,-0.09087044753437742,0.006155408308238607,-0.04137099311430577,0.036170722438620434,-0.03663937252892444,-0.020864198694801765,0.051701294432078056,-0.011010059587730539,-0.0331379444629871,0.07245103826712967,0.008137525204503275,-0.024104231343872157,-0.10443395066311267,-0.24873860524179026,-0.3243263773678261,-0.3255791551611314,-0.2764369286025101,-0.19303206219790428,-0.023931752330114946,-0.051383011085077236,-0.0054150560782685936,-0.03614450745569045,0.06942406475239322,-0.04521026741892926,0.012585109516861903,-0.1003165361068948,-0.08313728178869824,0.03828680192193128,-0.04242420196224734,-0.03446636168983304,0.09327316250054392,-0.007788981766689483,0.06440893287609975,0.05196501639431661,0.10624214334791175,0.03372619384534013,0.15811146034482246,0.13751234867847334,0.1101891464998845,-0.0018997335111090347,0.04557649713678469,-0.1701398187048185,-0.20016042052273023,-0.22151212359480343,-0.23058696206619433,-0.1421517899436293,-0.08318418618721626,-0.061081493490791915,0.1307022546577036,0.1785972956736221,-0.06298382551639112,0.03849906686176504,0.028026225689252768,-0.04629686614793095,-0.10135244031262892,-0.04184478062214098,-0.045929404129756365,-0.017450767095553755,-0.025459072836966728,-0.04073405538746631,0.013579597828199048,-0.05498085568346981,0.038320949574491225,0.00887035142475385,0.08923183817949214,0.1782522953865886,0.12999251984525917,0.04159007688975663,0.08711695216718182,0.11662577977819594,0.05505758137670851,0.001427860650323302,-0.05999137401619452,0.03407922076730925,-0.004225230522260071,0.1272935541813499,0.12688273059515362,0.09140433533810173,0.12940484369151728,0.011101818132891494,-0.11318027265068527,-0.057626649183735,-0.1139560526135582,-0.12449614814164858,-0.05853370156340809,0.01611581993088808,-0.00854584821710086,-0.0731426170777527,0.08537165015826331,0.11850720369998388,0.021057196600804337,0.1216656487971825,0.006771311362945175,0.08266575421556925,0.11237694471351825,0.12751155107804296,0.04108332942732442,0.04938441078774819,0.04158135775758156,0.07066270999343495,-0.01618863072412015,0.015803936240543957,0.032188214555499195,0.09825983752534093,0.1195762716527872,0.12066359464696706,0.07283695934727262,-0.10164688654882435,-0.06038583377698196,-0.02853299053388454,-0.10585863095156557,0.11341732198923482,-0.06988910652337416,-0.02244068539507478,-0.00020577595475299856,-0.01550097070688305,-0.02700032044803443,0.055484516084247655,-0.026072780870231103,0.06033021186139747,-0.10038735696889349,0.05517382428485399,0.1147360775245947,0.06716946916221014,0.11475316506641234,0.12788880730193172,0.1759805133025032,0.053949560197089956,-0.02895424390153296,0.052477410275673056,0.09062792896832482,0.13438976095177213,0.029544613564825194,-0.004936192178103235,-0.038314639232608916,-0.10614508295251024,-0.08531402390948635,-0.12040419397464201,-0.021216887922916934,-0.08360147790478374,0.03518759862807224,-0.006262151326312748,0.02455709006846295,0.014274489407549803,-0.0038855525075648456,-0.0585774032161288,-0.019035321975044667,0.022013483943356945,0.03224423243398979,0.08085940341201674,-0.04655166842855765,0.07991081255159457,0.011716985742189805,0.02364294514565999,-0.003959870619292585,0.05070443183281495,0.058559635529183765,0.18812882924176164,-0.01354698658956072,0.017047282163018953,0.035330902461384595,0.015602269157518653,-0.01725047746630705,-0.041426732380874964,-0.09799073359472105,-0.14269631757304663,0.014773489824843071,0.0492465581823456,-0.03873696321408006,0.05684115417991871,0.005673549705275559,-0.000777417737325863,-0.00783161012594228,-0.02468994898904854,0.016482078513856645,-0.013163693331255773,-0.08954806009157021,0.036648526293270256,0.04698284796891567,0.0023995558100363226,0.09641541303717474,0.1152382825831685,0.0826039468660899,0.0342219546967376,0.018060654633034405,0.044433827374792643,-0.0024892432839650567,0.07560351083496354,0.108078275597663,-0.011314194792979154,-0.08585910323868823,-0.12427322478889859,-0.16826779023246147,-0.10458774473671242,-0.13768948340535267,-0.06878419120873742,0.009787589608605254,0.0010298477815175635,-0.14503110442223435,0.09494456370383139,-0.047546796729543955,0.17361126016196404,0.07046449452905972,0.007804070526769234,-0.051875605740375384,0.022427344788271818,0.051414276250372655,-0.027374026215237445,0.09995201304526706,0.11972732965679199,0.14756662358055972,0.07959643315958448,0.04972050040116909,0.11485015119266781,-0.05014651387083654,-0.08175943301720631,-0.047931488574090304,-0.015367749720810136,0.025823132254217365,0.011189342272267068,-0.08907523393066172,0.010700739137157292,-0.04130914364445012,-0.029174063013811237,-0.027996285627823213,0.029927316969362457,0.01813859339585759,-0.05580299908024965,0.00574394232007063,-0.03770680934148249,0.02662111099986635,0.027861279975054904,-0.043623579485583895,-0.024903721900093177,0.0023746902194787646,-0.047666796044281284,0.10900550419384497,0.09655786100601328,0.015083203819235582,0.04917373774821177,-0.004102719477660463,0.02190387449652945,-0.03524736801020228,-0.07604078633437883,-0.06785957834351072,-0.10104859258968327,-0.07538153571793083,-0.14177437903748305,-0.06017558520605303,0.07524958848623124,-0.009162956928415929,0.05649204169734048,-0.03389363984473142,-0.058241747275705906,0.053892166579727306,-0.027308724477014074,-0.04407889256160772,-0.024883992089650236,-0.017257365960296603,-0.06409590123215682,0.037569760359563234,-0.01840778965695173,-0.07792612877087532,-0.0014874775486227298,0.014393987494917144,-0.04227142537520826,0.011594379596120507,-0.019155839763621913,-0.10287777225614199,-0.026475722228583725,0.05830240824041387,-0.003376226905320583,-0.04021491583317081,-0.044030768103876836,0.03996910488431402,0.04938514000649522,-0.007976470477268262,-0.0166103278877156,0.0073830457718771555,-0.07334589302049305,-0.01325208147110461,-0.019473356484035403,0.034765609027066595,0.059288675091816706,0.011735893227525582,-0.08735780552609632,0.03862972898528948,0.06776544365521758,0.017829490383833618,0.019329457780590014,-0.07087251147479133,-0.11106356718356261,-0.07945464161671678,-0.07445885572183804,-0.06521245154963334,-0.09474168036649847,0.01615472858520503,0.004486540539244121,-0.00285687751583388,-0.0683571505322741,0.050593741860550066,0.051437273649154076,0.002787510611199192,-0.057867833603702845,0.05091575588379773,0.023626909080838462,-0.12292231234639736,-0.010275671225785071,0.09453302007841213,0.042777848544285395,0.06490260137125867,-0.005688934604680078],[-0.08742942899009683,0.010183004473047135,0.12501148137064902,-0.00783594603554152,-0.019182904414934407,-0.06172304005380916,0.003298774539438835,0.0811690592590018,0.07431705877774382,0.012048513500661868,-0.009644419498643008,0.015259673962733053,0.0708693995473037,0.02782682513385201,0.04134734946946248,0.01589836754304678,-0.024723907907386777,-0.05198099523102529,-0.03302790561407745,0.002803015474059307,0.04321821487270592,-0.03158075136683304,0.02380287661374692,-0.006310377898436744,-0.10498370310335443,-0.027327739002234334,-0.08456538413550073,0.017563292120458946,0.03576617309696773,0.014740222789206215,-0.07905309861985743,0.03195220079179603,-0.008484563503441733,-0.07820302239247724,0.049721830232168716,-0.047312868324944184,-0.04746915980431784,-0.049009247977021976,0.020292063345279058,0.008960061386602623,-0.02615375007376489,0.036055068965042646,0.08212134460470842,0.013985243863790827,-0.010116514817555664,0.006810369972746681,0.02838256085882332,0.0028078132664230942,-0.02405546358057217,0.002078206834587093,-0.02308099667820664,0.04474961049834209,0.031850748292630016,-0.03373558892967603,0.019902000310353517,-0.04135541435064599,-0.019666763959344677,0.021317643473954567,-0.03479820004523433,0.07413621441754617,0.010096532300391698,0.08558554340848026,-0.02704492327837893,0.04110619784883559,0.12491971597950255,0.017943174682000414,-0.0023216966537216942,0.09779373772407451,0.02387709140915086,0.0671043648319104,0.01504835531424266,0.02435839506647552,0.04381197861403766,0.06627625061208407,0.021480750028267343,0.09645088853227074,0.05772141814301963,0.07639655615818443,0.010825292139482606,-0.0193310080344787,-0.03971728633868654,-0.008613338671711403,-0.06217962843616139,-0.01425131786066882,-0.08645879393382687,0.10951445073807206,0.029626785046488826,-0.06239516185721877,-0.06105449521768503,-0.016703314498165093,-0.02893403245055256,-0.053404021266883296,0.10031091975065534,0.12243439708619842,0.0546548170027952,0.07755986535063415,0.008100071486106999,0.12978871048277538,0.0829580148470746,0.05267199794217894,0.063258835438267,0.002023847963987871,0.04184511244105068,0.0064159468994044325,-0.03200382797386183,-0.04420452386683108,0.016108154399170006,-0.0501996617122584,0.06907951081327865,-0.017780374976609534,-0.00240434962417081,-0.05437809860867762,-0.008662887105452474,0.012416376032130059,0.07454978304170468,-0.028793145572612196,-0.015985123512961857,-0.04964860680823966,-0.010303966357865995,-0.04088029568792341,0.03555275823909553,0.06535827533364676,0.017735856948221822,0.06283229982947867,0.11750747291687025,0.05278267352058093,0.0880274900082397,0.12984688358662336,0.040837990722868256,0.11517449195673997,0.1268369863997702,-0.001847575401604445,0.0013218914465061434,0.0069431724270163225,-0.010714755643275588,0.055930005755028066,-0.00650577195923036,0.045757919080139695,0.056952162095571635,-0.0009305976691476494,0.05319293602081227,-0.03131248391404053,0.0038443865982597703,-0.10212809933698296,0.0031959252631993166,-0.07150782047672069,-0.12069061441773696,-0.036969652596178806,0.04218390692359035,0.08492497266805979,0.05468727555267812,-0.08675872494967309,0.13267350854313725,0.16109030682647849,0.0031859551708506555,0.08579170674380955,0.08168596195713075,0.140459460861723,0.22978284445359998,0.10213837680031494,0.045533916957626965,0.03669873582728899,-0.016800170888281823,-0.07116510636036562,-0.013942316340771544,0.059606496991103756,-0.09849651235871434,0.0362140379207749,0.09513494804444803,-0.01436523540780771,0.11940534060737464,-0.026364444038795398,-0.013498981652918107,-0.15944501604472444,-0.21633315980537918,0.021083031024577453,-0.04833407032004069,-0.058863261324185324,0.051486629527143335,0.026396844994172636,-0.015037905883866392,-0.08641854945857518,-0.08312864378077796,-0.09420214096051936,-0.060605321339291536,-0.03633147880730899,-0.011669876253847458,0.026667782848804007,-0.005146579990439476,0.11998949652791589,0.05939920852103361,0.028128551773997857,0.014320471782006315,-0.010830620712643754,-0.04598853287644113,-0.009498740603110092,0.03355686193707827,0.0004253037110303499,0.05633294337372419,-0.019505724952823184,-0.08170853025306547,-0.16281091067427741,-0.07878223879175116,-0.059423577328113555,-0.06054517591138379,-0.11998230982252747,-0.03836102747817932,0.031900738177234406,-0.04302646901230305,-0.0987095231329366,-0.06766575329483634,-0.11558967031825233,-0.04865922329073155,-0.1115322937333025,-0.01859580344586927,-0.11149906657221856,-0.18521818235873413,-0.02112439714227825,-0.03928739392901851,-0.026590815838811073,-0.03133763151656464,-0.03227950313446414,0.03418920836667832,0.017817979760250416,-0.02842381715010184,0.054675471981923664,-0.02065206279325271,0.024851025746696606,-0.08709045361552971,-0.12101488869088232,-0.12586723778041495,-0.06372489586666301,-0.0669011201318331,0.12708777927267273,0.08707349282101433,0.08533828825226403,0.13829735374879548,-0.027458968941515387,0.02434564350778732,-0.04205324201445499,0.05005131693220072,0.025290007907700494,-0.005020693361149381,-0.039135973029575596,-0.09011343122067875,-0.10026541980479789,-0.07095003300591006,0.1373062023997057,0.10382638419353431,-0.06871161936959602,0.008224988617827533,-0.005321385739968734,0.02477772496561893,-0.03556169865941925,-0.030727181332819736,-0.026486691251742165,-0.04757129791904885,-0.1104572451808282,-0.08238354544401114,0.0006072569501338879,-0.062097968567637676,0.006838955280747181,0.11461522842363682,0.0351797174304336,0.041694399140954096,0.13804983571454188,-0.07388745122988029,-0.12110844000679821,0.034768532061777255,0.014019458723121055,-0.06385260784914111,-0.09821071958240318,-0.06760218907134716,-0.12134215689320996,-0.07104264978879186,0.08739572659370749,0.056649254234769464,-0.01590553835044946,0.08021512732558954,0.01384345545677483,-0.008231062000611765,0.08431748217962969,-0.033973742751216486,0.01088796241517147,-0.031576309385476,-0.01887761670321535,-0.027978755372373394,-0.013666405105239421,0.061248665539773726,0.13267352609666008,0.027207973239838975,0.17322644378568708,-0.016396352738623984,0.02329133494711941,0.020728363193969798,-0.14394084965859832,-0.14153746372112502,0.04242290659893822,-0.004655813966689532,-0.007058332899952753,-0.06260687832840518,-0.08007937412811464,0.019224530083316434,0.08596993699237514,0.1121109990113199,-0.09629722851202178,-0.01759742825942334,0.06919512761375662,-0.0171018891296173,-0.04622178636322702,-0.0488155356487083,0.039153029674323964,0.05002207649498135,-0.02654200264879809,-0.03239389383528494,-0.04586907007590825,0.04341941899193746,-0.012538873613348942,0.02206221596004983,-0.03109649793420089,0.11874934550023179,0.0007133559788481404,0.03390405824253707,-0.16324012896521925,-0.14473349997277338,-0.19123776819660004,-0.09865048830309069,-0.08180391660699705,-0.10169369470540494,-0.003243292474176664,0.07985700623897013,0.11314753020495046,0.1341812013835447,-0.05923839297574408,0.03926622207613176,-0.034621975180925656,0.010962370247029198,0.01340533646263957,-0.05937352826692083,-0.02299899658404059,-0.08035563268612142,-0.10557960375955651,0.04438589776266071,0.05829047992248494,-0.03434713348370058,-0.028131452333860812,0.014941570215355643,-0.02359279086473321,0.07840662138805284,0.07764865401426856,-0.036061885544196766,-0.12782288970267555,-0.13252348117627974,-0.1093461395444841,-0.10002140807800544,-0.017713985877363347,0.06643796311784175,0.14341935589935623,0.1196346064774215,0.19417322452708724,0.19826351662284705,0.10459927819085539,0.08144945580938609,-0.032455306056288546,0.02551206957294878,0.058729061364737406,0.055751349662743026,0.04579559319816055,-0.1503983026401668,-0.07037429098020011,-0.012726108484582594,0.027796203301942657,0.019678633336343388,0.07510978618920451,0.006924862371086387,0.1199980293094291,0.2038884678841744,0.1712382512262955,-0.08189418478214325,-0.12823925944219866,-0.16517769557578912,-0.18001340754719844,-0.12013446667277805,-0.051034997157965764,0.005174957671816987,0.10281319381925438,0.12984207632090888,0.22431220154113496,0.18939176957692494,0.05529287897930665,0.020228840846118566,-0.006682274859418122,0.03385340568990715,0.03825386389860799,-0.08362172950748994,-0.07877909246123453,-0.1370979571004011,-0.03547145012115108,-0.004997702455151709,-0.019496293892593074,0.028472712832272467,0.11265164077893847,0.16386995746642022,0.1922377053937945,0.20735127726205707,0.11384213128045789,-0.08128099803299776,-0.12058763482524631,-0.1851646913328094,-0.17200608995214176,-0.10748619771865545,-0.12516020348359622,-0.03384882976493414,-0.10041425495412466,0.04606806617440224,0.06781622130228003,0.1368329139885163,0.13244518418463735,0.12168354173818653,0.014737935232711634,-0.06449788452653755,0.07881116201089408,-0.06172714420909777,-0.004724366796012092,-0.041177498127374104,0.042241389613071965,0.047818853915809964,0.0032509760002846257,0.10916513152978662,0.21233717561822582,0.15853591344751708,0.21105152104545719,0.13536473440450547,0.05687096137450994,-0.053047401035320414,-0.08785649758043378,-0.054919346754020125,-0.05839171893789352,-0.08009550736457346,-0.10734649399041783,-0.046258703660119846,-0.08426301262204558,-0.052703029601527465,0.09240398709880891,0.11338129321985409,0.12528818093741362,0.07633096322165707,0.018738710245731087,0.026758134537710802,-0.08169296009929025,0.037012413813471715,-0.04216521798694383,-0.08366372961594382,0.036371275252230405,0.07770308898841423,0.015963972145574715,0.08972961592804278,0.17673656013487357,0.18381629106680933,0.19178216702515788,0.22865638194247792,-0.010347941138372995,-0.04827316136295715,0.03370777919716699,-0.019575850951847978,-0.06372010805923466,-0.1008881630825964,-0.027389710935414528,-0.08048521907474018,0.014786195072006647,0.012997854835715186,0.15338673300201938,0.14495004494266364,-0.03353406057704757,0.007750260651339933,-0.00365984848419839,-0.006105520736752044,0.026784677840171307,-0.0067495499605223245,-0.052099680039541976,0.012660123563747743,0.10610780666872613,0.00859187173796419,-0.09381704208967956,0.08785883798672332,0.2743386499399633,0.3541364160897528,0.21952459438930352,0.13568982979528235,-0.003595945801335011,-0.03298854486577638,-0.02154831032892832,0.0021058202772543284,-0.05228924337186641,-0.14217914402571158,-0.03643373983504345,-0.001071454323478559,-0.053556582461712014,0.1464529291365583,0.05389639676157688,0.03779499250176307,0.11175646820693727,0.024081740972916044,0.03192701377317334,0.08625273304801744,0.06052481290301234,0.0308508242601502,-0.10402308994395632,-0.005608326484113277,-0.024551142504794565,0.07533537404469076,0.1545288210524112,0.11899238167577329,0.1417397826442667,0.22868337248676127,0.1498280958324255,0.11067964510172282,-0.08800321344589589,-0.06120297490140304,-0.07148055374425605,-0.04121426367280828,-0.03757366064439392,-0.06328224641023884,-0.1468721972977259,-0.02415912271871214,0.0017226198814870226,-0.03783489542886882,0.061678843007334304,0.12499185335509101,0.07095229615115581,-0.013878575266978749,-0.030552415905021352,-0.09614174644847728,0.006914294569892848,0.06206437437152656,0.0011398290778609997,0.009667357550172692,-0.01756861681224355,0.008246749825628197,0.30167794329308545,0.20098587000074739,0.2600573629742608,0.2700588392616651,0.22745673334077418,0.2431006726672186,-0.048113341132000866,-0.02957949314547844,0.07139813925556798,-0.03502909047547255,0.03777697114314714,-0.0017906038706623,-0.07854156026778132,0.03601520224049268,0.22022820891155775,0.07730548711494295,0.045113515357956845,0.04813191122403369,0.10646090331938932,0.05207764273558017,0.01585260890556576,0.03292102757959236,-0.03458984076896862,0.01291752036405348,0.0031891598003916354,0.007046821040763772,0.11226651846529793,0.010688001184914033,0.2123746375090094,0.16881074511552982,0.18568169648884578,0.3159616877492885,0.20207288903559512,0.24291974230605873,0.06965411110620533,-0.04813846978025036,0.08730901972845417,-0.007430832144874163,0.06016792523850657,0.027723631090107156,-0.00109466081340194,0.03312730075104625,0.09866030596197352,0.10456891253070524,0.054992173049951715,0.016506837801594725,0.04347787855954867,-0.04536296863457188,-0.0015170429850196834,0.020284206041694047,0.01647131106539575,0.04782466323319568,0.012807359536763603,0.08476463929463611,0.05335951202075781,0.09175983059210573,0.14136234163256436,0.09879373290935091,0.12887545234764133,0.1376577019100266,0.18573362831408383,0.06881144174969797,0.16204188745524067,0.10515844032963664,0.05878089846259469,0.03076320075580971,-0.011609512422902184,0.11803555236204935,0.03673668659661539,0.041261126402862655,-0.02000807180929443,0.015169677774796452,0.1371433588362084,0.05481178193533793,0.03848012064808142,-0.016012338088405843,-0.07619507512612042,0.09548693702995782,-0.10510684797508621,-0.06182982212915114,-0.08637882724416374,-0.07504616408351393,-0.05757871857595746,0.0565486912973622,0.12318586250443862,0.042126121330456213,0.1569268534513374,0.16517280128942033,0.06723046712235502,0.1586816470439987,0.12770742533511795,0.06894336946737546,0.04757252878943625,-0.04618566144565356,-0.041290007992769294,0.021172506152921218,0.00029721614953661974,-0.04934527242075661,0.07535454131617765,0.008281446537661564,-0.007933711959494065,0.04184950696389234,0.033606400079203604,0.030219966889506553,0.0022919286316240178,0.08798713788770257,0.016698851630472165,0.04718445272580554,-0.03683861700552878,0.024337053756806944,-0.06593683046428235,-0.02541950802088185,-0.10593579746801866,0.03189343091514682,0.08359134464206197,0.13430005027837855,0.06355441911517598,0.1311790265809283,0.00938856770249311,0.05993416633508866,0.06693468950752221,0.03388591253401137,-0.0067707354413380485,-0.02267692501934733,0.03743128146619175,-0.05725423734805549,-0.026088621183358016,0.006352950754779785,0.07746987561890809,-0.011777266718231753,0.020742864717373407,-0.05343846844781772,0.10814138791467293,0.030084202051065167,0.06486530566922154,0.08276729488680544,-0.06042820966183953,-0.04162653679674478,-0.07814334828709583,-0.17781779629021557,-0.14743651900199958,-0.12269114270762022,-0.08539065763202379,-0.10262907219654736,-0.003443078972741541,0.06661995625918839,0.08192545812677929,-0.01761512417838496,0.021917801806055914,0.043506024116077346,-0.10528938957535743,-0.042124352537017774,-0.02494170262586717,-0.138103460999091,0.04769510976201145,-0.02202122547874762,0.03381104229254465,0.0027208852420923394,0.038222028771591074,0.04310952775372701,0.04859521677174608,-0.07454021908319558,0.002756547286744995,0.02562867296053792,-0.04414422586230864,-0.04665912190968613,-0.04357582425758118,-0.08981792193266115,-0.12992452838746252,-0.14623801248288298,-0.1771536880768388,-0.12509839792454616,-0.07867961873947725,-0.14025269457638576,-0.06535298247239084,-0.07824580457381551,-0.09955223752451275,-0.00924104133447547,-0.04012883955501588,-0.06740887760663401,-0.11570132710911014,-0.039429366928273785,-0.08040201838834093,0.047749505552534884,0.027886357876137857,-0.10144431724273026,-0.04341986878640936,0.016533762098808254,0.021265008375139827,0.06525897471760052,-0.057553274953886416,-0.01533282267308733,0.03690729753286472,-0.04056045487390935,-0.09842072460799639,-0.0459499995649833,-0.04718002826726284,-0.07698186805280449,-0.12666298111960456,0.0001376864797154568,-0.013797260609777397,0.033046983989585825,-0.1198112905141461,-0.14122592830617078,-0.055393414816723587,-0.0924765489272728,-0.0030019392213630897,-0.006768334984424546,-0.03010628715040782,-0.06654329125398588,-0.02722274536913791,-0.0032236245265396877,0.011568772132612811,-0.024085257964583714,0.03606149322281649,0.051026841847042675,-0.010288351954916237,-0.05706875486364001,-0.02265243463250247,0.03185651757160835,-0.007742436128173436,-0.04719669677590201,0.0650132782897379,-0.008450255850425765,0.04868601587998818,-0.036670301190242484,-0.041861613528028016,0.00024147865352090487,-0.04348029907394946,0.06010085736398448,-0.015440491115441726,-0.04108512890123049,0.030778180868710262,-0.023843472517367483,-0.03820250033910832,-0.06483933059336583,0.02139359669295197,-0.016315236366332708,0.037074647815239045,-0.04301637681668241,0.041934448475569194,0.07146126790951973,-0.08972521703988899,0.01832454895681484,0.04061586110409468],[0.04625209711318063,-0.03927389830534028,-0.013636915214840796,0.026565787335316626,0.07065563755423718,0.026601806537838932,0.04556010207839607,0.00041154775563416706,-0.05378185013512216,-0.04481818121220489,0.032023027285176975,0.07820028068007821,-0.03271233296347203,-0.003109197280751723,0.02051228515495544,0.014987030828308339,-0.03476205440189977,-0.011848590941120321,-0.023384434973501827,0.02001119054374354,0.044664917921428626,-0.03274780176555401,0.03329405697035707,-0.003692305589787366,0.045297529282841316,0.07243761158949623,-0.01908300459482849,0.09140281766098822,0.050822589906887934,0.019547602418412902,-0.019101120935253922,0.029742102060337092,0.037905087746319975,-0.001656298380269101,0.014870215728122279,-0.06105857760735069,0.019240807820124113,-0.09132039735542226,0.027389569695641335,-0.02886630339237648,0.033630882669278946,0.027734218289872232,0.038442735602620834,0.0028438743991217957,0.019625421494639188,-0.07435550109796887,-0.07562803184395273,0.07017219074444568,-0.033145008860453844,0.0029351180822602347,