{
  "numLayers": 3,
  "sizes": [784, 30, 10],
  "biases": [
    {
      "rows": 30,
      "cols": 1,
      "data": [
        [-0.5821857391422227],
        [2.0978861693126705],
        [0.7150684231731155],
        [1.4067609554351688],
        [0.7940916655944902],
        [0.030204508166067637],
        [-0.19826318640113996],
        [0.7123298113287204],
        [3.567204518531244],
        [-3.0018888921980547],
        [-2.964848481995145],
        [0.15152902506187535],
        [-2.518565018346834],
        [-0.8031473025423396],
        [0.9214530815950451],
        [-0.09413310081340746],
        [-2.35472211087737],
        [-1.4589569793354906],
        [0.4670363351370958],
        [-0.09800606035072723],
        [0.7574844394483625],
        [1.215891362880862],
        [0.26900753773301617],
        [0.5741061280232203],
        [-2.440101383192483],
        [-0.13890838328001523],
        [-1.0405395369070358],
        [-2.132331563459693],
        [-1.536644665241232],
        [-0.049590464733134595]
      ]
    },
    {
      "rows": 10,
      "cols": 1,
      "data": [
        [0.6390276390828564],
        [-1.366665278747548],
        [-3.921352679329979],
        [-3.2622415411912806],
        [-4.207417230606355],
        [-0.36917748608328577],
        [-1.9885674398672777],
        [-2.64767723881664],
        [-2.2466736939027827],
        [-3.0537141877517726]
      ]
    }
  ],
  "weights": [
    {
      "rows": 30,
      "cols": 784,
      "data": [
        [
          -0.7536106810152788,
          -0.7058484131814161,
          0.9365944278931403,
          2.1549919854617774,
          -0.5553921647846811,
          -0.437086201779529,
          0.3930191600874382,
          0.47009294075112296,
          1.838108460390424,
          -0.47613500387499846,
          -0.21433687048446862,
          1.4164499638347128,
          1.642587910982764,
          0.37063565573519497,
          -1.0004515114901473,
          0.0669780375909686,
          0.5201804400727218,
          0.37264457044531035,
          0.28254208542690806,
          0.2977304078039255,
          -2.145984865094106,
          -0.3261843675016596,
          -0.5453654357609213,
          0.642173768585028,
          2.1364270718997678,
          0.64070438390559,
          0.8809930638665259,
          -0.43756633468245393,
          -0.7103313505195409,
          1.808970614942242,
          1.020064141336603,
          0.47666627038187664,
          -1.0971166383547057,
          0.38513190027388683,
          -1.438846934181375,
          0.4394413193055127,
          -0.9535652079754705,
          -0.06682001930599758,
          0.24343258245956742,
          0.9846242558065967,
          0.14000250683253637,
          -0.2822964338498837,
          0.025548623204596544,
          2.2653534923065686,
          0.26635355697987206,
          1.9643514145772065,
          0.19940390093785848,
          -0.3505736351397825,
          0.47055386797813664,
          -0.021870105728318538,
          -0.20732660930640817,
          1.2137796590777945,
          -0.3218465600837286,
          -0.5366449623799618,
          -0.3499402261324678,
          -0.025194536925457665,
          -1.3137394659009711,
          0.548988316253063,
          -0.11969668478320289,
          -0.8213784962316928,
          -0.30793302922461135,
          0.5095180497609664,
          1.2885183528899742,
          0.4628770377892563,
          -0.5547870779530268,
          -0.6423484435724217,
          2.5134662862253805,
          0.5053332536456832,
          -0.20818933817798788,
          1.4325782502299584,
          0.8910444017494293,
          0.1039790736485466,
          -0.5645045150106871,
          1.1851418155076863,
          1.6282365177115616,
          0.6845173059359804,
          0.09191648691203355,
          -2.524397487303911,
          -3.1193039366983815,
          1.9321036352153564,
          0.8594772296803984,
          0.2433747293573654,
          -0.34692261237926636,
          -1.1010599092970015,
          0.5345864496687883,
          -0.22424391523953366,
          -0.5642814848992113,
          -0.40693259317252684,
          1.3524652982784018,
          1.1023412348600952,
          -1.4076683459067487,
          -1.3494148420120027,
          -0.2693438459918915,
          1.5546254502128811,
          -0.3481038770046098,
          0.1270932934806899,
          0.9362897508839901,
          -0.5450307738687398,
          1.3761870104669476,
          0.36570659284843343,
          -1.0372814156742212,
          -1.0386941483562153,
          1.5940605792069704,
          0.9471696009969555,
          -0.7833053169075893,
          1.711113619490998,
          -0.031197855352962347,
          0.07420546142036469,
          -1.1391354364065476,
          1.0693444991063805,
          0.4153692413907316,
          0.7974685317751515,
          0.8455648678161832,
          0.29520244521494143,
          -1.1828968329828404,
          1.3809193867964626,
          0.333006722759377,
          -0.6265419751393745,
          -0.3721622642741841,
          -1.2451864266029113,
          -0.4082569376699328,
          0.9773498602091227,
          1.59834312941466,
          -0.8163449616932096,
          -0.13442229507984482,
          0.49845651847873196,
          -1.1452773307897117,
          0.9395425240046672,
          -1.8716411434529154,
          -1.1157157138265892,
          -1.5247432087917012,
          -1.299106997548002,
          0.5138098468461078,
          1.759330978300022,
          -0.02484326991333637,
          1.056038259161395,
          -1.473580955520087,
          -0.5252456686450027,
          -0.7132398681627484,
          2.1465141207783116,
          -0.5442217112686522,
          -0.1447252880591548,
          1.184386314406686,
          0.6907952834678964,
          -0.07023613020528698,
          2.6791024293561416,
          0.1488830149660908,
          0.08643620974470376,
          -0.5767707836935306,
          -0.16483639887478885,
          0.17561277464502523,
          1.2084961053573942,
          1.5383262289744775,
          -0.33331160225742607,
          0.7860838997790709,
          -0.4650301444501272,
          0.7271469413610747,
          0.8293186752390342,
          -0.13829732371348333,
          -0.246319314132312,
          -0.7823208681741469,
          -0.5497986535158976,
          1.2935581879893672,
          0.2766725495813208,
          1.443445030096108,
          -0.31256565594907176,
          0.22510348857605075,
          -0.2937473638075003,
          0.06980703347106301,
          0.7128388677967126,
          -0.0422764981277716,
          -1.342744374131655,
          0.3761515251832694,
          -1.1535378047779619,
          0.8374193171011433,
          -2.8461898107726205,
          -0.7995787693081278,
          0.38954004546597965,
          -0.697021074468307,
          -0.7932816841761678,
          -0.006252488979244652,
          1.3523057520008424,
          -0.7876423879431378,
          -1.2776008974622237,
          -1.8984706220653946,
          0.03637782861541173,
          -1.117422081667743,
          -1.2811456275857576,
          -1.78082273256785,
          -0.2115913854119799,
          0.7682271711414136,
          -0.5980492684496329,
          0.14878045456838113,
          0.39341654988630537,
          0.242684994123749,
          -1.0225079688691214,
          0.8633428306486479,
          1.1347947177924649,
          0.38176173307746547,
          0.11405484451876412,
          -1.3125521740987567,
          -1.2637667289716,
          0.19361292969069413,
          1.1289266129958222,
          0.2707897776098294,
          0.3684768851599315,
          0.6119298147127391,
          0.029197333382166082,
          -0.24176677351567044,
          1.4799934483328785,
          -1.3499973546978736,
          0.40254266889964235,
          -0.12791831119147776,
          0.2891209408226915,
          0.3098937202455102,
          0.09946288176663658,
          0.3172955688977919,
          1.4053676561035164,
          0.15332545445076856,
          0.39856260176887326,
          0.8290418607783954,
          0.7848067731855394,
          -0.7474571151020758,
          1.3387737004128202,
          -1.0196190452306453,
          -0.5530313475612376,
          0.09831854322645903,
          -1.1501978011247405,
          1.170763369906309,
          0.8370038929718328,
          0.38359485493521384,
          -1.3228770454291225,
          0.8916148451748068,
          -0.885301236978089,
          -0.41007868046250023,
          1.242134077830531,
          0.0996740382082218,
          1.1810274189923164,
          0.5788402913446484,
          -1.2818527775527087,
          1.3190901176348941,
          0.5113456856688542,
          -1.8014398642879401,
          -0.4994636686710902,
          0.5742446544659194,
          1.4214019189014646,
          -0.8832175063777915,
          0.28253286356947427,
          -0.442176021885538,
          -0.7020321902577085,
          0.008905826718591877,
          -1.31816290433504,
          -0.4548284795752762,
          -0.687438346621882,
          -0.522484560522151,
          0.032375908502463,
          1.0623939418042023,
          -1.2341101516279385,
          1.3984364154674787,
          1.017693186748638,
          -0.48161800651419856,
          0.19239798579245407,
          0.3204571543122297,
          -0.6431983584770693,
          -0.44656438951227534,
          -1.4050910358235318,
          -1.3363503916433668,
          0.7120357482102992,
          -0.8175763717797372,
          -0.3444800209158354,
          0.2469493389727289,
          -0.6976964941563325,
          2.1463979565871085,
          -0.548622693601223,
          -2.013546656206884,
          1.404862296135582,
          0.21235144490810937,
          0.8264649080914341,
          1.0976916505939207,
          0.5100579908566543,
          -0.8583931435001426,
          0.5375669987213639,
          -0.2552031857119473,
          0.6915002100105875,
          -0.6722914731917452,
          0.028341677051595144,
          0.80879595932272,
          0.5077038059921165,
          -0.029118605274375393,
          0.8881098267522232,
          1.6991202746624272,
          0.8888442781431823,
          -1.230222438848384,
          -0.19614800407609118,
          -0.6671247851575401,
          0.10337572563196092,
          1.1264848567950578,
          -0.22233119885019959,
          0.9786793705039488,
          -1.028267782508143,
          0.544153690789913,
          -1.4766470324099497,
          -0.40286826373674006,
          0.19523133626095415,
          0.9923982536944396,
          -0.5691259260894662,
          -1.0215872264289272,
          -0.08943853103574802,
          0.9110990223369013,
          0.7983998984185944,
          -0.24862408518729956,
          0.08922324165335806,
          -0.11873894057255255,
          0.13773072781205062,
          -0.9741633489133736,
          1.435858883017755,
          0.20191929033448303,
          0.057465401711065775,
          -0.07366909204473678,
          -0.5640548746285508,
          0.9860745096497584,
          -1.2188456504220022,
          -1.9294349660448065,
          -3.179465894615726,
          -0.9779486221650538,
          -0.4913853387064638,
          -1.011828405039912,
          0.5435476590771325,
          1.1450029351458495,
          0.8161031610829532,
          -0.7227069540333323,
          -0.23162619031152862,
          -1.9935356403786504,
          0.030928770232982305,
          -0.9110887245766955,
          -0.4638171807049035,
          -0.22183434122386506,
          0.15299201954893546,
          0.07062124245745481,
          1.333230066392752,
          -0.4231837046535599,
          -1.4250359540187623,
          -0.2817582456417838,
          -0.5360958690742206,
          -0.009874201583329342,
          1.3479712770272385,
          -1.0340828231095647,
          -1.9233900306497522,
          1.005893725875357,
          -0.19408893475791156,
          -0.4226949592212318,
          0.5824594698300697,
          -0.6937208202926477,
          1.4242789359265247,
          1.3637454100052289,
          -0.5211533379599972,
          0.8152853337697438,
          -1.4781439346910588,
          -0.9627654115760595,
          0.02146890763683454,
          -1.469795838930031,
          -0.1813687910963819,
          1.5493401840960501,
          1.4463905534480135,
          -0.6037434911127354,
          0.2380682889024451,
          0.8880766511938735,
          -0.688005093940597,
          -1.7395203414968028,
          -0.2712102687698026,
          -2.2441510421647792,
          -0.30163587511435486,
          -0.9864438470002519,
          -1.005496203330184,
          -1.569089424766234,
          0.0512257649653811,
          -0.5138137419393405,
          0.37684622940038603,
          -0.29049894686415323,
          -1.2811518800794564,
          -0.6932284425540852,
          -0.8841670663884565,
          0.6248149201658827,
          0.49510315295625273,
          0.8318122503430196,
          -0.6865557135509913,
          -0.034523993351863264,
          1.1684061547189197,
          -0.20645450314498917,
          -0.6520282950462413,
          -0.48880850580631136,
          -0.47951834263236226,
          0.4650691588675788,
          0.3795311148193113,
          0.003361002974941142,
          0.5142547498152554,
          -1.243103377150408,
          0.28694585710710957,
          0.22111348821949775,
          -1.265293968831643,
          0.10902013690738782,
          -1.7064697242035078,
          2.391557544312095,
          -0.548525647786916,
          -0.2531100367698772,
          -0.25096480659311055,
          -2.603366754619857,
          -0.8786690645140336,
          -0.5023483626782511,
          -1.4249506207001101,
          -1.362044100042159,
          -0.07744222365720757,
          -0.9301237383510577,
          0.08163856545498885,
          -0.6175637511935608,
          0.626599477797586,
          -1.3430743966932088,
          0.2271727293612693,
          -1.2373169858901192,
          -0.07796493220102665,
          -1.9650445183893486,
          0.48839448446186523,
          1.9422232583965342,
          1.2413978792303486,
          1.2895791234210339,
          -0.6850685268702595,
          -0.7720714985976098,
          -0.9959284453962117,
          -1.3280238813073404,
          1.1761345246883923,
          -0.4329408380261169,
          0.3489839204467781,
          -1.1349493129452175,
          -0.550985911520609,
          -0.39183137668313095,
          0.29762685724854365,
          -1.6593375926426472,
          1.7987516708327576,
          0.4859009802789443,
          -1.1924980805611565,
          -1.6648279888148232,
          0.8761396749362366,
          -0.30125249721314795,
          0.19644101343704426,
          2.3058856711534785,
          -0.3709415281446774,
          -0.18647334340936658,
          -0.399504508180995,
          0.9720658596502918,
          -0.04601576244804078,
          -0.51016358067455,
          0.4491470215745221,
          -0.9745004511834311,
          -1.189221080654339,
          -1.4352149597671517,
          -0.6337791083844037,
          0.027753348075894496,
          -0.2832820775770578,
          0.8130511323935852,
          0.2231364528307825,
          -0.21098209257695524,
          -0.7241175499037454,
          -0.9031321615155516,
          -0.17245472230692263,
          -0.782452833918302,
          -0.49316980685720246,
          -1.2705196429688073,
          0.9329064492964566,
          0.34279177475668793,
          -0.4204493760098343,
          -0.6640486728597955,
          0.18668934616149846,
          -1.4345041809803154,
          -0.5526976890243335,
          1.0235710945502638,
          0.27762905112263153,
          0.7364345357145253,
          0.46439125862771413,
          2.443366047640634,
          -1.2538042877769693,
          0.5669157876366643,
          0.23210403936810192,
          -0.015015848109225002,
          2.313003131196594,
          -0.19556885708609167,
          -0.6157679750310351,
          -0.8180522714447412,
          0.8727793398297892,
          -1.0009067933550548,
          -0.6607403396825791,
          -0.9138535466080356,
          -0.5865075986652529,
          -0.6187779092411947,
          -0.4237512493131956,
          0.3889129361594259,
          1.3265068108701374,
          0.311616942655061,
          -0.40975905671453616,
          0.18064884142471344,
          -1.288592058042937,
          0.8034059044903459,
          -1.8870264687650207,
          -0.33684207446258735,
          -0.446054055259251,
          0.5422128207546834,
          -0.06080699591069216,
          -0.12240462377637543,
          0.5059632535393781,
          0.35242883212648807,
          -0.39662763141716895,
          0.13586362526933013,
          -1.5614473080400102,
          0.11133712099942988,
          0.23495580133194577,
          0.0790540303063007,
          1.936145059252597,
          -1.5615234067619796,
          0.5701945119761448,
          -0.2727147775521057,
          0.3930779951580287,
          0.8076570780400846,
          -0.6340892877366808,
          -0.8869322736315716,
          -1.3308917141966583,
          -1.1373182632357624,
          -0.4930214709037967,
          1.2800448376037143,
          -1.870801683806991,
          -0.4897320512163747,
          1.1801117822428766,
          -0.7773003839162644,
          0.890024683378951,
          -0.005501328463692812,
          -1.1879028545318857,
          0.12081570563826262,
          1.3477108048824031,
          -0.3495812361142476,
          -0.13444576750607734,
          -1.4538740651332263,
          -0.9263922721702111,
          -1.5166195947756016,
          0.21237138282384324,
          -1.6938943929052523,
          -1.0351467115890896,
          0.21818208961478652,
          -0.8104405785446229,
          0.12957067991827304,
          0.16657674124058283,
          -1.506952785847042,
          -0.6691957041256223,
          0.9102109376716315,
          -0.3089548411518709,
          0.010743018949421286,
          1.5538429298233285,
          0.9849044788433318,
          0.9681586213671736,
          0.37418625583378456,
          1.5948049860701698,
          0.9623606960507374,
          -0.28743484383143797,
          -0.4301374175160105,
          0.4414768236412928,
          -1.0675884606417894,
          -0.18096890150686412,
          -0.41796662688118896,
          -0.4766482651251722,
          -0.7384635150392214,
          -1.897467447674698,
          0.5339966341049157,
          1.2822358008276165,
          -0.2743414880311777,
          0.61902699774029,
          -0.3716943986346644,
          0.21321748643122063,
          0.3431802503550685,
          -0.5031968214865644,
          0.6409547021649905,
          1.1162868134912312,
          -1.1398919330158657,
          1.021399462890878,
          0.7651672681861104,
          -0.6099947629889061,
          0.3646992734887558,
          1.4606851589842327,
          -1.0009767320307161,
          -1.4084891337572751,
          -2.0360407696566933,
          -0.31557891428053625,
          0.745858808052432,
          -0.03468693111149644,
          -0.5751141827922512,
          0.3001048852665676,
          0.025475095196964836,
          0.5258932101140337,
          0.4470935960770772,
          1.0831087167008047,
          -0.503196493876827,
          0.1956378685737874,
          0.8331058190802654,
          0.47130453658909993,
          -0.04664833696374766,
          1.0299156613359446,
          0.33743016244863777,
          1.124135729350654,
          0.12754791438050883,
          -0.3625689030824412,
          -0.1589138644431156,
          1.1526995260292032,
          -0.4505634342754814,
          1.0966125430751128,
          -0.9549922487715959,
          -0.33875424725078895,
          -0.03346330223736278,
          -1.5036620839157748,
          0.5932643315035458,
          0.9292402041298168,
          0.8714548475350478,
          -0.41021144155642225,
          0.8047227202427616,
          0.6189315189699585,
          1.1721898165665385,
          -1.1754613164171759,
          -0.5328953854261402,
          1.7081224268511157,
          0.24900255835081983,
          -2.0839133227182183,
          0.7884577098617519,
          -0.611004875984089,
          -0.5472090856762684,
          0.8080340415938024,
          -0.8478579524404232,
          0.8934824015774054,
          -0.06819105056239617,
          -0.19789080853030028,
          -1.0611357929175222,
          -1.0390246282625428,
          -0.2612511327346682,
          0.9523471748756852,
          -0.06390615224607987,
          2.008230081638389,
          -0.35114581713085435,
          -0.2097756150754949,
          0.7138302223854205,
          0.5634467735036421,
          0.1662566738961996,
          -0.17474499896620863,
          1.9809458845439616,
          -0.3016393127446406,
          -0.6997121925598818,
          1.3962020231926884,
          -0.5271299889972597,
          -0.6983985730910661,
          0.3835374373070815,
          -1.2825977811222369,
          -0.9541762691449016,
          -0.1722855156940149,
          0.20590754441279618,
          1.5452542848271278,
          1.1735742634993698,
          -0.0821524993582539,
          -1.060024993188284,
          -0.7805438757427658,
          -0.6878070534011083,
          0.5040909336850933,
          -0.2990777348882327,
          -0.18441275856613984,
          -1.2450779193073491,
          -0.4719705247325086,
          0.017045810754613054,
          0.29169045706335806,
          0.5980207303341506,
          -1.2138238522117049,
          -1.2731215056168421,
          0.3842529113286695,
          2.6744948449314716,
          -0.20750599568676173,
          -1.2080729203258793,
          -0.41480051248172156,
          0.6771487568587988,
          -0.5808981082506086,
          1.419513394653077,
          -0.9434157675992284,
          -2.369921006331477,
          -0.36284251005641815,
          0.21039532842699482,
          0.48081863111398787,
          0.28829905345889156,
          0.4267463856250019,
          0.8904003872097033,
          0.8052980682566098,
          -1.2889856631320984,
          -1.1463831984043535,
          -0.04509136723317105,
          0.34193668586096193,
          1.341229654746798,
          -0.9706416745202333,
          0.6723170834378498,
          -1.148271400975828,
          2.607064399325831,
          0.5436409452905181,
          -0.5342720738764771,
          -0.27471365193623803,
          0.033841214258974954,
          1.4854133298873278,
          -0.6603910636145454,
          -1.5921315597003103,
          -0.31863182225818015,
          -0.7658408391641673,
          -1.321469353122596,
          -0.5445546449685766,
          -0.3570768977053924,
          -0.862961363830741,
          0.39401721365933434,
          0.4277984954818371,
          -1.091343368903005,
          1.828908396664716,
          1.6723641229491586,
          0.5698886477591466,
          0.6148282229916331,
          -1.1633757873752608,
          1.357470762050056,
          -1.2219108504547211,
          -0.866935122837834,
          -1.21880435653981,
          -1.0605704936499392,
          -1.0029646712296112,
          0.9060085309956454,
          -0.530812660636737,
          -1.1444252936538164,
          1.9176055480480187,
          -0.015476847003014474,
          -0.008027248697210844,
          0.5308019639233799,
          1.6856700452564615,
          -1.592354761187019,
          -0.20547407781491772,
          1.6854174924862415,
          -1.9386118332992712,
          -0.12301818966157009,
          1.6599135430954122,
          0.6855233898636577,
          0.9601622837844127,
          -0.01373499778028692,
          1.0826948535458019,
          -0.1510125585889485,
          -0.1916768759054148,
          1.9303326312773967,
          0.43374787284286953,
          -1.6625290923833,
          0.6186685558098837,
          -0.7163747539579535,
          0.9460289901297378,
          -0.7787221620792627,
          -0.7473948748797417,
          -0.834442207419709,
          0.0011331074080251993,
          1.2650923165304606,
          2.0419142842247227,
          1.8676389597677006,
          1.0122985029417875,
          0.5376549279451588,
          0.42305232133078946,
          -0.07543790084228016,
          0.3779788876259198,
          -0.4112904310221611,
          -1.745771952125539,
          0.39991556872139306,
          1.5866545263031342,
          0.285557593766724,
          -0.9611700256951746,
          2.032633135633018,
          2.146830453005858,
          0.027503206986441348,
          1.632904221135906,
          1.3539305150902936,
          1.6131970451257425,
          -1.9738382792313884,
          -1.2139413627392035,
          -1.7987503639109867,
          1.761280064932902,
          0.06355191956283002,
          -1.2081164445581674,
          1.6337485938399559,
          -1.1213014359295483
        ],
        [
          -0.33989845627843446,
          -0.8234623996160467,
          -1.2009429958302582,
          1.1334153481858422,
          -1.492777673085155,
          0.1695329411286706,
          0.9868093572666599,
          -2.2175268301692497,
          -1.522906610457108,
          -0.4617314454955891,
          -0.829914209332817,
          -2.161896809467462,
          0.5367170301083217,
          1.0655059030354304,
          0.9303997039238247,
          -0.021518232029257348,
          -0.470476704606021,
          1.14904070904682,
          -1.1498655368911688,
          -0.4843119186194488,
          -0.2950849024326625,
          0.23171573043807522,
          -1.397807162806631,
          0.14966102115413696,
          -0.4683402959221902,
          -2.853495700258274,
          -0.19527519094441154,
          0.9044004845246167,
          0.4700068458258505,
          -0.4017975165732226,
          0.01715444383045102,
          0.792300675841449,
          -0.7652388429450225,
          -1.2079726245363738,
          -1.3516736296675822,
          -0.7401619725996242,
          -0.33549483675976965,
          -0.1476336692798556,
          1.6077162973294357,
          -1.6607727678131354,
          0.1521417216697741,
          -0.11827809516059244,
          0.5624396519642305,
          1.9878627603915076,
          -0.12260798588308816,
          0.09075964283049695,
          -0.41092678220778106,
          1.5275832921781287,
          1.0863014440957552,
          0.6500110450584543,
          0.2557006020354957,
          0.047618586826388976,
          -0.724292131535109,
          -1.0909373519812973,
          0.7089256613612497,
          -0.8853825409056526,
          -0.3680157684629655,
          0.11089419861689453,
          -0.8912935192626922,
          -0.1543367384542833,
          -0.3480050883047849,
          0.5273879486625055,
          -0.11285990993674865,
          1.962582042868718,
          -0.09080855940091621,
          0.4328004761476888,
          0.9991288223908393,
          -0.4451231678792375,
          1.0605931183649056,
          0.004456187348190353,
          0.47065493594345714,
          1.5282415120553698,
          -0.7323823425612799,
          -0.4009594712059843,
          -3.0056282471494367,
          0.03773439208385802,
          -0.3211418745758626,
          2.5045166219156747,
          3.220179931273521,
          -0.2912992068216702,
          -0.37890688677850404,
          2.4868121551166325,
          0.6895083414406135,
          -1.7140311073123944,
          -0.18092085536046718,
          -0.24596797159129707,
          0.005444462052829077,
          -1.3458076532337362,
          -1.5171418980468228,
          -0.5285811916146939,
          -0.2474102846127278,
          -0.025452537886694503,
          -0.35559503656921726,
          -0.2819238365764727,
          0.34341311945932756,
          0.7122062089368147,
          0.0340273502820804,
          1.1920086943455959,
          -0.6901174851137202,
          -1.5494020604222472,
          0.07088595517738285,
          1.2904896806274568,
          -1.22494606961839,
          -0.31703234514171486,
          0.9499288430677291,
          -1.2599982994616208,
          0.17774447103829777,
          0.7649376678469958,
          -1.3186240570940917,
          -1.5225520727074426,
          -0.24837498403962696,
          -0.09570256349887855,
          -1.4795351743466505,
          0.7771451027698177,
          -1.4592030181460667,
          -0.25717219346744147,
          -0.6514339706285321,
          -0.01632104691003864,
          0.006113565296913023,
          0.6212208157653196,
          0.21003260223169734,
          -0.5022013411079759,
          -1.6364870133270981,
          0.11921745178397579,
          -0.2733360822488313,
          -1.1113125472588183,
          -0.7877204485292422,
          -0.6668463111483156,
          -0.5983688971205049,
          -0.43700680314940904,
          -0.6196804122622739,
          -0.45483200406592544,
          2.39330449032571,
          -1.6978999204509133,
          -0.1861286665037222,
          0.7401756813637899,
          -2.9388109217264637,
          -1.1326993193941597,
          -0.5152833216190755,
          -0.6938614927623442,
          1.2943083684392254,
          -0.10498371878606262,
          0.6290716014741503,
          1.5403360354529916,
          -0.8411247193054969,
          -0.4358492198483289,
          -0.36198747850260915,
          0.7356126877356306,
          0.46955024365967146,
          -0.591354784215385,
          1.5878724615725313,
          -0.6318571707350589,
          0.64004029339533,
          0.7101110616618019,
          0.44956176712329654,
          1.109037791120303,
          0.46048462476614294,
          0.1956520688849842,
          -0.21447207681536798,
          -1.6842990331317529,
          -0.9510960388879187,
          0.4774679024170887,
          -0.8136879313015907,
          -0.35693161391943873,
          0.08341076662120943,
          -0.9233677007167387,
          0.5221653747138575,
          -0.5979884563330958,
          0.20973294696677203,
          -2.525713852497675,
          0.7145171034545341,
          0.4907219314472193,
          -0.23282804764565992,
          -1.310793409357795,
          -0.1419684048325123,
          2.320182300559289,
          2.082280196106523,
          1.1365677453429193,
          0.6359323203392391,
          0.2674607930877407,
          0.568960895978308,
          -1.8103313705555293,
          -0.4772534571110413,
          -0.10918603464634716,
          1.3001898140468768,
          0.6330662854664902,
          1.141667677726661,
          -0.15789371894377285,
          0.3400313380674621,
          -0.5768375792567811,
          -1.4999757965720124,
          -0.9802768911820028,
          -1.4340538544707275,
          -0.6528183681876447,
          -0.7543317033471136,
          0.3669164154042565,
          2.1140122214484096,
          0.6971962343526028,
          -0.787872722060593,
          0.37131716820540744,
          1.7948096174219303,
          0.2727421857580125,
          -1.2244662615488455,
          -1.0010409871540773,
          0.5552129309284096,
          1.691111884623835,
          -1.004423825396925,
          1.8416235096439342,
          -0.48326857050828104,
          1.550364308699767,
          -0.2715302528036868,
          -1.1873957308187826,
          0.9190155489070638,
          -1.1163179951157758,
          1.4347831391887718,
          1.1191598351736731,
          -2.293453851750796,
          -0.039959392070577686,
          1.5416383151320507,
          -0.9572195133188551,
          -0.41234166943852874,
          -0.8610208477414153,
          -0.2701961831820885,
          -0.31526225606710157,
          -0.8448021091022581,
          -0.1661648095875737,
          0.4058325633269421,
          0.7557098783004591,
          1.596615298669049,
          -0.03960534055401032,
          0.4305960706107019,
          -1.1225980124337336,
          -0.7356755291731354,
          0.004414913749710869,
          -1.2297786218677027,
          -1.4011060101797663,
          0.661256330847788,
          2.5028550976524726,
          -0.2589627598813414,
          0.7172337530433136,
          0.14219209203034974,
          0.19903046819681133,
          -0.8578569100458976,
          0.17154944736641314,
          0.13637548063899102,
          1.0849661307878975,
          -0.4740798667814398,
          0.19656067743787684,
          -1.1504451345639628,
          -1.5103476240929166,
          -0.2507504774451712,
          1.9886543774560206,
          -0.737149099043983,
          -3.1146784817375957,
          -1.7150889811924146,
          -2.2894769129956347,
          -1.7823984897512393,
          -0.44137896909635727,
          1.1557046339620987,
          -0.8387304666446238,
          -0.972053067547632,
          -0.17184503761168798,
          -1.3266043772446119,
          1.1872508399786657,
          0.8289832293137263,
          -0.06861769614087249,
          -0.12956536050060852,
          0.671987967691384,
          1.5439236488069843,
          0.4679620403071178,
          2.502563355624431,
          0.37959597704709996,
          1.7140268587425989,
          -0.5344209168494322,
          -1.2866927675765472,
          0.5242473970796268,
          -0.77374293849582,
          -0.670243893133751,
          -0.06734879951508214,
          -0.7316753828892679,
          0.7615876903008896,
          1.7461256896845587,
          1.466649040737102,
          0.6978128641478509,
          0.70159990449726,
          -0.5234008879308589,
          2.0822814384455373,
          -0.30733834559757195,
          0.5378689074079355,
          -1.4644053187851194,
          1.2618353909946414,
          -0.1259471088385441,
          -0.31820178427897,
          -0.8410110398197732,
          0.6797969914919122,
          1.0378239458961247,
          0.15727131407914777,
          0.6840429393968559,
          1.0726025150668106,
          0.3524572266367248,
          -2.1137296811033823,
          -0.3822958482796226,
          -0.2897431341550066,
          0.04519279171891343,
          -1.292550973765468,
          -1.2209373808940172,
          -0.25082547452788206,
          0.047495794860935296,
          0.45129962984855293,
          -0.7283722719173104,
          -0.438149968387248,
          0.37596503963428163,
          0.4158097588985871,
          0.12985221680619607,
          0.4998678569516741,
          -0.01380418056142735,
          -0.45024289593740846,
          2.351980345709724,
          0.33875942248127344,
          0.8937995323344046,
          -0.8477606486149455,
          0.6800834820525473,
          -0.0815473108527393,
          0.359210023804614,
          -0.3370420264983289,
          -0.43889873529322787,
          0.3436855559874512,
          0.563267572204124,
          1.6056431650997502,
          0.33156306687966175,
          -1.4928653686056998,
          -0.4046310711475308,
          1.557690775512938,
          0.8944621554965859,
          -1.174451020556579,
          -0.6295702418497754,
          -1.0821622644636129,
          -0.6922138600107417,
          -1.9890710170075037,
          -0.6600461467029523,
          -0.6092777205853193,
          -0.3263937038706565,
          -0.0969165015789022,
          0.32278790806549434,
          -1.2790303321451562,
          -0.4385347816329038,
          1.0314144896361863,
          3.2667030979638816,
          0.6168988756452848,
          -0.1960771509782095,
          -0.29125845948374096,
          -0.31948079347323843,
          -1.2181799048437305,
          0.9032433728294929,
          0.9109076107708669,
          0.36395333077789516,
          -0.8333445616378097,
          -0.1731787611629482,
          -0.34739963274449237,
          0.28639877004593567,
          0.7006944202683798,
          0.49634143362408506,
          -0.12624894159411837,
          0.6628899905575402,
          0.9203651735947093,
          -0.46105972542681006,
          0.37120197245449404,
          0.48286542746141475,
          -0.00530913035982986,
          0.5227448945850705,
          1.2234122041128015,
          -0.06478277384611716,
          1.4894459538072413,
          0.6791076745434008,
          0.3048139811921354,
          1.5889727482730265,
          -0.6032576695516061,
          1.014348232897121,
          -0.8037355466336638,
          0.18616117353400186,
          0.8647556578236851,
          0.4935672944549351,
          0.20807954309231874,
          -0.317372497241489,
          1.9036530059921253,
          0.03236858412493129,
          -0.21795760208586373,
          -0.5738201105649064,
          -0.783129776408639,
          -1.7278432866469031,
          -0.9266137935475679,
          0.5300021092299415,
          -0.41601558441046055,
          -0.347429317018073,
          1.1592582668579234,
          -0.031147559298990192,
          0.1927171690394476,
          -0.2225495291142958,
          -0.5595334554551947,
          1.6517983920382717,
          -0.5298317156433874,
          1.3244537811408332,
          -0.7003177481676989,
          -1.4561650422851091,
          -0.6523017940713679,
          -0.10058485611273082,
          1.1500352497213082,
          -1.5008847189324985,
          0.9685828061560422,
          -0.4721597578339048,
          2.616334149059688,
          0.3445854856588621,
          -0.21767062169214987,
          1.6482610602942154,
          0.9457461873004276,
          1.0604938111449675,
          -0.7458873286674353,
          -0.603186318321645,
          -0.23984953078227744,
          -0.27966896502851674,
          1.0359220645964862,
          0.3784271919389129,
          -0.4712483259136269,
          0.4325565998603952,
          0.8795830174339121,
          -0.27447097451508506,
          0.6546279964217948,
          -0.10989080661776546,
          0.1728571469938696,
          0.26651945148968026,
          -0.8652805107496876,
          -0.04315144057210979,
          0.3957260835867342,
          0.9192898046468799,
          1.032537756091113,
          1.00436227994033,
          -0.6019968740990433,
          -1.0898144533884269,
          -0.12318054245646891,
          -0.7686831927772652,
          0.19228151948202538,
          0.12934441442544428,
          -1.2691892637268503,
          1.546905204742966,
          2.0621636679273405,
          0.16327441816602314,
          -2.439700811339551,
          1.3304137233837001,
          -0.6523616481577587,
          -0.7358720800631227,
          0.24125430436129436,
          0.907659894229618,
          0.9068109204255671,
          0.6063485144353364,
          0.39386952010856197,
          -0.8065979107647675,
          1.3218548225066538,
          0.42251408954400205,
          2.2783292097807575,
          1.026675302759269,
          0.7839714742763213,
          -0.6842681975687493,
          -2.212422713150774,
          -0.09654311915151625,
          0.649087048772844,
          2.3305777009540396,
          1.473766742514311,
          -0.30687145123796306,
          0.4105010888042762,
          0.7055291078572313,
          0.43682321687142794,
          0.40355621967375305,
          0.0810603598363843,
          -0.9324155797511753,
          1.2592228240740522,
          0.4414232469730372,
          -0.2891677520546816,
          -0.5087470119078069,
          -0.8272302806619087,
          -0.3375478830482913,
          1.6166326642697817,
          0.3830037450301859,
          -0.510709153874385,
          -0.0924889770123884,
          1.751369981807594,
          0.7418775500229564,
          -0.023421138121383307,
          0.030793581978670975,
          -1.8538833898213243,
          -0.886651816607447,
          1.4392196335833751,
          -0.3072350577254711,
          -1.0110481644404818,
          0.1721810581499238,
          -0.01605519191628206,
          -0.5782923766965943,
          -0.8658484319246604,
          0.9342998648418273,
          -0.6895738714469125,
          0.0242301519321635,
          -0.33123799129787107,
          -1.717534874654962,
          -0.7017232458577713,
          -0.6536856103354339,
          0.11839317314654918,
          1.374340218772041,
          0.1765202591062982,
          -1.0796987983825597,
          -0.10412739144345624,
          -0.6890665220820712,
          -0.8558590930537845,
          -0.12582717910972752,
          -0.19266451096131318,
          0.4743059079738306,
          1.59853686081784,
          0.5735980418702273,
          1.706191873455855,
          2.1839734817584153,
          -0.8493295654042492,
          0.655651679681739,
          0.04747176836819176,
          0.05211408058949908,
          1.3973558115683342,
          0.6882434370082491,
          -0.48276728684108633,
          -2.0282400976008628,
          0.36913830065892866,
          0.8306098609240933,
          0.31817127345023954,
          -0.8353538045717155,
          -0.4770234164513029,
          -0.09025482934692375,
          -1.3843285912257994,
          2.1568793719372383,
          0.6682779067013124,
          -0.8039873254808086,
          -1.868370070069697,
          0.19277612851673687,
          0.767976753023603,
          -0.27822897804803737,
          -1.2805564635685178,
          0.060641335095821605,
          -0.24300254787467834,
          0.01088045016585421,
          -1.101392562702185,
          0.007702794357750119,
          -0.43526489146209196,
          -0.46698841554816406,
          -0.9423244411251823,
          0.6768919533761397,
          1.1380598282341323,
          0.5768097129428766,
          0.10110650481864517,
          -1.0134023526236648,
          -1.2540342825412014,
          1.5526786651468634,
          2.3948534660260496,
          0.8035681179142296,
          -0.0029888031823158555,
          -0.44709738726625214,
          -0.41255708151954734,
          -0.6134629580941606,
          -0.3417017746865542,
          -0.02844389435018126,
          0.428440691424251,
          0.4773018982962495,
          -1.4084827819138432,
          1.4022380884596624,
          1.649957297397476,
          1.8079881652627425,
          0.3937203899495785,
          0.39485933895484066,
          0.9800932761558941,
          0.3882299888235991,
          -0.5809594073472727,
          0.5588383570116006,
          2.3908565503924883,
          -0.281243433710826,
          1.0353159268243095,
          -0.42175718298080994,
          -0.45393530602980775,
          0.9156980720931648,
          0.11816616188276097,
          0.7571674232338723,
          0.6827331031741387,
          -0.5233414195340519,
          1.394276886013063,
          -0.18510929317774702,
          1.021424563422498,
          1.19798456077585,
          0.9619634441442555,
          0.37494913056857737,
          -0.1824621629508083,
          -1.078041564926767,
          2.2142189437070376,
          0.19770550449514496,
          2.1553852035001344,
          0.836751205981298,
          0.7532751755841202,
          0.42636757832036526,
          0.14957641214789666,
          0.06297265999678053,
          0.1914557311927119,
          0.5719419779666969,
          -0.06079272923373762,
          1.618319835191492,
          1.0341168939680565,
          -0.4656214964486992,
          -0.18474995188499252,
          -0.7450187810163807,
          -1.2388462144267098,
          0.2706554762608155,
          1.1548483142775519,
          0.16376303228798547,
          -0.6549211830138114,
          -0.6841012001292138,
          0.6936718239718738,
          -2.985015861565048,
          1.1218463785543429,
          0.573602099376271,
          -0.34764052535759904,
          -0.15010168593582024,
          0.5441270764700772,
          -2.119701700850952,
          0.11124845637093436,
          -0.6302315604773774,
          0.47220230746180597,
          -1.117453146966944,
          0.7627122505510067,
          -0.5422852926986268,
          0.7531668311762583,
          1.3683099330003519,
          1.3283462994839328,
          0.49692373407658086,
          -0.19534082979511813,
          2.1743633975613164,
          -1.5612406485424961,
          -1.3263910513507366,
          -1.538195187978006,
          0.7556107759393288,
          -0.9713839613530729,
          -0.80347176584958,
          0.03361666189955,
          -0.9784705855505307,
          -0.30421593862205815,
          -1.27587491739579,
          -1.2441928812920484,
          -2.517249825232694,
          -0.7119491884884882,
          0.4491345409326015,
          -1.0298483361846127,
          0.25987849561797993,
          -0.8521450929514872,
          -0.9331175918840419,
          1.4206898956762157,
          -0.37283299335888453,
          -0.17536832202283104,
          0.6450341122705987,
          0.878110010793374,
          0.7380920015619689,
          -1.0673461239285127,
          -0.0927123204751724,
          1.6233971202324378,
          -0.4209980812670702,
          0.6882480899034327,
          -0.5354339175963936,
          0.08237215190778889,
          0.9857937878656869,
          -2.0443882959225688,
          -0.2374035370960526,
          1.749725926999629,
          -1.3582523641676267,
          -0.4813999160746764,
          -1.776571083968422,
          1.1478187920855134,
          -1.8777635762904354,
          -0.14707937258021272,
          -0.8452181370573036,
          0.4149997689691367,
          0.009701820297041272,
          -0.842576274988061,
          1.3943772502330536,
          1.2079706963845407,
          -0.7859028623236746,
          0.7941790834994318,
          0.8245295368624165,
          -1.1076652223004742,
          -1.9804018983312737,
          0.32279757624934896,
          0.6340038942798717,
          0.22054427669509222,
          -0.6035289205286424,
          -0.7885883005955839,
          1.2195199836005215,
          -1.3700335597008788,
          0.6200415081449445,
          -1.0190219286281241,
          0.55483510340787,
          -0.04128223824580944,
          1.687210142386215,
          -0.2747435392788731,
          -1.8915512960625265,
          -0.19932393657544226,
          1.896142956136175,
          -0.08104183571616824,
          0.5519864435237264,
          -0.06369651884612414,
          0.7744140554706135,
          1.982805695027386,
          -0.9481486271582329,
          0.40974110565956373,
          0.3790434097831342,
          1.5336728183867696,
          0.06893215875762801,
          0.6228615783276562,
          0.7515956399028375,
          1.4249630824675348,
          0.6078468145774729,
          0.5888651798375949,
          -0.6509835335644907,
          1.0909075813765108,
          0.06657872117610514,
          -0.7983111831010864,
          -1.193117103056543,
          -1.848279671526348,
          -0.1047853526333675,
          -0.2823285670741934,
          1.5827869574073339,
          -0.3685458723542021,
          -0.2364313863082332,
          2.1420919885610927,
          0.9246182376089808,
          -0.38272243849801274,
          -1.337906038232461,
          0.6393622467040757,
          1.2660711343238948,
          -1.5004092968554963,
          0.25476515084252277,
          2.3160836846736252,
          0.12945036224837556,
          0.32874892117044574,
          -2.06153113492626,
          -0.025288085071757067,
          -0.49826415693872106,
          -0.2056033773589979,
          -0.42729637094534495,
          0.11138220463285099,
          0.6754287834380204,
          0.015060657250883265,
          -0.25339411263598216,
          0.11623860962095271,
          0.3539957386383183,
          1.4341049067496663,
          -1.5918836992252914,
          0.9682270500211017,
          0.5620997993067239,
          -0.362386408631548,
          -0.29417018043986287,
          0.551240077165927,
          -1.6075893714288234,
          -0.39331226339522835,
          -1.5393702624365222,
          -0.1461000871706559,
          -0.550970219735599,
          0.3439140299832881,
          -0.6639406595434534,
          0.16519967800644716,
          0.3214709709280162,
          0.7226064625086219,
          1.4918012877011804,
          1.5932607305186037,
          -0.647395293201657,
          1.5223588686300211,
          1.1016658821516858,
          0.2980972729924181,
          -0.9785398695613828,
          1.6174143530311007,
          -0.3296744426157731,
          -1.0021574601443157,
          -0.1162967000730046,
          0.4034791864339406,
          0.11755649107245499,
          0.22278327219966815,
          -0.9342252125424376
        ],
        [
          -1.195788240004239,
          1.3179973631123363,
          0.7008159617220082,
          0.4101603904806892,
          0.10956526604500144,
          -1.6120147996078984,
          1.444395282525094,
          1.8824408283401315,
          -1.063397947206832,
          -0.3752077376909626,
          -0.8819829351096855,
          0.0408891826165678,
          2.4534423775823373,
          1.6556558010700273,
          -1.0280445648139298,
          -1.0351150656505823,
          -2.031125132520003,
          1.8962690666027913,
          -0.39514951694442885,
          1.1016656798045692,
          0.20407756925497098,
          0.954924347421122,
          0.16176301467811888,
          1.1478136014302167,
          -1.6372599638251502,
          -0.024444946374304152,
          -1.1745312366105929,
          -1.0639528143377806,
          1.6262040200689876,
          0.7738324025286752,
          -0.3693860928115771,
          0.6925159659992309,
          -0.8763501940104731,
          -0.4883355443358306,
          0.06531457514226974,
          -0.8793732609503092,
          -0.2881307941144329,
          0.19961699504540942,
          -1.2389568087136393,
          -1.0020698751156383,
          -1.729306754279926,
          -0.01786378524464588,
          -0.5815987496391771,
          0.07441324300669336,
          0.8335356583127803,
          -0.06323983898471026,
          -1.9388956075584098,
          -0.39423506925872914,
          2.507187407773309,
          -0.30315496553233573,
          1.7828409293912078,
          1.5402713902699403,
          -0.33071281106874056,
          -0.24115026692608518,
          0.2819751910835821,
          0.9163703486767485,
          0.6516706738550176,
          -0.8033391436816084,
          -0.3144864840092876,
          -0.11803442419040878,
          -1.2750079473414881,
          -1.086230654714226,
          1.3268161917232266,
          -0.697321006822091,
          -0.364218536305359,
          -0.6456799376397611,
          -0.9320857863316325,
          -0.4705772035372331,
          0.8503206575339122,
          1.6286715365871958,
          0.41945180651381103,
          -0.582971640505214,
          -0.6928781527307957,
          0.940404178410942,
          -0.9872148105818487,
          0.5045261546384637,
          0.13284145355537672,
          -0.6271315613546766,
          0.6244709398803194,
          -1.363258919077148,
          -1.723008424346241,
          0.3460158647095081,
          -0.035422357500157285,
          -0.3710386807898523,
          1.6002495459034651,
          -0.32747414663879804,
          -0.6481909190486912,
          0.19700781982197174,
          -0.6311882661036163,
          -1.3434794975345008,
          1.0242497276130798,
          0.6700400301048846,
          0.32991886578232943,
          0.8820758492382166,
          -1.7930667369629227,
          0.39331354234769766,
          -0.321097479399046,
          0.17373197782135125,
          1.047549858304873,
          0.9228781905406975,
          2.197236349943354,
          -0.7798001750576566,
          -0.34749009566464145,
          0.32604106649314823,
          -1.1676349456023614,
          1.9015678332451686,
          0.5973997740831233,
          -0.37530470732149973,
          0.23185835114204487,
          -0.4839929171648725,
          2.8725417340860635,
          0.4357066580603,
          0.24342073419267185,
          -0.7526950367770917,
          0.13337822307048072,
          -0.21145141142154028,
          -0.5111371934606811,
          1.583033471292595,
          0.6184661652181939,
          -0.9716756740270708,
          -1.3423242056893308,
          0.6433132004995034,
          -0.24039511640834643,
          -0.78169243937311,
          -3.267579040964638,
          -1.9848956640984878,
          -0.6322382134187714,
          -1.067507853282417,
          0.5261488021406927,
          0.4077174220091365,
          -0.8997695209570659,
          -0.2159592749581373,
          0.009870201906602129,
          1.4642560710983958,
          -2.3364172878669973,
          0.9068806913556806,
          -2.0045270874926344,
          0.32841416064245904,
          0.29421184046640997,
          -1.516449205638892,
          -0.15725772757747683,
          -0.043754882459242236,
          1.4854471617173133,
          -0.6763253243275926,
          -0.7714766566600413,
          -0.613436092955567,
          -1.8465377505572071,
          0.25560571383578123,
          0.9427008147827647,
          1.5621450813396158,
          -2.3198108837204763,
          -2.0896692092529237,
          0.0862242790237035,
          -1.6686882718264358,
          0.5648459436946681,
          -0.4965960983396952,
          -0.9393909504868716,
          -1.3630501823991332,
          -1.3469770173220492,
          -1.3791563326463485,
          0.4659934184697221,
          -1.1381604025338414,
          0.4979558640462875,
          0.5345343022358723,
          0.1662282238586159,
          0.12817114910350952,
          -0.4038621276987406,
          1.3707475594428928,
          0.011967578372710829,
          -2.075217283443254,
          0.5853215413147761,
          -0.4337368171835879,
          -1.6255460200332401,
          -0.43634066517684034,
          -0.47441294960102764,
          -0.8796359510337082,
          -0.8139077487176943,
          -2.1405098956973623,
          0.1674824539832717,
          0.6253666994193097,
          0.42595229944396945,
          -2.325599587443821,
          -0.17088718856385265,
          -1.5406567177529087,
          -0.3314349988128365,
          -0.6406215495301381,
          -0.7456034281858015,
          -0.25879970934151175,
          -0.6268446481789133,
          0.5785399703102344,
          0.5272679374742415,
          0.564063438082277,
          0.37953681972808134,
          1.4963904851759209,
          0.7234872585872981,
          1.416756335961487,
          -1.305208123197012,
          0.00013111485263670776,
          1.3264320933333011,
          -0.42412956999932183,
          -1.0522490427179871,
          -0.021023527907907673,
          0.3051494078075654,
          1.7685076725309534,
          1.721042771379405,
          0.9993244583534698,
          -0.3190487090193197,
          0.515798085809236,
          1.8918208040467004,
          -0.8826110931649229,
          1.0233342795279559,
          -2.4091723437356514,
          0.37843105157082463,
          -0.3049594139405812,
          1.4271316731559582,
          -0.20024083317256083,
          -0.15650680765600833,
          1.453031051584832,
          0.43566966224071535,
          -0.566166480161354,
          -0.4401553093315799,
          0.674372948934045,
          -0.08607244476873999,
          -0.9674518562104287,
          0.35245758078103484,
          -1.2152158342894233,
          1.6037070132578266,
          -0.3814946970215854,
          0.11096760981322207,
          2.5295373690864396,
          2.132896579191153,
          1.0309187068696974,
          1.875400008476228,
          1.6240382081870155,
          -0.528001848027863,
          0.9839975485716582,
          -0.15060572649836804,
          -1.5935609582840782,
          0.7783550922310609,
          0.35100524636539304,
          -1.0987739947180957,
          1.0904476405936638,
          -0.3701603562160494,
          0.1706730341355438,
          0.5656080170039919,
          -0.3628737974077004,
          1.9877460843114425,
          0.4586407848927619,
          2.0488407884490316,
          -0.12870552042390213,
          -0.013168929062157091,
          0.5117385371103755,
          -0.9747159126834869,
          -0.502068394435025,
          -0.7715628145845217,
          -0.1777951083782087,
          0.4038162205896954,
          1.648682825036029,
          0.8386996256955799,
          0.007191160012566885,
          2.4333802248637744,
          2.634001690000573,
          1.3619719750440518,
          1.2134601064940034,
          1.4156107742820299,
          -0.7515621290905734,
          2.1564337448501556,
          0.16704037469041413,
          0.01827628270439176,
          1.1047297248519734,
          1.224512689964501,
          0.004535599529800858,
          0.36572666371385715,
          1.1978146064989834,
          0.5907342844721916,
          -1.0191851719700307,
          0.8064085357483106,
          1.1471713063293687,
          -0.9574144807944317,
          1.1293814252421086,
          -1.7455479657888582,
          1.2423754734818844,
          -1.2609998109554226,
          -0.09011401378410566,
          0.2526730255575064,
          1.2743022500306485,
          -1.0670573675431603,
          0.265820339856387,
          -0.3225775297823741,
          0.3856691042842624,
          2.254988173161565,
          0.9884443953350796,
          2.119323002323395,
          2.767650973706831,
          1.918321141560441,
          1.443600174412168,
          2.0485571752696843,
          1.920558361892523,
          1.2335561618339907,
          1.8064292125956158,
          0.5016532398440657,
          1.1166365431408891,
          -0.3986086286711152,
          2.5784632405879826,
          0.39482342257086167,
          0.2521838288848407,
          -0.049204170618615616,
          -0.6840501313449521,
          0.7214596787013559,
          -0.3319269902754273,
          0.39362200115398116,
          -0.8705975921411635,
          -1.1907620158424597,
          2.158824437890406,
          -0.7624912281280709,
          -0.10921683520096531,
          -0.9733582610093222,
          1.2656696846705944,
          -0.4252878521527377,
          1.3454533764539696,
          1.7548560009188872,
          -0.14739118629764922,
          -0.5458795923576283,
          -0.0849199457880099,
          -0.027371137526791343,
          -0.09019319457700918,
          1.1861336308886978,
          -0.007236447852223352,
          0.3338023376141644,
          -0.1930941040115796,
          1.0132380298515273,
          -0.8892974102830103,
          -0.26613044775482725,
          1.2511506683518772,
          -0.5867188003605999,
          0.4172821371886424,
          0.822482684580631,
          0.05985818487080907,
          0.6031417345695301,
          0.8426248996654254,
          -1.3134976787171897,
          -0.05840200555996246,
          -0.9559737409961414,
          -0.9454995909198014,
          1.2472448355622487,
          -0.03232502859423361,
          1.8896004684471737,
          -0.2716356295769437,
          -0.49438977836243786,
          -2.3190285621090827,
          -4.90909789637624,
          -1.0853130970827074,
          0.39180082720844284,
          -0.2439770282333581,
          -0.9281524837589552,
          -0.4638805061832929,
          -1.202956626425484,
          -1.2421557961268033,
          -0.6075468473990335,
          0.6464183478304336,
          -1.3559828449113138,
          -0.5419698060825214,
          1.2422426126499255,
          0.45960273468300855,
          -0.12530759485474804,
          0.3355614906724877,
          0.4466886013605226,
          -1.4914342010945594,
          -0.9376420933836306,
          0.0824082613331969,
          -0.14139863399674935,
          -1.2888098993487682,
          -1.0465557683555062,
          -0.3460425563000121,
          -0.9796322667658725,
          -1.2472070804514623,
          -2.4088321891553903,
          -3.44625011460787,
          -4.019355005838102,
          -1.9213548300776888,
          -0.405141775953887,
          -0.4748215539206306,
          -0.7452750370147833,
          0.03074304534753371,
          0.13942719319719066,
          0.01753731577811928,
          -2.0203562631937837,
          0.04860692325927064,
          -0.6442304206026302,
          -0.23397809959748087,
          1.0127224806498425,
          -0.4169393972467874,
          1.328184197261962,
          0.9310561020113454,
          -0.6497811537998817,
          -0.0670557943304274,
          -0.2576907486370321,
          -1.768159566981684,
          -0.3295752592162015,
          -0.12153247073419576,
          0.6028017378879781,
          -0.43000778840383613,
          -1.030090636622178,
          -0.13613039766931453,
          -2.8146596695061885,
          -2.9333431399284082,
          -1.1714289172190822,
          -0.8359601448186637,
          -2.5770119119146244,
          -1.4030338331005985,
          -1.5642316520103563,
          -0.2622474695642599,
          -0.10497749649692875,
          -0.5996958384418541,
          0.5283592764413723,
          -1.5123564821338666,
          0.04915098385283182,
          -0.668828139016737,
          0.3583230618538182,
          1.5022514128792106,
          2.0736124763482104,
          -0.7695834754900205,
          1.2519633649901731,
          0.0347166378534234,
          -0.8476752352212121,
          0.05413739858293185,
          -1.7667622180999134,
          0.028827474801441447,
          -1.3755066236414852,
          -2.1714360961055,
          0.915804015898275,
          -2.224449363743126,
          -2.7254667652754065,
          -2.2659432965148336,
          -1.7241981378265538,
          -1.5213443425427418,
          -0.4748706016105859,
          -0.10095705244550397,
          -0.5837989632709978,
          -1.3709189042942909,
          -0.5191652679386433,
          0.6041918380035305,
          -1.4811715914190065,
          0.8923022700658627,
          -0.07906239331411087,
          1.688950697234851,
          1.1457995168985908,
          -1.8555195191395566,
          0.8737747132443352,
          1.8606502058882186,
          0.539283189042638,
          -0.6234751853487231,
          1.1646635759292,
          -1.2813603683123422,
          0.7909081452310907,
          0.02484592545342791,
          0.4173728030116846,
          -0.1993519196605348,
          -0.848450430498457,
          -2.970022327653265,
          -2.348215566641896,
          -1.4935761878600242,
          -0.7724978902146776,
          0.20206370141407687,
          -2.024709457951735,
          -0.6634792661426042,
          -0.9814630343334898,
          1.466517034560229,
          -0.10569831295507086,
          -0.5099229469945108,
          -0.0340512931945164,
          0.04989771400505649,
          -0.3883603104944306,
          -1.206692505554213,
          -1.5235506910566146,
          0.33248569747979034,
          -1.2287923361185968,
          -0.8597689658423652,
          -1.0355759198516146,
          0.8150653763743588,
          -1.0630195785115244,
          -1.8895329100417004,
          -0.41297734756441074,
          -2.2073378681902476,
          -1.3730101688161649,
          -1.6008319178989545,
          -1.7603374989501392,
          -3.8925941886989066,
          0.0675999617893269,
          -0.725313860585274,
          0.3076454124269747,
          0.45578387519499364,
          -0.39336312190175293,
          -1.2208324266932473,
          1.4953414931726274,
          -1.5935615664130987,
          -1.300581622435784,
          0.9254918559721698,
          1.7945318098076262,
          0.04314300676691504,
          0.22455029665049767,
          0.12729267522982354,
          1.7604198815216239,
          -0.11826968330502462,
          -0.5324195550322556,
          0.3087529654821457,
          -0.2917351825946453,
          0.4353659103337315,
          0.5570861263304281,
          -1.0307607745370688,
          -0.8545986181230166,
          -1.2338414216266302,
          -0.3171892096694734,
          -0.36435282159968263,
          -2.66241765543731,
          -1.955172834566826,
          -0.17673190756763693,
          0.6769298061448067,
          0.7889682881502121,
          -1.2392165856660442,
          0.37166093097834807,
          1.114618389601838,
          -0.7851200927670882,
          1.5172545235073296,
          -0.334921273197365,
          0.11612920011727096,
          -1.2226770493660841,
          -0.6564104759472456,
          1.0032912389975102,
          0.4177141477420173,
          -0.21474922018416764,
          0.6007113764584153,
          -0.23949895873512647,
          0.5717633976128638,
          -1.1203735909280683,
          -0.6203254289533447,
          -1.2684461535950449,
          -0.03225703720563792,
          -2.4935017477260963,
          -2.198843540549561,
          -0.7692795040577824,
          -1.2820933602200761,
          -1.5540179954604505,
          0.4020492156449074,
          0.31178800871619766,
          0.46344484714376855,
          0.98362922909175,
          -0.43651230016032966,
          0.9491183634743213,
          -0.22731615061876748,
          -0.6049848151313232,
          -0.42412547643886755,
          -1.375630580689396,
          -1.7020832152943588,
          -0.8716931044572866,
          -0.6949687837510901,
          -0.6094069654507829,
          -0.003231849770690981,
          -0.23169047330119755,
          2.3135271341115904,
          -0.1934864790931004,
          -0.22627958528657405,
          -0.5181162544188341,
          0.40728753774053095,
          -0.7657393531116374,
          1.4632402462657992,
          -0.42847315564716937,
          -1.9094820421643341,
          -1.8794276464240376,
          -0.2483708557704748,
          -0.16267153148581096,
          0.4649080653532897,
          -0.06513851812589494,
          0.5782263057332563,
          0.6932951166564604,
          0.7814280433612882,
          -0.8905534221473049,
          -0.24616777608246737,
          -1.1762102890246546,
          -0.954403365190627,
          -0.15133999613503032,
          -1.6450787253670303,
          -2.008978617796205,
          -0.753115828666598,
          0.30269435476602957,
          0.7837082947401146,
          -0.4696351832057115,
          -1.9517120451400005,
          -0.7735676499640629,
          0.5055281061793058,
          -0.4026153940919726,
          0.8165623344013987,
          -1.244486548175357,
          -2.583715691425773,
          -0.9398967070257264,
          -0.9288693966741285,
          -1.0589349753582848,
          -0.8614094675760398,
          -0.38760066262793186,
          0.9444314530005246,
          0.32985615071768387,
          -0.19786660374170667,
          0.3225035203081953,
          0.42890099302250556,
          -0.7165314345572823,
          0.5400595276356718,
          -0.6635743761370896,
          -1.5265550799997767,
          -0.11083670642336163,
          -1.4931241385921024,
          -0.25340749928267353,
          0.37216539247484964,
          -1.1950002130778759,
          -0.7384878386874842,
          1.8639802900317692,
          -0.6200976444851346,
          -0.06604307899444169,
          1.088745289363647,
          -0.9211975322511574,
          -0.05579461961276295,
          -1.6194589019882992,
          -0.15105765380697284,
          -0.7208381586380375,
          -1.752397740953511,
          -0.5659785959335936,
          0.34444388746278315,
          -1.0636348835516805,
          -0.10664882016104599,
          0.6408227815044052,
          0.7035307186246595,
          0.5362823674331031,
          0.6287683313234363,
          -0.034682622065070216,
          -1.363214331526694,
          -0.4562590903278138,
          -0.4713581067940641,
          -0.9416618267919515,
          -0.23989249980794466,
          -1.224970587847,
          1.4158416415085469,
          -0.9879952446126626,
          -1.6685139021120234,
          -1.627568472675571,
          0.586794733736878,
          0.8565814012027615,
          0.7589095144847228,
          0.44541930720370837,
          -1.0143939824193378,
          0.472172852176866,
          0.8549032190118644,
          0.1040517685632916,
          1.8028009399412774,
          0.02748017529767537,
          -0.059290547225530434,
          -0.6480385875437854,
          0.583523298981865,
          -0.28441718911152286,
          -1.3462773927159273,
          0.06104131834468717,
          0.728974258273071,
          1.095640501489607,
          0.706425616366778,
          -0.9477591276732206,
          -0.00314380206053711,
          -1.2590034438789235,
          -0.5257899185813217,
          -0.46626379475215474,
          -0.9921451601511945,
          0.3229208504133601,
          -0.32731439328237155,
          1.9194477879597287,
          -1.6415299469098326,
          -0.7884663249080973,
          0.0049422946691941435,
          0.05622244751438961,
          0.201993760344961,
          -0.426785699300391,
          0.25477315852109833,
          1.1009216961537873,
          -1.004491950805102,
          0.7083227750154681,
          0.6254117170873696,
          -1.0851644484359306,
          -0.44810038962105825,
          -0.4765810087616907,
          0.9301735716993653,
          0.3416573205435053,
          0.10940312558973576,
          0.805306873984737,
          -0.03740935102254275,
          1.566833063585815,
          0.2546987809654836,
          -0.7572124438470396,
          1.2944533221509538,
          1.2691491732416322,
          -1.2153561351459818,
          0.759928344775125,
          0.7282930102576033,
          0.2723946285972355,
          -0.1358887341698024,
          0.26903555468420876,
          -1.4212481339820842,
          2.557808819902532,
          -1.2874963512858792,
          -1.1577825181931352,
          -0.35577224925949064,
          0.9914010297358293,
          -0.036848204930315466,
          -0.02174632952903433,
          0.7267842539724692,
          -0.055549294360520474,
          2.090623600418746,
          0.14259081319324646,
          -1.1184717492736387,
          0.45842809405304574,
          0.7852107277429063,
          -0.8281678950737014,
          0.05975365623046295,
          0.9272141512336644,
          -0.37511296615926376,
          1.194432631668362,
          0.362634368937,
          -2.195535463757396,
          0.21945586894755412,
          -0.5491290913012807,
          0.2045418956816548,
          -1.7754444876019653,
          0.01274783437204669,
          -0.5547227920576895,
          -0.5435385467559137,
          1.859065925031217,
          0.18090853788575276,
          0.240891736194177,
          -0.5863452816136836,
          -0.5621824409044276,
          0.7121311336953846,
          -0.7676035536312855,
          0.2580372796855126,
          -0.8642647133029192,
          -1.3959119300530776,
          -0.7166787232086461,
          -0.5772274784049909,
          -0.276850806029605,
          -0.3642826881163225,
          -0.08341296043217929,
          1.005862192257448,
          0.05429229197957581,
          0.3476894917455447,
          -0.4097059232256552,
          -0.9551726776070868,
          0.11934723550715241,
          -0.6253060388733263,
          -0.5671084900687784,
          -0.31957722426827795,
          1.672218122078042,
          -0.5374282659251709,
          0.08283758677555943,
          1.176538710250487,
          -0.35771853381329394,
          0.4386197529513983,
          0.7599136007131925,
          -1.4418725918378261,
          -0.7902850520463706,
          1.8810100881774945,
          1.2403434758280645,
          0.9810278023870129,
          -0.8266797470837981,
          -0.6127645914555733,
          0.526661030397053,
          -1.024493594531563,
          -1.5913929616607545,
          -1.110944734016055,
          -0.9061633322725579,
          -0.2001036680348607,
          0.3541568645160442,
          1.415575856304935,
          0.08531114185212446,
          1.1515696974941874,
          -0.7933076184602736,
          1.5214929388064387,
          2.9372272053926705,
          0.6835946216222327,
          -0.37656663570247295,
          -1.5295257078141935
        ],
        [
          0.6033611550736813,
          0.39664765605255814,
          1.2594717819769483,
          0.23808053172739094,
          0.6554652447508089,
          -0.24178508057604467,
          -2.2070632630639015,
          -1.105814335932652,
          -1.2064681894761227,
          0.8529636415829043,
          -0.20404841268876855,
          0.7546835700369002,
          0.7974699278642631,
          0.808604953470619,
          -0.660031091990706,
          -0.024537826011815478,
          -0.2578220110380954,
          -0.1501194094309402,
          0.3545733965786704,
          0.13092815155962015,
          2.2507683275496877,
          -0.6961521868072024,
          -0.9910120163908561,
          -0.23890354317284082,
          -0.8357512593152908,
          0.400256281233879,
          0.38360398477191476,
          -0.45547172126145813,
          2.0601293587760012,
          0.37385594901840974,
          0.3866154034582947,
          0.10261780240573161,
          1.6481043186832558,
          -1.0125026253886968,
          -0.13436420247796327,
          -0.956122452378837,
          -1.282191984468897,
          -0.1011303257313862,
          0.004899701223027232,
          1.5261186551535217,
          -0.21372487964056575,
          -0.4388380077309175,
          0.8258894934660227,
          0.45461130969754576,
          0.7346050942785458,
          -1.6861329134365972,
          0.18291327299316154,
          0.052831122149395525,
          -1.855155324536503,
          0.5994969298689206,
          0.8364054288470034,
          -0.8173914068123004,
          1.3300645472471506,
          0.9123470735718975,
          -1.4627580503754678,
          -0.4825956821903254,
          -0.668152442053775,
          0.16839948179661465,
          -1.041943645448791,
          0.2643764839013325,
          0.55825365965344,
          -0.002215074679819731,
          0.1992787007376145,
          -0.0718156240198962,
          0.3009153086964802,
          -2.5387782836759842,
          -0.17404283523444533,
          0.34956728465881864,
          1.563302686942534,
          -0.5021608796087665,
          -0.9450945748128179,
          0.8791753356246423,
          -1.643013736083044,
          -1.0813535930148492,
          1.133472131137861,
          -0.32248233610567967,
          -0.9095682091336849,
          1.248071759213363,
          0.3919107271963759,
          0.2841032796978567,
          -1.1869227649018717,
          0.8153856618560748,
          -0.39972222676342056,
          -1.0922717027968631,
          1.0960236677594803,
          -0.4196293626843528,
          -1.77119856082096,
          0.0281650128392995,
          -0.2711708572587709,
          -2.3805276768974455,
          0.5556090990973879,
          -0.13992569887416703,
          -0.7455499163838073,
          -0.06246540919098737,
          -0.8776147168224855,
          -1.935912907477036,
          -1.2548359099475068,
          0.8856553188422618,
          -0.4339911205526077,
          0.993703253559536,
          2.086903268974261,
          -0.20683454578735389,
          0.739455203386792,
          -0.6134602249543699,
          -0.4400784667125958,
          1.3289873500072389,
          0.34622315957248706,
          -0.32825327767414675,
          -1.1833322962774937,
          -1.4778029942899225,
          0.5157967767629638,
          -1.7267649008733104,
          1.6223351782616056,
          -0.9375899984982177,
          -0.5348929645046088,
          0.6519237837640475,
          -0.6794897978309936,
          1.0314606202366612,
          -0.5910911445351638,
          0.9096944566463183,
          0.15513939838940385,
          0.700436935917866,
          -0.5777253261830086,
          -0.5380924783476837,
          -0.30157213107688396,
          0.14720814806996924,
          -0.9281532671955419,
          0.6067331798811819,
          1.433923504546894,
          1.7293715329775792,
          0.8772996487473594,
          1.3685316277382138,
          0.28893770310175226,
          -0.4589362005333536,
          1.1651176921460873,
          -0.06295989532115714,
          -0.304287434027028,
          0.879494472306126,
          -0.39469384751341313,
          -0.6274706727991147,
          -0.019326746587261,
          -0.6009198513726846,
          -0.6617952354827508,
          -0.9744374946613388,
          -0.06932991802239839,
          1.4137962689630588,
          0.022020023934871576,
          0.6468090836245861,
          1.1908411992185581,
          -2.1018399544432036,
          -0.9370051795544203,
          -0.15687454915032192,
          -0.6201135179025792,
          -2.1523888998392917,
          -1.809097334352295,
          1.3097494917938761,
          0.3973577534649963,
          0.9712941755410538,
          0.6246923209503427,
          0.1670667779945604,
          0.8500733619309794,
          0.2688647047744133,
          2.183696330640911,
          1.4629421412910673,
          -0.32637630462126543,
          0.4587915553370794,
          0.5167632957188394,
          -1.2168607050314215,
          1.0480250844529362,
          1.9843387899738845,
          -0.7624532779161048,
          -0.7157279950111287,
          0.7586749309767101,
          -1.0906001895299018,
          -0.49940574111919117,
          0.8531225583509833,
          0.5464650326032745,
          -0.7162857327647907,
          -0.48192432477325114,
          -2.1259011064362023,
          -2.7044454065645325,
          -1.3519290707685945,
          -4.466145565363976,
          -2.750659005461417,
          -2.33565932050612,
          -2.2167776436180815,
          -1.9365667886061055,
          -2.1337170766024016,
          0.6732579767665349,
          -1.5629498258871135,
          1.4489786577043675,
          1.4179750716201422,
          1.0825224153099702,
          0.7796458211823433,
          -0.104130463078436,
          -0.2312043028281235,
          -0.42305527954215566,
          0.26322059916744195,
          0.0629729528047854,
          -0.4913617948074935,
          -1.0899863538474506,
          0.36640579737625306,
          1.0851621576542942,
          0.22745728213675484,
          0.15277693485065336,
          -1.533476789010517,
          -0.339836259494007,
          -2.6263626479480506,
          -3.4416015064088272,
          -2.878322202624809,
          -4.386917532589005,
          -3.6163466546666707,
          -4.992945160646641,
          -3.055234034200002,
          -2.2903345777075557,
          -2.5250267277706326,
          -2.387430203402647,
          -1.0240315025580708,
          0.5492381070789475,
          1.3869761352290788,
          2.4661088963321016,
          1.0919041266203418,
          -0.49504144175563275,
          0.013741296894089221,
          0.24215042361273173,
          -0.2676511413101325,
          -1.19937579498873,
          -0.47184715480606076,
          1.5518123257658702,
          -0.5072259098701515,
          0.656789954201226,
          0.7514305023568528,
          -0.11420158557680965,
          -1.7486441342363184,
          -1.089403082320607,
          -1.9540806083301143,
          -2.531505015731837,
          -2.425002540688367,
          -4.370662992656156,
          -3.742481040576521,
          -4.138830693846621,
          -2.665469958721056,
          -1.8717686837369656,
          -1.5737292484040497,
          1.1237099212609467,
          -0.10036364544810421,
          -1.0423647706590327,
          -1.0655527875517423,
          0.9214501686537713,
          1.5816939902149965,
          -0.6974140328144818,
          -1.3850722262127388,
          -2.031743396303353,
          1.3939450509156406,
          -1.2615775816000452,
          -0.21642912199318226,
          -0.15472225373335688,
          -1.7204308118417584,
          -1.5077085914061552,
          0.05457776533460049,
          -0.878097368389643,
          1.1682463597184696,
          -0.9865820008808817,
          -1.5145870629637455,
          -1.769841723166197,
          -1.775313292023364,
          -4.5725993172470805,
          -4.090723881748576,
          -0.7449647869337953,
          -1.008372978767604,
          -0.747149395933788,
          -0.48812312812246084,
          -0.8238436274395864,
          0.5399349574511456,
          0.2747633656572251,
          -0.8273924011417872,
          -0.9261966657750738,
          -3.226571253652012,
          0.5453311530788139,
          0.41041826981316554,
          -2.424804157334278,
          -0.9350761493407106,
          1.1130754279630466,
          0.6922785067325891,
          0.0707626989197856,
          -0.7056228242284471,
          -0.9251199127414443,
          -1.0116029253052208,
          -1.4871291208047381,
          -1.553253436841396,
          -1.0806495975131096,
          -0.6726565690413862,
          0.6170730086584112,
          -3.7985313439035244,
          -4.604266040015723,
          -1.0246844836604991,
          0.45629570049342716,
          1.0875579601718837,
          -0.4877295123377851,
          0.49820872219350093,
          -0.9530078893303234,
          -1.3052583813076606,
          -1.1935413639496235,
          -1.2405345349995562,
          -0.9807074625563722,
          -1.8182829407891328,
          -0.6689720693667134,
          -0.8896063674269917,
          0.755190904182201,
          -0.4413044492448547,
          0.6866894508767605,
          1.0712323280331102,
          0.5996817607027358,
          -0.5069417834660442,
          -0.4379208061323778,
          0.11839511329755409,
          -0.49707186098227685,
          3.0789120656778945,
          1.959361637001137,
          1.165266282868205,
          1.0627773168139352,
          -0.2289398072467802,
          -1.9790424241018114,
          1.9540147151836456,
          0.5457941809718208,
          -1.3052525314184844,
          -0.6190422999689599,
          -0.11832638939480328,
          -1.1639239410787872,
          -0.8802273083239128,
          -1.4094215688362723,
          -0.8200566985084163,
          -0.6120044866878864,
          -0.5085337104737301,
          -0.3720930495118675,
          -0.733875369757759,
          -0.5726830194565021,
          0.5614665124232595,
          2.741681596920606,
          -0.11992616606889153,
          -0.9961947256185438,
          0.38559026736153734,
          -0.33575366506287774,
          1.8471965704242304,
          1.7582965234544992,
          0.7234041781984047,
          2.1974994570850783,
          3.0702923076472035,
          4.7552222924868355,
          2.6429742121423585,
          -1.36073500394494,
          0.3595215220917568,
          1.5269743904952828,
          -0.9765576842970135,
          -1.7985655369770568,
          -1.9602254498156224,
          -1.227598113387698,
          -0.5421432795598337,
          -0.06693882509621724,
          0.5539159660737696,
          0.5895466834986514,
          -2.1450014622386635,
          0.3532470810564579,
          -1.4633422530925848,
          0.17329266551619776,
          1.2491283746501214,
          -1.9422120585938867,
          0.5139088132904617,
          0.4519750679421554,
          0.8546404594761735,
          1.311487392554002,
          1.2760636906123504,
          -0.01735142556378796,
          1.8430058154731115,
          0.09729091552717906,
          4.275297822544108,
          2.2049221512090136,
          -0.4097427171294667,
          -1.9380467616303918,
          1.4746211030061587,
          -1.279350848602896,
          -0.08768060077517513,
          0.036862290407086266,
          -0.6260684929991973,
          -1.5375447737330932,
          1.1622708958018737,
          0.48840230683816316,
          1.2493885532279307,
          2.40572119262174,
          -1.4521534088670947,
          -0.6520367445651126,
          0.5536469630922856,
          -1.933647193167108,
          0.7499368444372074,
          0.10084080042248053,
          0.5258366947724956,
          0.4465099552778024,
          1.8684022200561314,
          2.553909294866813,
          0.5619325599137093,
          2.0484910363892457,
          2.2061473645177436,
          1.337124873902274,
          2.285078191296485,
          3.451768300756611,
          -0.686737175787912,
          -0.36216378235662633,
          -0.7929651987432286,
          0.4523533480506554,
          1.9282686726265568,
          0.5263483826041875,
          0.1110156568715723,
          2.555823141815505,
          0.6786808695541635,
          0.767317049595002,
          1.2771238407084389,
          0.8176887266873799,
          0.5448200325537592,
          0.8782893951853816,
          -1.4374684978080148,
          -0.5269239590362672,
          0.12402432893080409,
          1.4435848656942696,
          0.2367732528489217,
          0.15508848541030443,
          1.2938104847548983,
          0.005629519607793545,
          1.605508762817791,
          1.0918092841896265,
          2.4861375315978407,
          0.6197825180708537,
          1.3322191114809105,
          0.8174128560408789,
          1.4796019487595458,
          0.8661608458475767,
          1.0062594546909416,
          0.9486204845180634,
          1.6428669739510422,
          0.43551327055725164,
          1.1451166644321615,
          -0.07499089839575193,
          1.5791336626750905,
          1.4308538308992302,
          -0.33440606785181515,
          -1.1010536913037237,
          -0.48509399391995633,
          -0.09487578022468865,
          1.3995754139903653,
          0.1619407875269827,
          0.25502269586637566,
          -0.7752819273460141,
          0.9571750149853454,
          -0.9595262701052718,
          0.6944897511757392,
          0.20877452980369102,
          0.3919331018222743,
          0.9402976734120961,
          0.4271177713725416,
          0.0039868127777915475,
          -0.6422839524849784,
          -1.185159651841874,
          2.9234822828292124,
          2.7424054013117765,
          2.0595923072702873,
          1.1962245687448887,
          0.3182386261188679,
          2.031073956767203,
          1.7501773660875788,
          1.3957773640100417,
          0.36914281247754754,
          2.164633039625767,
          -0.7967302378650416,
          -0.9625980119046708,
          -0.06980425125110602,
          -0.18683365810267114,
          0.15565036646041444,
          0.8195373669148851,
          0.5085937340488945,
          -0.09909427604248938,
          -0.33255258170225194,
          0.21243426254615294,
          -0.014479893429560041,
          1.4218114363682663,
          1.3311742374855065,
          1.3945495843444342,
          0.6702000952926754,
          0.8902767331466456,
          -1.259466300723911,
          0.20629442360586075,
          1.0779734448722154,
          2.7773653286938553,
          2.4292093372026264,
          0.1320491927272498,
          1.0012807716721286,
          -0.8386567294423787,
          0.6432203645724772,
          0.8185897774133909,
          -0.8728714422961299,
          0.9220609972867753,
          0.37860792264366305,
          -1.0733044742665117,
          -0.65259220008685,
          -0.6604751336064777,
          0.1427041303118358,
          0.5823393706748944,
          0.6018439856906894,
          0.2946039485184593,
          0.018353171439859154,
          0.30349331398228896,
          1.327337400617074,
          -1.0650389885397196,
          -0.14164767176436135,
          -0.007218187957107484,
          0.35807550257112375,
          -1.2772809885230967,
          -0.8581090861264139,
          1.8775801834068584,
          1.1338848069311096,
          2.135288769022939,
          -0.34301509147361964,
          1.5426280083295432,
          0.8924273735393188,
          -1.3903259451263223,
          0.5279296081557024,
          -0.2720318845085831,
          0.2533405954160471,
          -1.585464652564064,
          -0.8144139379483895,
          -0.50614666057599,
          -0.6409587819285054,
          -1.1613382503082454,
          1.2786992057058413,
          -0.3635521223255174,
          -0.9927574130032634,
          -0.23338807223426897,
          -0.288605366944007,
          -0.7834505374030594,
          -0.02404937388605711,
          -1.1262920902189872,
          0.06490498862672427,
          -0.28060385441328306,
          -0.6948204599981221,
          1.1846133483405126,
          1.2758381605864357,
          0.29908556734333847,
          -0.10279049779839895,
          0.22669820535102925,
          2.4671944118282596,
          0.7043470748005612,
          0.21317766551132472,
          -0.4789435021624954,
          -1.9303907968728042,
          -1.0992105695003673,
          1.117317588944312,
          -1.0541557027044313,
          -1.4515337988560908,
          -0.8955661707545464,
          -2.2322261899877223,
          -0.7177752361600839,
          -0.8085783871815482,
          1.0005917664497186,
          0.33722404249909904,
          0.6014685252318174,
          0.8433583086165295,
          0.31041066420297975,
          0.2739525226142344,
          -1.0520038713044342,
          -2.1044362288761405,
          -1.5719159399261888,
          -0.8351178571553683,
          1.318790196118292,
          0.4160061252906465,
          2.004353133839928,
          1.4094680402541868,
          0.138730111687694,
          -0.2972224938501178,
          1.0223977966074307,
          0.6079245080129607,
          0.5300162848990542,
          0.8391252011260893,
          -0.6562471421994348,
          -1.3278413099053052,
          -3.489395808112746,
          -0.694340003594289,
          -1.461456411191699,
          -1.8483603594297109,
          0.6581118290644757,
          -2.025346781692626,
          0.5445613870192711,
          -0.08976490944959321,
          0.3121014872736333,
          0.8342894918528847,
          -0.05590647879528335,
          -1.7673608039556568,
          -1.6886467277954684,
          -0.9605403581977789,
          0.20968806533179193,
          0.011766332997511366,
          0.783473158422707,
          2.1600329186993883,
          3.2797104481240145,
          0.4651097967851156,
          1.2193453513300443,
          0.8517008470259386,
          0.7342084903953667,
          1.3274735172144507,
          1.3696181576558846,
          0.31157543350057254,
          -0.016756220859795574,
          1.104616837100403,
          -0.2540097782990658,
          0.03752934479034962,
          0.148356276944918,
          -0.21116778668803635,
          -1.3387604380190608,
          -1.8918737452775733,
          0.4836065804513227,
          1.3384883386759654,
          -0.5561797075283813,
          0.09239019976653158,
          0.015635779207636345,
          0.0707942233760178,
          -0.3505212969514934,
          0.08913640313530699,
          -1.6542485905193278,
          -2.56501178512912,
          0.4886183348183793,
          -1.23773309351072,
          -2.2331601295124375,
          0.8735925673204336,
          -0.6771216346042152,
          -0.060724539802928475,
          0.3274421681504761,
          2.267425870923285,
          1.3520222521098801,
          0.036442803701426794,
          -1.1707968142701977,
          0.40363074521646625,
          0.13558515598699794,
          -1.2937528065330874,
          1.1633398307603957,
          -0.8991351137468357,
          0.2566978628065127,
          -0.8089539694796738,
          1.678322986261157,
          0.9900029934779504,
          0.20708647972829525,
          -1.0943582734825965,
          -1.4537413837537152,
          -0.34874064021829976,
          0.8630176835232874,
          -2.4567704268247983,
          -1.1629813652266918,
          -1.448479468803657,
          -2.1579697927657038,
          -1.277859450077111,
          -1.2880636012083226,
          -0.45749436475703786,
          -0.9194037626887474,
          -0.725823586955408,
          -0.46258918845080776,
          -1.7056107224421424,
          1.1338881941868442,
          1.2428443711671808,
          -0.3054355306916474,
          0.5404986612634833,
          -1.5689771376370922,
          -1.6160992687681346,
          -0.8659052907629828,
          1.5269397227052242,
          -0.546103688970115,
          -0.9705382824287557,
          0.4748903057541559,
          -0.5488107259100646,
          0.5723497088826206,
          -1.1736901437300504,
          -0.3800073574273252,
          0.6360208212374807,
          1.4085879161426689,
          -1.5449132469261724,
          0.9541259568043555,
          -1.351348514204092,
          -1.8101526548134739,
          -0.12215612852990294,
          -2.4357482975189577,
          -1.1140094896171828,
          -1.4002929987030979,
          0.5776335597323956,
          -0.6396241742918605,
          0.7010105033177678,
          -1.8516812382099417,
          -1.95805445191386,
          -0.885473609916637,
          -0.5354546354909606,
          -1.9428684219500723,
          0.06643200745177343,
          -1.7624072451978783,
          -1.371115040550419,
          -0.11877086889429621,
          -0.01081593061249454,
          -0.9332631231257652,
          0.09379169607439893,
          -0.09019525050560263,
          2.2948040475670157,
          -1.3169752279854656,
          -1.1254359899684439,
          0.04431420763618689,
          -0.888091005837822,
          -1.6661078842604704,
          -2.040749104140235,
          -2.1111176754726855,
          -0.7313948976026873,
          -2.005686871335415,
          -2.411832864148885,
          -1.074928713030696,
          -0.9453960941299968,
          -1.826968260295261,
          -2.1888705347086197,
          -2.0897314270461,
          -2.0206662917667724,
          -0.5049604285158372,
          -0.7176299648580281,
          -0.26290345101495416,
          -1.3165395110514608,
          -0.673101865338359,
          -0.041514643919880835,
          -1.7215339192110366,
          1.4523336417251747,
          -0.45628112101045365,
          -0.14207196738515965,
          0.43738762456678104,
          -0.7541937559765792,
          -0.11460114298039986,
          -0.2875732742985593,
          -0.3772188982861875,
          0.3031487873267999,
          -0.8030008096817686,
          -1.5331170328596755,
          -1.5134640615671748,
          -1.8887296687217154,
          -2.6343984918832777,
          -2.7014530616337007,
          -1.9772835641551498,
          -1.6884257202028907,
          -1.0647802929521284,
          -3.2124674386179954,
          -2.5831883963604776,
          -1.122861879344259,
          -1.249509330527369,
          -0.6290318199423413,
          0.00043456297698429066,
          0.8194594424149015,
          0.022094039593170908,
          -0.9567825228738195,
          -0.8125712795271807,
          1.0399823351382036,
          -0.4801638536429908,
          0.6320739798749937,
          0.5967020822951323,
          -1.159984077913724,
          -0.9177645736603889,
          -1.2838703776914493,
          0.25474643270455216,
          1.6835831306293545,
          -0.5410637149362731,
          -1.0040658006718208,
          -1.846243713981676,
          -0.26652589127284415,
          -0.9244668921582131,
          -0.5318422512068689,
          -0.4919250712586116,
          -1.1008803783891457,
          -0.7268183414779233,
          0.016358661734856228,
          -1.1827397766123766,
          -0.23295160607776635,
          -0.9086912770482224,
          -0.19925155492938518,
          0.8453052287555837,
          -0.3506873361046855,
          -1.4925715633047891,
          0.13030072430192943,
          1.8959236824570411,
          -2.5520199547260045
        ],
        [
          -0.8404282791127781,
          -0.4445206642753822,
          1.413034729453116,
          -0.4471747142178173,
          -1.028041403911164,
          1.665641137289937,
          -1.6256652782154128,
          0.34102591833524043,
          0.41963996038397033,
          -1.1333053155343729,
          0.42829931481185013,
          0.47953858110753633,
          0.01299496721378045,
          0.006930661387693993,
          0.10314148438889967,
          -1.5013498356385835,
          -0.0395167125143082,
          -0.06787533832490755,
          0.16207035498096242,
          1.150872011273768,
          -1.3821179271174602,
          0.3891515561054718,
          0.627469834018777,
          -0.9768980117173389,
          -0.7906983209226727,
          -0.1277750709030818,
          -3.0173923467139354,
          -0.16952758181457023,
          1.9140074813674026,
          -0.2741044341504378,
          -0.32495939612597685,
          0.30066339073179077,
          1.0377697793432077,
          -0.24468736877853178,
          0.19405718710195866,
          -0.1391525101388284,
          0.555694805734147,
          -0.5578149323398572,
          0.5280649185306505,
          0.36000060375631604,
          0.8697306801619028,
          -0.06398059681356166,
          0.676162487973836,
          -0.2934366145978718,
          -1.0690580152153775,
          0.6147159494397367,
          1.0173108479572326,
          -0.007642536197601856,
          0.5472619509009871,
          -0.43364277885059466,
          0.3983186866164709,
          -0.4185047692844469,
          -1.0451054884069673,
          0.9306460789808748,
          0.06876694132251851,
          0.41555985626359443,
          -0.08220339240613478,
          -1.241474456146485,
          -0.9416584022884047,
          1.7324475919417037,
          0.03244518457266417,
          -0.08572425030973496,
          -1.6122819377934183,
          -2.4639731586385167,
          -1.25612537444879,
          0.290423284980553,
          -0.9405613770273318,
          -0.795779288057119,
          -0.6728648910875771,
          1.3163099515368155,
          -1.6359012078372923,
          -0.4093912223594568,
          -1.0381402021740906,
          0.07036833343747492,
          -1.1239271770493031,
          0.027555235842710763,
          1.0490247302451636,
